SVM-light Version V6.02
0 # kernel type
3 # kernel parameter -d 
1 # kernel parameter -g 
1 # kernel parameter -s 
1 # kernel parameter -r 
empty# kernel parameter -u 
1024 # highest feature index 
40 # number of training documents 
41 # number of support vectors plus 1 
-0.022140851 # threshold b, each following line is a SV (starting with alpha*y)
-9.5340367746470951e-010 1:32381.047 2:98.121696 3:297.75989 4:0 5:0 6:265.06921 7:0 8:0 9:104.8451 10:53.463001 11:0 12:23.747801 13:8.7894001 14:0 15:42.847698 16:0 17:0 18:63.7192 19:0 20:0 21:49.109501 22:10.8117 23:0 24:29.233999 25:9.6177998 26:0 27:28.5429 28:1.3666 29:0 30:35.741199 31:10.9576 32:0 33:0 34:12.699 35:50.5242 36:0 37:0 38:39.7878 39:7.6317 40:0 41:8.4401999 42:17.883801 43:0 44:0 45:8.4041004 46:0 47:0 48:1.9101 49:0 50:2.7304001 51:0 52:0 53:5.2494001 54:2.4270999 55:0 56:3.2744 57:5.8873 58:0 59:0.79105002 60:4.9236999 61:0 62:2.8148999 63:7.4126 64:0 65:236.5032 66:0 67:0 68:223.2617 69:117.2633 70:0 71:30.947201 72:154.3876 73:0 74:0 75:68.492203 76:0 77:1.8953 78:18.2003 79:0 80:30.7271 81:33.450901 82:0 83:13.8949 84:48.991798 85:0 86:0 87:40.197498 88:0 89:0 90:29.3099 91:0 92:4.2672 93:31.934601 94:0 95:0 96:40.583099 97:34.174301 98:0 99:0 100:21.5371 101:30.778299 102:0 103:0 104:25.374201 105:1.2768 106:0 107:6.3853002 108:6.3463998 109:0 110:1.3807 111:5.2786999 112:0 113:0 114:4.1588998 115:3.1278 116:0 117:0 118:4.6900001 119:6.2729998 120:0 121:0 122:8.7414999 123:0 124:0 125:5.9805002 126:0 127:0 128:12.1529 129:0 130:7.7048998 131:10.7114 132:0 133:4.1216002 134:10.0098 135:0 136:4.4833002 137:6.8266001 138:0 139:7.8527999 140:8.7161999 141:0 142:5.2652998 143:13.646 144:0 145:0 146:10.5146 147:0 148:4.1332002 149:6.7707 150:0 151:7.4337001 152:13.6849 153:0 154:0 155:16.5688 156:0 157:0 158:9.8362999 159:0 160:6.6353002 161:77.4907 162:0 163:0 164:75.483398 165:42.7798 166:0 167:7.7927999 168:65.675301 169:0 170:0 171:35.824402 172:0 173:0 174:9.6132002 175:0 176:3.9830999 177:19.5282 178:0 179:0 180:32.596001 181:0 182:0 183:20.141199 184:8.2084999 185:0 186:5.4938002 187:3.6356001 188:0 189:9.3945999 190:0 191:0 192:14.1753 193:0 194:23.8995 195:76.200203 196:0 197:0 198:67.141502 199:0 200:0 201:27.4228 202:14.1976 203:0 204:8.8380003 205:3.2342 206:0 207:15.3564 208:0 209:0 210:24.556101 211:3.099 212:0 213:17.2314 214:21.6553 215:0 216:0 217:24.0047 218:0 219:0 220:7.6166 221:0 222:5.4022002 223:6.9169002 224:0 225:0 226:40.513302 227:137.3208 228:0 229:0 230:122.3213 231:1.3253 232:0 233:43.988998 234:42.973099 235:0 236:1.5735 237:21.000099 238:0 239:11.7383 240:0.25218001 241:0 242:27.531 243:11.6751 244:0 245:16.4025 246:34.525299 247:0 248:0 249:35.3988 250:0 251:0 252:17.9401 253:0 254:0 255:17.497299 256:0 257:10.4138 258:0 259:0 260:12.5677 261:0 262:0 263:8.724 264:0 265:0 266:11.0247 267:0 268:0 269:20.694201 270:0 271:0 272:20.6735 273:16.7771 274:0 275:0 276:31.407499 277:0 278:0 279:19.734501 280:8.1351004 281:0 282:0 283:8.1115999 284:2.1629 285:0 286:0 287:6.0047998 288:6.2321 289:22.278601 290:0 291:0 292:21.360701 293:12.8855 294:0 295:4.0166001 296:20.5285 297:0 298:0 299:19.3337 300:0 301:0 302:14.3188 303:0 304:0 305:12.1558 306:0 307:0 308:21.9433 309:0 310:0 311:26.9461 312:9.2440004 313:0 314:8.9666004 315:24.7752 316:0 317:0 318:15.8157 319:0 320:0 321:29.398399 322:0 323:0 324:27.3605 325:13.5136 326:0 327:7.2361999 328:19.2729 329:0 330:0 331:22.083 332:0 333:0 334:16.625401 335:14.1216 336:0 337:0 338:23.5609 339:6.9415998 340:0 341:0 342:24.9849 343:0 344:0 345:10.2111 346:10.3547 347:0 348:0 349:3.7983999 350:0.59459001 351:0.64613998 352:0 353:62.034599 354:0 355:0 356:43.579899 357:48.856098 358:0 359:0 360:38.985199 361:6.1532998 362:0 363:0 364:12.3565 365:9.9540997 366:0 367:0 368:13.9002 369:5.4775 370:0 371:0.50870001 372:3.6824999 373:0 374:4.2835999 375:0 376:0 377:16.8466 378:0 379:0 380:16.3564 381:10.7052 382:0 383:2.9079001 384:20.5012 385:0 386:17.095699 387:31.252199 388:0 389:1.6314 390:32.495701 391:0 392:0 393:31.4244 394:0 395:0 396:25.4874 397:0 398:0 399:6.2252998 400:1.3011 401:5.4382 402:0 403:0 404:14.8809 405:15.3047 406:0 407:0 408:25.245501 409:0 410:0 411:15.3869 412:0 413:0 414:10.9716 415:0 416:0 417:0 418:12.7818 419:74.445702 420:0 421:0 422:35.834 423:32.556702 424:0 425:0 426:14.4306 427:21.7246 428:0 429:0 430:11.7034 431:24.8526 432:0 433:0 434:21.068899 435:4.8762999 436:0 437:2.8441999 438:8.9789 439:0 440:0 441:0 442:6.8207002 443:0.50111002 444:0 445:5.243 446:16.9291 447:0 448:0 449:52.186298 450:0 451:0 452:58.8592 453:8.5417995 454:0 455:27.321699 456:21.101801 457:0 458:9.2336998 459:6.9159999 460:0 461:17.0758 462:0 463:0 464:27.431 465:0 466:0 467:22.4767 468:4.2579999 469:0 470:18.407499 471:0 472:0 473:24.827999 474:0 475:0 476:24.2104 477:12.0102 478:0 479:12.0114 480:16.677799 481:44.1469 482:0 483:0 484:20.300301 485:43.5667 486:0 487:0 488:17.026501 489:25.1224 490:0 491:0 492:8.8983002 493:29.415501 494:0 495:0 496:21.9979 497:18.7278 498:0 499:0 500:22.804001 501:0 502:0 503:6.0208998 504:10.1416 505:0 506:0 507:5.3790002 508:11.2755 509:0 510:0 511:16.952299 512:7.8558002 513:0 514:22.0784 515:63.824799 516:0 517:0 518:54.2994 519:0.24374001 520:0 521:4.7196999 522:16.7208 523:8.9436998 524:0 525:0 526:32.9916 527:15.0763 528:0 529:4.5328999 530:36.579399 531:0 532:0 533:13.3256 534:0 535:10.2156 536:5.2358999 537:0 538:15.7521 539:34.613701 540:0 541:0 542:44.791801 543:0 544:0 545:0 546:17.028299 547:73.769302 548:0 549:0 550:51.288799 551:22.1472 552:0 553:0 554:27.7771 555:6.3069 556:0 557:0 558:18.1742 559:14.0637 560:0 561:0 562:23.559799 563:2.2521999 564:0 565:1.6878999 566:10.1543 567:0.90359998 568:0 569:0 570:7.4489002 571:9.6688995 572:0 573:0 574:17.4981 575:0 576:0 577:4.7238998 578:2.6887 579:0 580:0 581:16.182301 582:7.2522001 583:0 584:0 585:34.897301 586:0 587:0 588:30.3624 589:23.934 590:0 591:0 592:34.875198 593:0 594:0 595:8.5235996 596:4.0061998 597:4.4436998 598:0 599:0 600:12.7597 601:24.943899 602:0 603:0 604:38.9725 605:0 606:0 607:19.378099 608:15.4316 609:50.675098 610:0 611:0 612:44.870098 613:33.578201 614:0 615:0 616:42.444599 617:0 618:0 619:8.7669001 620:17.1719 621:0 622:0 623:3.9704001 624:12.5276 625:0 626:0 627:6.8332 628:0 629:0.78293002 630:10.7441 631:0 632:0 633:23.780199 634:0 635:0 636:16.139 637:12.065 638:0 639:0.78921998 640:10.0761 641:38.397202 642:0 643:0 644:49.613998 645:6.8978 646:0 647:27.704 648:35.285198 649:0 650:0 651:40.591599 652:0 653:0 654:21.393999 655:1.8429 656:0 657:4.5696001 658:0 659:2.1277001 660:3.4175999 661:0 662:6.2880998 663:14.0455 664:0 665:0 666:27.731899 667:0 668:0 669:27.128401 670:6.2672 671:0 672:8.3299999 673:0 674:7.8551002 675:10.411 676:0 677:4.1683998 678:14.7304 679:0 680:0 681:15.7072 682:0 683:0 684:6.2873001 685:5.8952999 686:0 687:0 688:4.4191999 689:15.9369 690:0 691:0 692:27.635401 693:1.6149 694:0 695:15.9571 696:20.5513 697:0 698:0 699:17.668301 700:0 701:0 702:5.6682 703:0 704:10.198 705:0 706:10.0665 707:20.172899 708:0 709:0 710:27.4007 711:0 712:0 713:19.1777 714:5.6571999 715:0 716:2.8503001 717:7.6918998 718:0 719:0 720:0.60008001 721:0 722:1.103 723:0 724:2.0427999 725:2.6749001 726:0 727:2.1577001 728:12.1901 729:0 730:0 731:17.711901 732:3.4432001 733:0 734:4.1307001 735:14.6138 736:0 737:5.4335999 738:0 739:0 740:13.4527 741:0 742:0 743:27.000099 744:0 745:0 746:25.798 747:10.4781 748:0 749:0 750:16.536301 751:2.8227 752:0 753:0 754:15.1098 755:19.413401 756:0 757:0 758:35.564201 759:0 760:0 761:11.9115 762:14.6825 763:0 764:0 765:0 766:2.3341999 767:16.0748 768:0 769:0 770:2.6733 771:1.1002001 772:0 773:3.2681999 774:6.1280999 775:0 776:0 777:6.7449002 778:0.65443999 779:0 780:0 781:1.3851 782:3.9293001 783:0 784:0 785:4.2101002 786:7.4619002 787:0 788:0 789:8.6334 790:0.48576999 791:0 792:2.2578001 793:1.8085001 794:0 795:2.2725999 796:0 797:0 798:3.6673999 799:3.8636 800:0 801:0 802:11.5208 803:24.702801 804:0 805:0 806:22.1406 807:0 808:0 809:18.8818 810:0 811:0 812:15.7987 813:0 814:0 815:1.9123 816:0 817:9.3615999 818:0 819:0 820:12.8421 821:21.1173 822:0 823:0 824:29.868401 825:0 826:0 827:15.0339 828:3.2526 829:0 830:7.1093001 831:0 832:0 833:0 834:1.8641 835:36.126099 836:0 837:0 838:13.6512 839:26.870501 840:0 841:0 842:15.6714 843:2.7162001 844:0 845:1.9249001 846:0 847:2.7748001 848:11.8597 849:0 850:0 851:15.6328 852:0 853:0 854:10.5634 855:0 856:0 857:11.7734 858:0.99523997 859:0 860:6.4275999 861:8.6195002 862:0 863:0 864:1.1988 865:10.9842 866:0 867:0 868:10.9579 869:4.6294999 870:0 871:1.3458 872:6.8471999 873:0 874:0 875:0 876:4.6543002 877:1.3816 878:0 879:2.4465001 880:9.5527 881:0 882:0 883:13.2932 884:0 885:0 886:14.8237 887:0 888:0 889:15.0103 890:6.6854 891:0 892:6.5703001 893:18.059999 894:0 895:0 896:18.1019 897:43.644199 898:0 899:0 900:18.2694 901:54.150299 902:0 903:0 904:38.406799 905:19.077101 906:0 907:0 908:18.3046 909:0 910:0 911:0.93200999 912:0 913:11.1949 914:5.1605 915:0 916:6.1083999 917:11.8387 918:0 919:0.41259 920:9.3613997 921:0 922:0.66899002 923:5.6588001 924:0 925:3.6694 926:1.0487 927:0 928:11.1679 929:13.2102 930:0 931:0 932:5.8369002 933:11.097 934:0 935:0 936:1.5364 937:3.2477 938:3.0762 939:0 940:0 941:6.9745002 942:3.2728 943:0 944:1.4858 945:4.756 946:0 947:2.1514001 948:6.4440999 949:0 950:0 951:14.8923 952:0 953:0 954:9.3238001 955:11.3227 956:0 957:0 958:9.4791002 959:2.9112999 960:0 961:0 962:0 963:13.7152 964:7.6153002 965:0 966:0.63174999 967:28.1541 968:0 969:0 970:21.9174 971:3.0106001 972:0 973:7.9783001 974:0 975:0 976:13.1024 977:0 978:0 979:20.786301 980:1.7704 981:0 982:9.8977003 983:12.7908 984:0 985:0 986:5.3224001 987:0 988:2.8320999 989:0 990:0 991:10.8761 992:0 993:16.809601 994:0 995:0 996:25.4125 997:1.0714999 998:0 999:15.9657 1000:21.094999 1001:0 1002:0 1003:25.502001 1004:0 1005:0 1006:11.7299 1007:6.4951 1008:0 1009:2.6654999 1010:7.3323002 1011:0 1012:0 1013:9.9861002 1014:0 1015:0 1016:8.2945004 1017:4.3889999 1018:0 1019:0.68734998 1020:6.9826999 1021:0 1022:0 1023:5.0700998 1024:0 #
9.5340367746470951e-010 1:32378.641 2:62.111599 3:326.77429 4:0 5:0 6:191.5761 7:86.643898 8:0 9:13.6956 10:61.583 11:0 12:28.379999 13:36.597801 14:0 15:9.3196001 16:82.1278 17:0 18:0 19:52.833698 20:0 21:0 22:25.552299 23:0 24:0 25:41.243698 26:0 27:0 28:29.084299 29:21.115801 30:0 31:9.3627005 32:27.099899 33:0 34:16.6737 35:108.1741 36:0 37:0 38:54.126801 39:44.545399 40:0 41:0 42:26.073601 43:0 44:0 45:1.8006999 46:0 47:3.6605999 48:13.5245 49:0 50:0 51:6.0604 52:0.91417998 53:2.3422 54:1.967 55:0 56:1.558 57:18.541 58:0 59:0 60:14.8971 61:10.1281 62:0 63:0 64:10.332 65:209.5659 66:0 67:0 68:128.9577 69:168.5071 70:0 71:0 72:110.8534 73:0 74:0 75:42.303001 76:0 77:0 78:77.818199 79:0 80:0 81:55.8633 82:32.692699 83:0 84:8.2081003 85:31.430901 86:0 87:3.6194999 88:22.1982 89:0 90:1.0233001 91:24.281401 92:0 93:0 94:27.8165 95:0 96:0 97:75.153603 98:0 99:0 100:27.285999 101:79.229599 102:0 103:0 104:29.0331 105:33.8386 106:0 107:0 108:4.2793999 109:15.2207 110:3.427 111:0 112:0 113:10.6479 114:1.4727 115:0 116:1.3922 117:0 118:0 119:11.5553 120:0 121:0 122:7.9628 123:11.392 124:0 125:0 126:7.4310002 127:0 128:0 129:0 130:2.0606 131:0 132:0 133:8.5071001 134:0 135:0 136:16.054199 137:5.2825999 138:0 139:10.1675 140:26.9939 141:0 142:0 143:39.702499 144:0 145:0 146:16.872 147:29.0802 148:0 149:0 150:15.0756 151:9.9096003 152:0 153:0 154:0 155:25.4748 156:9.5685997 157:0 158:0 159:39.992699 160:0 161:102.1753 162:0 163:0 164:80.349899 165:75.962097 166:0 167:0 168:83.881203 169:0 170:0 171:49.8554 172:0 173:0 174:30.599001 175:18.378401 176:0 177:3.9212999 178:26.108999 179:0 180:0 181:3.7251 182:0 183:14.3231 184:2.9481001 185:0 186:10.5114 187:34.291401 188:0 189:0 190:36.589001 191:6.7579999 192:0 193:16.9251 194:0 195:0 196:12.7011 197:13.2187 198:0 199:0 200:5.3060999 201:12.9808 202:0.77511001 203:0 204:0.53604001 205:36.700001 206:0 207:0 208:23.643 209:33.317101 210:0 211:0 212:23.947701 213:2.0274 214:0 215:2.5509 216:0 217:6.7887001 218:32.9067 219:0 220:0 221:41.250702 222:20.301701 223:0 224:0 225:0 226:33.063 227:153.7493 228:0 229:0 230:104.8206 231:33.234001 232:0 233:17.9877 234:40.389198 235:0 236:8.2389002 237:30.2792 238:0 239:0 240:45.271099 241:0 242:0 243:20.379499 244:7.8617001 245:0 246:5.2108998 247:0 248:0 249:37.169102 250:0 251:0 252:32.205299 253:30.3349 254:0 255:0 256:36.985401 257:0 258:18.357901 259:91.444199 260:0 261:0 262:58.677898 263:37.456699 264:0 265:0 266:33.3274 267:16.415501 268:0 269:0 270:12.4645 271:30.759199 272:0 273:0 274:19.472601 275:17.754999 276:0 277:0 278:0.53947997 279:0 280:19.5914 281:0.86508 282:0 283:12.3899 284:38.4291 285:0 286:0 287:32.2439 288:11.7326 289:5.5465999 290:0 291:0 292:6.0925999 293:0 294:0 295:4.3723001 296:0 297:0 298:11.3833 299:0 300:0 301:9.1049004 302:18.6241 303:0 304:0 305:19.3141 306:7.2603998 307:0 308:0 309:7.0795999 310:1.4614 311:1.8832999 312:0 313:0 314:11.2293 315:7.1813998 316:0 317:0 318:14.4884 319:0 320:0 321:19.370399 322:0 323:0 324:19.021099 325:16.586 326:0 327:0 328:22.076799 329:6.4011002 330:0 331:0 332:12.2172 333:15.0256 334:0 335:0 336:11.5698 337:21.261299 338:0 339:0 340:8.1984997 341:16.8822 342:0 343:0 344:0 345:19.364599 346:5.1455002 347:0 348:0 349:21.1532 350:0 351:0 352:7.8133998 353:37.805401 354:0 355:0 356:23.834499 357:31.7327 358:0 359:0 360:30.8346 361:0 362:0 363:26.0797 364:7.6121001 365:0 366:5.2311001 367:27.464701 368:0 369:0 370:9.6721001 371:6.5409999 372:0.27704999 373:0 374:0 375:1.7902 376:23.8934 377:0 378:0 379:17.7575 380:21.5541 381:0 382:0 383:22.2432 384:0 385:9.2335997 386:0.80426002 387:0 388:0 389:12.0686 390:1.8380001 391:0 392:0 393:5.2493 394:0.59388 395:0.51367003 396:0 397:0 398:3.0778 399:10.5571 400:0 401:0 402:5.7255001 403:15.2779 404:0 405:0 406:5.5626998 407:20.606701 408:0 409:0 410:11.6565 411:22.315701 412:0 413:0 414:20.824699 415:9.3050003 416:0 417:0 418:5.9064999 419:47.6931 420:0 421:0 422:17.0734 423:10.2936 424:0 425:9.1499996 426:0 427:0 428:16.3701 429:23.281799 430:0 431:0 432:25.137199 433:7.5172 434:0 435:0 436:0 437:1.0168 438:20.830299 439:0 440:0 441:19.665701 442:33.421799 443:0 444:0 445:29.9028 446:13.8225 447:0 448:0 449:1.2987 450:0 451:0.57089001 452:11.562 453:0 454:0 455:12.5944 456:11.5312 457:0 458:0 459:14.6442 460:1.4384 461:0 462:0.84179997 463:4.6424999 464:0 465:0 466:0 467:0 468:3.5439999 469:1.5173 470:0 471:0 472:3.3738 473:2.6066999 474:0 475:0 476:3.1094999 477:5.7867999 478:0 479:0 480:4.6101999 481:57.202301 482:0 483:0 484:9.5234003 485:55.938099 486:0 487:0 488:0 489:14.3286 490:19.9571 491:0 492:0 493:0.30702001 494:36.762798 495:0 496:0 497:0.58911997 498:16.3815 499:5.8755002 500:0 501:0 502:0 503:30.321199 504:9.2854996 505:0 506:0 507:35.622101 508:0 509:0 510:5.2691998 511:8.1294003 512:0 513:39.813202 514:2.2637999 515:0 516:0 517:54.289299 518:9.7948999 519:0 520:0 521:48.100399 522:11.8951 523:0 524:0 525:36.653801 526:8.3161001 527:0 528:0 529:20.4963 530:5.0096002 531:0 532:0 533:7.0862002 534:6.1809001 535:0 536:0 537:4.4949999 538:5.033 539:0 540:0 541:6.4232001 542:0 543:0 544:10.4942 545:0 546:0 547:14.6722 548:12.8699 549:0 550:0 551:12.8316 552:26.3564 553:0 554:0 555:10.3428 556:29.203199 557:0 558:0 559:2.6012001 560:20.3657 561:5.1648998 562:0 563:0 564:13.1102 565:23.9902 566:0 567:0 568:18.6889 569:29.3396 570:0 571:0 572:23.4722 573:12.0232 574:0 575:0 576:8.1826 577:0 578:0 579:74.7826 580:12.939 581:0 582:0 583:72.7649 584:23.1022 585:0 586:0 587:65.611099 588:18.553101 589:0 590:0 591:45.059799 592:7.5148001 593:0 594:0 595:16.569401 596:8.3366003 597:0 598:0 599:4.0423999 600:16.488001 601:0 602:0 603:11.7123 604:8.6077003 605:0 606:1.3932 607:11.1424 608:0 609:0 610:9.0523996 611:77.950798 612:0 613:0 614:29.193399 615:41.203602 616:0 617:0 618:15.8961 619:15.6346 620:0 621:0 622:3.6445999 623:14.7197 624:0 625:0 626:13.2884 627:10.7504 628:0 629:0 630:22.004299 631:0 632:0 633:4.158 634:15.8284 635:0 636:0 637:0 638:8.5286999 639:7.4425001 640:0 641:0 642:10.9555 643:8.6884003 644:0 645:5.6759 646:38.490002 647:0 648:0 649:37.927799 650:25.7155 651:0 652:0 653:42.474998 654:0 655:0 656:5.9562998 657:24.528999 658:0 659:0 660:0.33995 661:17.191401 662:3.8150001 663:0 664:0 665:23.664499 666:0.57840002 667:0 668:4.8699002 669:17.751301 670:0 671:0 672:6.2255001 673:33.2374 674:0 675:0 676:0 677:36.893398 678:5.2852001 679:0 680:0 681:24.2768 682:15.4434 683:0 684:0 685:22.0403 686:6.3411999 687:0 688:5.4078999 689:10.5622 690:0 691:1.1364 692:21.748301 693:0 694:0 695:18.316401 696:14.5188 697:0 698:0 699:8.1087999 700:4.8347998 701:3.3096001 702:0 703:0 704:9.6913004 705:23.056 706:0 707:0 708:11.6456 709:18.5865 710:0 711:0 712:8.0095997 713:0 714:1.0221 715:10.9097 716:0 717:0 718:16.6078 719:13.6213 720:0 721:0 722:17.9603 723:18.715401 724:0 725:0 726:16.8643 727:27.6448 728:0 729:0 730:19.9622 731:22.8428 732:0 733:0 734:12.2016 735:5.3312001 736:0 737:14.5111 738:0 739:0 740:5.3829999 741:22.3708 742:0 743:0 744:14.6816 745:17.965401 746:0 747:0 748:11.6674 749:5.4594998 750:0 751:0 752:0 753:4.2957001 754:19.7446 755:0 756:0 757:13.106 758:23.482 759:0 760:0 761:7.2971001 762:15.6938 763:2.0506999 764:0 765:0 766:17.7132 767:16.857 768:0 769:27.1152 770:0 771:0 772:4.6638999 773:36.756302 774:0 775:0 776:13.0709 777:29.621 778:0 779:0 780:19.677999 781:18.306801 782:0 783:0 784:20.332199 785:11.3743 786:0 787:0 788:19.1831 789:10.3266 790:0 791:0 792:17.1597 793:8.2817001 794:0 795:0 796:7.6869001 797:6.2346001 798:0 799:0 800:0 801:8.2503004 802:0 803:0 804:11.5987 805:0 806:0 807:11.7244 808:9.7542 809:0 810:0 811:20.2714 812:1.8005 813:0 814:0 815:16.0231 816:8.8929005 817:0 818:0 819:17.6021 820:16.7283 821:0 822:0 823:15.6899 824:12.0081 825:0 826:0 827:0 828:13.1553 829:12.7168 830:0 831:0 832:26.5196 833:0 834:0 835:39.0383 836:12.4246 837:0 838:0 839:48.604698 840:10.4005 841:0 842:0 843:43.695702 844:0 845:0 846:10.4479 847:22.492201 848:0 849:0 850:10.4981 851:6.5443001 852:0 853:0 854:6.9498 855:2.2646999 856:0 857:0 858:3.9990001 859:1.7816 860:0 861:0 862:0 863:7.0243001 864:7.2711 865:0 866:0 867:26.3901 868:4.9649 869:0 870:0 871:22.1112 872:7.3042002 873:0 874:0 875:12.1733 876:2.1377001 877:0 878:1.1967 879:0 880:0 881:14.5201 882:1.5456001 883:0 884:1.7976 885:21.4484 886:0 887:0 888:5.6032 889:8.5080004 890:0 891:0 892:0 893:0 894:15.0534 895:6.8393998 896:0 897:0 898:2.5811 899:0.80773002 900:0 901:2.1454999 902:9.6408997 903:0 904:0 905:9.2504997 906:8.8254004 907:0 908:0 909:13.1717 910:4.0513 911:0 912:0 913:14.7802 914:0 915:0 916:4.7438998 917:14.7845 918:0 919:0 920:9.6500998 921:11.6774 922:0 923:0 924:8.7779999 925:8.8154001 926:0 927:0 928:3.9075 929:0 930:8.2438002 931:15.4338 932:0 933:0 934:29.941299 935:0 936:0 937:12.9109 938:23.400101 939:0 940:0 941:12.6075 942:6.9187002 943:0 944:0 945:0 946:3.7402 947:5.0939002 948:0 949:0 950:5.5198998 951:0.3696 952:0 953:3.4604001 954:0 955:0 956:13.4337 957:1.1109 958:0 959:4.3881998 960:19.451799 961:0 962:8.9736004 963:15.2883 964:0 965:0 966:27.139999 967:0 968:0 969:21.308399 970:7.3379002 971:0 972:5.4640002 973:10.4778 974:0 975:2.6110001 976:10.3224 977:0 978:0 979:16.603399 980:0 981:0 982:9.2927999 983:8.9245005 984:0 985:0 986:5.2175999 987:5.8039999 988:0 989:0 990:3.4105999 991:11.7863 992:0 993:8.5023003 994:0.71195 995:0 996:0 997:16.558201 998:0 999:0 1000:9.1625004 1001:14.6333 1002:0 1003:0 1004:15.603 1005:0 1006:0 1007:10.6584 1008:1.686 1009:0 1010:7.7454 1011:10.1581 1012:0 1013:0 1014:15.1113 1015:0 1016:0 1017:1.3956 1018:10.7658 1019:0 1020:0 1021:0 1022:12.4303 1023:0 1024:0 #
-9.5340367746470951e-010 1:32327.594 2:70.242302 3:396.86401 4:0 5:0 6:230.0632 7:133.783 8:0 9:0 10:100.4634 11:0 12:11.8969 13:45.180901 14:0 15:6.7676001 16:128.3755 17:0 18:0 19:103.0049 20:50.974602 21:0 22:1.6092 23:53.7136 24:0 25:1.0095 26:16.7992 27:0 28:17.436399 29:52.045399 30:0 31:0 32:74.004402 33:0 34:27.986401 35:183.578 36:0 37:0 38:94.375504 39:79.138298 40:0 41:0 42:53.318501 43:0 44:0 45:8.1264 46:0 47:0.65639001 48:25.3487 49:0 50:0 51:17.421301 52:7.4024 53:0 54:4.3551002 55:0 56:0 57:15.0985 58:4.4836998 59:0 60:3.5355999 61:21.6751 62:0 63:0 64:12.6198 65:211.69971 66:0 67:0 68:125.2757 69:187.73669 70:0 71:0 72:130.17999 73:1.2258 74:0 75:42.197102 76:0 77:0 78:89.876198 79:0 80:0 81:59.5042 82:102.1475 83:0 84:0 85:98.740097 86:12.9516 87:0 88:14.7247 89:27.2094 90:0 91:10.4783 92:0 93:0 94:41.771599 95:16.079901 96:0 97:126.5917 98:0 99:0 100:47.084999 101:135.9664 102:0 103:0 104:59.441002 105:53.635201 106:0 107:0 108:19.1106 109:5.3611999 110:1.9955 111:0.50490999 112:0 113:0 114:17.867201 115:0 116:0 117:1.1924 118:5.3351002 119:2.0927999 120:2.2927001 121:0 122:0 123:10.5363 124:9.4418001 125:0 126:0 127:11.6168 128:6.4001002 129:24.8006 130:0 131:0 132:5.9514999 133:26.6362 134:0 135:0 136:6.7073998 137:13.0851 138:0 139:0 140:9.7510004 141:2.3800001 142:0 143:6.0100002 144:23.000099 145:0 146:0 147:31.9552 148:27.181801 149:0 150:0 151:49.755299 152:12.8673 153:0 154:0 155:39.765598 156:3.9184999 157:0 158:0 159:21.2328 160:11.9452 161:122.0459 162:0 163:0 164:97.861 165:92.008904 166:0 167:0 168:103.8558 169:0 170:0 171:54.7425 172:0 173:0 174:40.254902 175:7.3822999 176:0 177:27.1061 178:35.993 179:0 180:0 181:36.6409 182:0 183:0 184:17.166 185:0 186:0 187:34.984699 188:0 189:0 190:43.019402 191:19.8118 192:0 193:70.380402 194:0 195:0 196:56.800301 197:64.773399 198:0 199:0 200:77.979401 201:5.2056999 202:0 203:10.8964 204:39.137501 205:0 206:0 207:4.1999998 208:0 209:9.4745998 210:10.5991 211:0 212:0 213:29.9646 214:12.792 215:0 216:0 217:30.623199 218:11.4051 219:0 220:0 221:20.779699 222:12.8634 223:0 224:0 225:0 226:24.8626 227:131.29961 228:0 229:0 230:82.299301 231:34.824799 232:0 233:12.223 234:34.517601 235:0 236:9.7557001 237:37.361599 238:0 239:0 240:61.698799 241:0 242:0 243:33.092999 244:30.566601 245:0 246:0 247:23.0394 248:0 249:0 250:12.2011 251:0 252:2.2730999 253:26.821199 254:0 255:0 256:34.431198 257:0 258:23.5175 259:136.9174 260:0 261:0 262:93.040802 263:66.993401 264:0 265:0 266:89.011497 267:0 268:0 269:28.874001 270:27.8806 271:0 272:2.7801001 273:16.4011 274:0 275:4.7870002 276:27.534599 277:0 278:0 279:35.9366 280:6.6581998 281:0 282:5.5064001 283:26.189301 284:0 285:0 286:6.0653 287:2.7014999 288:4.8031998 289:0 290:6.3414998 291:22.739799 292:0 293:0 294:26.0196 295:11.3055 296:0 297:0 298:30.109699 299:0 300:0 301:3.2653999 302:22.3934 303:0 304:0 305:5.2838001 306:10.6671 307:0 308:0 309:3.8591001 310:0.29761001 311:0 312:2.7307999 313:1.8108 314:0 315:0 316:3.6496999 317:4.0878 318:0 319:0 320:3.4741001 321:0 322:5.4266 323:2.7242999 324:0 325:8.6330004 326:8.2879 327:0 328:5.1570001 329:19.1752 330:0 331:0 332:32.136799 333:0 334:0 335:25.225599 336:18.1929 337:0 338:0 339:21.234699 340:0 341:0 342:9.3057003 343:0 344:2.7332001 345:29.673901 346:0 347:0 348:33.290298 349:20.394501 350:0 351:0 352:27.111 353:4.3997002 354:0 355:0 356:1.813 357:6.6266999 358:0 359:0 360:8.3275995 361:0 362:0 363:10.1877 364:3.7557001 365:0 366:6.1763 367:17.2689 368:0 369:0 370:23.936399 371:0 372:0 373:12.7713 374:13.031 375:0 376:0 377:13.4485 378:0 379:0 380:10.5559 381:0 382:0 383:12.7521 384:0 385:14.5874 386:0 387:0 388:14.4581 389:10.4058 390:0 391:0 392:16.088499 393:0 394:0 395:13.5521 396:0 397:0 398:22.3888 399:2.9398999 400:0 401:9.7907 402:37.158298 403:0 404:0 405:28.525999 406:26.4568 407:0 408:0 409:19.8645 410:16.705 411:0 412:0 413:1.5785 414:24.4482 415:1.4516 416:0 417:0 418:0.91409999 419:44.1017 420:0 421:0 422:0 423:23.8834 424:13.0266 425:0 426:0 427:12.2783 428:32.1922 429:0 430:0 431:16.438 432:28.861799 433:0 434:0 435:12.3728 436:6.4811001 437:0 438:2.1668999 439:0 440:0 441:19.212799 442:2.9301 443:0 444:2.0648999 445:23.286699 446:0 447:0 448:6.9264998 449:0 450:2.7637 451:56.7509 452:0 453:0 454:8.6940002 455:39.7854 456:0 457:0 458:0 459:20.948 460:11.4979 461:0 462:0 463:17.8515 464:30.5079 465:0 466:0 467:28.9412 468:31.3395 469:0 470:0 471:33.021301 472:16.683599 473:0 474:0 475:20.2349 476:8.6487999 477:0 478:0 479:6.7521 480:14.2278 481:50.706001 482:0 483:0 484:3.0933001 485:53.510201 486:2.8791001 487:0 488:0 489:28.4214 490:29.624701 491:0 492:0 493:26.581699 494:38.801899 495:0 496:0 497:21.532801 498:16.255199 499:0 500:0 501:0 502:2.1791999 503:30.115101 504:0 505:0 506:15.4623 507:42.534199 508:0 509:0 510:21.754801 511:25.4069 512:0 513:115.2242 514:0 515:0 516:14.6478 517:138.4035 518:0 519:0 520:7.7084999 521:94.991096 522:4.5247002 523:0 524:0 525:69.8974 526:20.721901 527:0 528:0 529:51.391201 530:13.703 531:0 532:0 533:20.8249 534:6.3962998 535:0 536:0 537:0 538:11.8759 539:9.25 540:0 541:0 542:14.3288 543:7.6170998 544:0 545:62.316101 546:0 547:0 548:30.8106 549:67.008202 550:0 551:0 552:42.861 553:31.758301 554:0 555:0 556:30.118 557:18.3486 558:0 559:0 560:25.822599 561:17.766199 562:0 563:0 564:31.9809 565:9.0423002 566:0 567:0 568:29.7187 569:0 570:0 571:2.5975001 572:18.6999 573:0 574:0 575:0 576:8.1667995 577:0 578:0 579:47.607399 580:32.719799 581:0 582:0 583:74.077599 584:41.345402 585:0 586:0 587:80.071602 588:18.574499 589:0 590:0 591:50.8908 592:6.7592001 593:0 594:0 595:20.9112 596:14.275 597:0 598:0 599:11.5423 600:17.122801 601:0 602:0 603:8.9139996 604:9.4621 605:0 606:0 607:2.2637 608:5.5407 609:0 610:0 611:99.477798 612:0.46766001 613:0 614:0.40684 615:89.971901 616:0 617:0 618:6.5514998 619:69.9254 620:0 621:0 622:16.7075 623:40.394402 624:0 625:0 626:24.590099 627:7.6563001 628:0 629:6.5407 630:24.343201 631:0 632:0 633:23.711201 634:16.6542 635:0 636:0 637:22.5119 638:8.8563995 639:0 640:0 641:0 642:14.866 643:79.920403 644:0 645:0 646:50.901699 647:25.3111 648:0 649:1.4809999 650:32.202999 651:0 652:0 653:23.1511 654:1.064 655:0 656:3.4809999 657:18.1584 658:0 659:0 660:0 661:25.109501 662:11.1506 663:0 664:0 665:41.32 666:8.6871004 667:0 668:0 669:42.5093 670:1.8543 671:0 672:0 673:0 674:16.9177 675:45.255199 676:0 677:0 678:57.395802 679:0 680:0 681:28.5637 682:33.826698 683:0 684:0 685:32.2351 686:0 687:0 688:13.739 689:3.5692 690:0 691:6.0597 692:6.0997 693:0 694:0 695:4.0177999 696:0 697:2.7209001 698:0.32304001 699:0 700:3.6942 701:13.4195 702:0 703:0 704:11.5121 705:0 706:4.4112 707:7.4400001 708:0 709:0 710:15.8475 711:4.8857999 712:0 713:0 714:15.5594 715:13.6554 716:0 717:0 718:17.340799 719:28.417601 720:0 721:0 722:23.3771 723:31.6768 724:0 725:0 726:19.416599 727:25.8853 728:0 729:0 730:5.3259001 731:23.753901 732:1.1091 733:0 734:0 735:23.367001 736:9.3270998 737:26.097099 738:0 739:0 740:13.3608 741:24.367701 742:0 743:0 744:15.8751 745:0 746:0 747:9.7955999 748:0 749:0 750:10.4796 751:11.9711 752:0 753:0 754:16.6098 755:2.0592999 756:0 757:0 758:3.6104 759:3.1861999 760:3.6824999 761:0 762:0 763:18.4375 764:6.4211001 765:0 766:0 767:27.6422 768:0 769:38.845699 770:0 771:0 772:2.6071999 773:58.174301 774:0 775:0 776:13.788 777:58.704399 778:0 779:0 780:28.079599 781:46.079201 782:0 783:0 784:32.0676 785:27.130301 786:0 787:0 788:25.799999 789:12.8263 790:0 791:0 792:18.192101 793:2.2916999 794:0 795:2.8594999 796:9.8865004 797:0 798:0 799:10.3418 800:0 801:25.6208 802:3.0789001 803:0 804:0 805:46.955799 806:3.9026999 807:0 808:5.5488 809:55.913898 810:0 811:0 812:29.215099 813:35.590302 814:0 815:0 816:29.364599 817:4.3305998 818:0 819:3.7907 820:7.3941998 821:0 822:0.96755999 823:2.0351 824:0 825:0.76899999 826:0.64337999 827:0 828:3.7839 829:0 830:0 831:12.6131 832:3.2918999 833:2.5063 834:0 835:0 836:9.7914 837:0 838:0 839:10.8673 840:13 841:0 842:0 843:23.9207 844:1.9684 845:0 846:6.3312001 847:25.292101 848:0 849:0 850:19.138 851:13.8107 852:0 853:0 854:17.8312 855:1.743 856:0 857:0 858:5.9913998 859:2.6564 860:0 861:0 862:0.56941998 863:12.0693 864:0 865:2.0272 866:0 867:3.4421 868:24.8389 869:0 870:0 871:35.901001 872:19.379299 873:0 874:0 875:42.655102 876:0 877:0 878:19.263201 879:11.885 880:0 881:2.2326 882:6.1849999 883:0 884:4.309 885:6.0914001 886:0 887:0 888:7.1919999 889:0 890:0.27381 891:1.3798 892:0 893:6.0553002 894:11.3588 895:0 896:0 897:24.7841 898:0 899:0 900:28.137699 901:8.7564001 902:0 903:10.3499 904:19.309 905:0 906:0 907:13.4033 908:0 909:3.605 910:14.564 911:0 912:0 913:31.434999 914:0 915:0 916:27.1113 917:13.643 918:0 919:1.3645 920:16.1756 921:0 922:1.7484 923:2.2821 924:0 925:13.087 926:19.218599 927:0 928:0 929:15.5924 930:0 931:0 932:19.2845 933:1.2275 934:0 935:13.9564 936:8.4041004 937:0 938:8.1569004 939:16.276899 940:0 941:0 942:24.5569 943:0 944:0 945:23.3489 946:3.2797 947:0 948:8.3612003 949:13.5665 950:0 951:0 952:6.2807002 953:0 954:4.6022 955:2.6845 956:0 957:5.8301001 958:17.133801 959:0 960:0 961:0 962:4.4299998 963:44.786201 964:0 965:0 966:17.1642 967:31.4433 968:0 969:0 970:17.1691 971:18.152201 972:0 973:0 974:11.7288 975:12.4574 976:0 977:0 978:10.6706 979:7.7163 980:0 981:0 982:11.0271 983:0 984:0 985:6.684 986:5.2216001 987:0 988:0 989:10.1273 990:0 991:0 992:4.1188998 993:0 994:13.9477 995:56.7868 996:0 997:0 998:40.405201 999:5.6724 1000:0 1001:12.0092 1002:4.5451999 1003:0 1004:17.2458 1005:0 1006:0 1007:19.0616 1008:22.1112 1009:0 1010:0 1011:33.710602 1012:0 1013:0 1014:19.7502 1015:2.9942 1016:0 1017:12.8736 1018:1.8169 1019:0 1020:15.1377 1021:13.4209 1022:0 1023:0 1024:28.8608 #
9.5340367746470951e-010 1:32371.359 2:53.895699 3:340.7016 4:0 5:0 6:170.25841 7:116.4257 8:0 9:0 10:67.016098 11:0 12:8.0045004 13:30.6667 14:0 15:1.7209001 16:58.791302 17:0 18:0 19:45.122398 20:0 21:0 22:24.431801 23:7.6658001 24:0 25:11.8419 26:6.4843001 27:0 28:11.549 29:6.9198999 30:0 31:5.0819001 32:12.3654 33:0 34:0 35:79.6185 36:0 37:0 38:9.1498003 39:59.162601 40:0 41:0 42:22.496599 43:10.2804 44:0 45:12.598 46:8.9261999 47:0 48:4.6022 49:19.5536 50:0 51:0 52:8.9656 53:0 54:5.6357999 55:23.0378 56:0 57:0 58:36.928699 59:4.7063999 60:0 61:11.4313 62:22.874399 63:0 64:0 65:192.4174 66:0 67:0 68:106.7775 69:169.5088 70:0 71:0 72:106.9102 73:8.8221998 74:0 75:24.8214 76:0 77:0 78:41.120998 79:0 80:0 81:28.1975 82:29.616699 83:0 84:0 85:22.8955 86:0 87:0 88:2.4395001 89:0 90:10.6701 91:14.3709 92:0 93:0 94:24.1668 95:0 96:0 97:21.483299 98:14.4832 99:0 100:0 101:57.221298 102:31.996599 103:0 104:0 105:62.284401 106:0 107:0 108:31.579201 109:0 110:0 111:34.053101 112:0.71853 113:0 114:22.589199 115:17.872299 116:0 117:12.7982 118:12.3606 119:0 120:18.683599 121:32.230701 122:0 123:0 124:53.694 125:0 126:0 127:37.793701 128:7.1023998 129:73.839104 130:0 131:0 132:41.241699 133:61.910099 134:0 135:0 136:36.618099 137:0 138:0 139:10.4535 140:0 141:0 142:15.4507 143:0 144:0 145:16.001699 146:0 147:0 148:20.5047 149:7.7553 150:0 151:2.0452001 152:25.765699 153:0 154:0 155:5.4979 156:10.7741 157:0.95201999 158:0 159:0 160:9.3612003 161:139.31709 162:0 163:0 164:92.407303 165:110.7643 166:0 167:0 168:94.014603 169:0 170:0 171:41.486099 172:6.4509001 173:0 174:16.602301 175:3.5785 176:0 177:19.9841 178:0 179:0 180:34.913799 181:15.857 182:0 183:1.1941 184:38.3144 185:0 186:0 187:10.1679 188:1.3049001 189:1.9157 190:6.4816999 191:0 192:0 193:0 194:33.0499 195:97.8321 196:0 197:0 198:99.158401 199:1.9924001 200:0 201:25.8519 202:29.416901 203:0 204:11.4727 205:0 206:0 207:37.6367 208:19.1544 209:0 210:3.9179001 211:37.065601 212:0 213:0 214:20.4547 215:0 216:0 217:34.143002 218:0 219:0 220:28.668699 221:2.0676999 222:0 223:17.289499 224:0 225:0 226:27.204201 227:164.0576 228:0 229:0 230:102.0773 231:70.617798 232:0 233:0 234:84.589699 235:0 236:0 237:34.091202 238:19.270201 239:0 240:0.83969998 241:10.0869 242:0 243:8.5142002 244:0 245:0 246:29.160601 247:12.8031 248:0 249:1.7613 250:46.340199 251:0 252:0 253:26.582001 254:18.2012 255:0 256:0 257:0 258:0 259:29.8967 260:44.234402 261:0 262:0 263:50.832699 264:36.9034 265:0 266:0 267:17.4277 268:0 269:15.8859 270:5.5349998 271:0 272:7.0545998 273:45.7715 274:0 275:0 276:30.805901 277:0 278:0 279:28.3857 280:0 281:0 282:22.345501 283:27.104099 284:0 285:0 286:26.340401 287:0 288:0 289:0 290:0 291:15.8375 292:3.0274999 293:0 294:0 295:0 296:29.2845 297:16.801001 298:0 299:0 300:44.079201 301:0 302:0 303:16.950899 304:11.5 305:0 306:7.7757001 307:17.0233 308:0 309:0 310:12.2694 311:10.0517 312:0.25202999 313:0 314:0 315:31.733601 316:13.9927 317:0 318:0 319:41.720901 320:0 321:33.4426 322:1.1298 323:0 324:0 325:40.747002 326:6.5366001 327:0 328:0 329:24.4163 330:14.3518 331:0 332:0 333:5.8088999 334:26.7061 335:1.2946 336:0 337:0 338:42.562302 339:4.0394001 340:0 341:0.74181002 342:48.452702 343:0 344:0 345:12.0945 346:31.1738 347:0 348:0 349:5.9289999 350:7.0689998 351:3.7656 352:0 353:47.276798 354:0 355:0 356:34.463902 357:37.123699 358:0 359:0 360:38.520302 361:0 362:0 363:14.5583 364:10.2441 365:0 366:0 367:0 368:2.0567999 369:15.4577 370:0 371:0 372:14.998 373:26.879299 374:0 375:0 376:18.5846 377:27.2246 378:0 379:0 380:13.0464 381:27.525999 382:0 383:0 384:11.9593 385:0 386:6.2631998 387:60.292801 388:0 389:0 390:8.0414 391:23.815399 392:9.8668003 393:0 394:0 395:16.5987 396:49.158901 397:0 398:0 399:35.358299 400:49.610001 401:0 402:0 403:24.9769 404:37.576 405:0 406:0 407:0 408:49.228298 409:1.9952 410:0 411:4.3908 412:49.559399 413:0 414:0 415:16.1404 416:17.9021 417:0 418:11.6834 419:21.572201 420:0 421:0 422:47.676998 423:7.2786002 424:0 425:0.359 426:50.6143 427:0 428:0 429:3.2637 430:26.6563 431:3.4075999 432:0 433:0 434:10.3978 435:21.0338 436:0 437:0 438:17.7885 439:18.9426 440:0 441:0 442:23.844299 443:0 444:0 445:6.7669001 446:11.0334 447:0 448:0 449:68.995499 450:0.41091001 451:0 452:0 453:71.979797 454:13.2506 455:0 456:0 457:34.5177 458:41.755501 459:0 460:0 461:29.7349 462:44.1418 463:0 464:0 465:36.2057 466:15.1365 467:0 468:0 469:26.292101 470:1.7273999 471:0 472:0 473:20.197001 474:15.5175 475:0 476:0 477:30.366199 478:18.018 479:0 480:0 481:43.078499 482:0 483:0 484:15.7966 485:46.4487 486:0 487:0 488:23.691799 489:17.430099 490:0 491:0 492:15.0747 493:3.3241 494:0 495:0 496:11.7274 497:11.4346 498:0 499:0 500:28.5907 501:12.3287 502:0 503:0 504:39.564098 505:0 506:0 507:18.876699 508:19.162901 509:0 510:0 511:15.2273 512:0 513:0 514:0 515:9.0753002 516:37.955101 517:0 518:0 519:36.3209 520:40.575802 521:0 522:0 523:39.798 524:2.1942999 525:0 526:12.6538 527:15.3981 528:0 529:0 530:16.442801 531:9.0407 532:0 533:0 534:8.6447001 535:30.348801 536:0 537:0 538:13.2038 539:41.9146 540:0 541:0 542:18.6651 543:27.711201 544:0 545:0 546:0 547:50.266499 548:8.9960003 549:0 550:0 551:31.275999 552:16.3519 553:0 554:0 555:11.6426 556:8.9029999 557:0 558:1.3227 559:0.96438003 560:0 561:3.0579 562:24.035 563:0 564:0 565:9.6993999 566:29.446199 567:0 568:0 569:9.8381004 570:15.0635 571:0 572:0 573:3.6963999 574:2.5910001 575:0 576:0 577:0 578:14.0496 579:66.129097 580:0 581:0 582:37.233002 583:0.39721999 584:0 585:25.1803 586:0 587:0 588:34.340401 589:23.494301 590:0 591:0 592:43.001598 593:0 594:0 595:9.0077 596:10.3625 597:0 598:0 599:0 600:1.2088 601:18.122 602:0 603:0 604:19.2703 605:11.3098 606:0 607:0 608:23.870199 609:0 610:3.4123001 611:30.0905 612:0 613:0 614:12.008 615:16.8438 616:0 617:0 618:4.4860001 619:3.4133 620:4.9686999 621:0 622:0 623:8.5593996 624:17.326 625:0 626:0 627:24.8274 628:1.622 629:0 630:12.8703 631:19.716801 632:0 633:0 634:26.3808 635:0 636:0 637:8.1976995 638:9.1039 639:0 640:0.38248 641:0 642:0 643:5.9355001 644:4.7392001 645:0 646:0 647:13.0968 648:1.9105999 649:0 650:3.3735001 651:16.2729 652:0 653:0 654:14.1692 655:10.397 656:0 657:0 658:18.448799 659:1.1583 660:0 661:3.5302999 662:16.485901 663:0 664:0 665:11.9498 666:11.5138 667:0 668:0 669:17.644501 670:6.0636001 671:0 672:0 673:16.706499 674:5.9891 675:0 676:0 677:27.7796 678:21.559099 679:0 680:0 681:29.533199 682:17.227699 683:0 684:0 685:20.0875 686:4.8903999 687:0 688:0.96143001 689:10.6106 690:0 691:0 692:13.3316 693:8.1211996 694:0 695:0 696:25.3748 697:5.2398 698:0 699:0 700:27.960899 701:1.5836999 702:0 703:0 704:23.6633 705:53.256001 706:0 707:0 708:0 709:52.2547 710:8.0565996 711:0 712:0 713:16.1336 714:27.553801 715:0 716:0 717:7.8347001 718:24.7257 719:0 720:0 721:11.901 722:0 723:0 724:17.7801 725:2.3606 726:0 727:4.6138 728:18.895201 729:0 730:0 731:10.9494 732:1.0502 733:0 734:5.3045001 735:10.2161 736:0 737:27.3922 738:0 739:0 740:10.6143 741:18.525999 742:0 743:0.47466999 744:6.1408 745:0 746:4.1065998 747:25.583799 748:0 749:0 750:22.304501 751:12.2183 752:0 753:3.6405001 754:13.5536 755:0 756:0 757:23.9583 758:0 759:0 760:15.605 761:13.7743 762:0 763:0 764:0 765:0.53561002 766:21.003799 767:0 768:0 769:0 770:0 771:13.7532 772:3.7746999 773:0 774:0 775:1.5401 776:13.6546 777:2.4788001 778:0 779:0 780:18.2393 781:1.5146 782:0 783:0.24053 784:10.0297 785:0 786:0 787:0 788:5.7428002 789:0.26855001 790:0 791:1.3577 792:13.1306 793:0 794:0 795:8.3692999 796:15.8861 797:0 798:0 799:5.9393001 800:9.4413996 801:0 802:0 803:4.3006001 804:17.118999 805:0 806:0 807:0 808:26.3106 809:6.8487 810:0 811:0 812:23.013599 813:12.8173 814:0 815:0 816:14.4943 817:0 818:0 819:14.7046 820:0 821:0 822:12.9476 823:30.756599 824:0 825:0 826:18.1535 827:24.8281 828:0 829:0 830:0 831:19.930099 832:13.0304 833:0 834:0 835:16.373501 836:17.137699 837:0 838:0 839:21.8132 840:23.207001 841:0 842:0 843:19.013399 844:10.2944 845:0 846:0 847:6.2753 848:0 849:0 850:10.8509 851:0 852:0 853:2.2835 854:20.8013 855:0 856:0 857:1.4265 858:28.6108 859:0 860:0 861:5.4496002 862:26.825701 863:0 864:0 865:0 866:1.7074 867:27.689301 868:0 869:0 870:4.5500002 871:17.5837 872:0 873:0 874:0 875:9.5797997 876:3.6073 877:0 878:0 879:6.9986 880:2.2349999 881:0 882:1.5659 883:1.4276 884:0 885:3.576 886:8.6375999 887:0 888:0 889:15.058 890:7.8083 891:0 892:0 893:21.2609 894:0 895:0 896:6.0798001 897:0 898:4.7284002 899:15.6364 900:0 901:0 902:14.5431 903:0 904:0 905:12.4958 906:2.3966 907:0 908:5.7591 909:8.1302004 910:0 911:1.818 912:9.0959997 913:0 914:0 915:15.97 916:0 917:0 918:7.2421999 919:8.0662003 920:0 921:0 922:0 923:0 924:17.1024 925:0 926:0 927:7.2806001 928:30.255699 929:0 930:7.6831999 931:31.412701 932:0 933:0 934:26.325001 935:7.8845 936:0 937:1.8996 938:18.1996 939:0 940:0 941:5.3231001 942:5.7599001 943:0 944:0 945:0.58247 946:2.9846001 947:0 948:0 949:2.4937999 950:0 951:0 952:6.1749001 953:1.5697 954:0 955:2.1661999 956:7.9183002 957:0 958:0 959:7.1693001 960:0 961:0 962:8.7271996 963:8.4366999 964:0 965:0 966:34.595402 967:2.8799 968:0 969:0 970:36.001099 971:0 972:0 973:5.1725001 974:18.0231 975:0 976:0 977:11.0565 978:0 979:0 980:10.2492 981:16.318399 982:0 983:0 984:12.5864 985:16.617701 986:0 987:0 988:0.71138 989:15.4215 990:6.2553 991:0 992:0 993:45.755798 994:0.57839 995:0 996:0 997:50.069901 998:4.5114002 999:0 1000:0 1001:22.991199 1002:8.8795996 1003:0 1004:0 1005:6.7175002 1006:3.3417001 1007:0 1008:2.5497 1009:4.5332999 1010:0 1011:0 1012:12.6157 1013:9.8706999 1014:0 1015:0 1016:14.2659 1017:14.8044 1018:0 1019:0 1020:11.0437 1021:10.0705 1022:0 1023:0 1024:4.1420002 #
-9.5340367746470951e-010 1:32447.148 2:46.688499 3:243.2572 4:0 5:0 6:152.5858 7:74.453499 8:0 9:0 10:73.587601 11:0 12:0 13:26.3307 14:0 15:6.3271999 16:41.799099 17:0 18:0 19:52.038502 20:0 21:0 22:37.386398 23:14.3127 24:0 25:11.0781 26:29.8402 27:0 28:0 29:16.339399 30:0 31:0 32:0.65096998 33:0 34:4.2600002 35:69.4189 36:0 37:0 38:21.883101 39:49.843601 40:0 41:0 42:30.6539 43:9.8346996 44:0 45:10.0106 46:12.2465 47:0 48:4.1058998 49:25.401199 50:0 51:0 52:24.498501 53:7.2600002 54:0 55:2.3211 56:10.0116 57:0 58:2.9440999 59:0 60:0 61:9.8332996 62:12.5542 63:0 64:0 65:155.2675 66:0 67:0 68:108.1914 69:123.8751 70:0 71:0 72:107.4795 73:0 74:0 75:39.095501 76:0 77:0 78:39.418999 79:0 80:0 81:50.018799 82:9.3084002 83:0 84:26.6401 85:43.758999 86:0 87:0 88:50.8596 89:0 90:0 91:21.0884 92:12.2028 93:0 94:0.25246 95:0 96:2.5511 97:36.176399 98:6.7319002 99:0 100:0 101:65.141502 102:9.1120996 103:0 104:8.1161003 105:57.102901 106:0 107:0 108:35.6227 109:0 110:0 111:40.161201 112:0.58327001 113:0 114:28.4993 115:44.4296 116:0 117:0 118:45.249298 119:0 120:0 121:15.4977 122:0 123:0 124:25.046499 125:0 126:0 127:35.001598 128:16.365601 129:11.1407 130:5.6401 131:0 132:0 133:28.798 134:11.2107 135:0 136:0 137:33.256401 138:0 139:0 140:19.707899 141:0 142:0 143:19.8986 144:1.9426 145:0 146:16.228701 147:27.302799 148:0 149:0 150:34.125 151:1.8434 152:0 153:6.8365002 154:16.136999 155:0 156:0 157:1.3073 158:1.7322 159:5.7126002 160:0 161:91.074402 162:0 163:0 164:84.538696 165:60.027901 166:0 167:0 168:84.083504 169:0 170:0 171:40.826199 172:0 173:0 174:22.2584 175:0 176:0 177:39.541801 178:0 179:0 180:28.7141 181:24.776699 182:0 183:1.24 184:27.982201 185:0 186:0 187:19.8123 188:0 189:0 190:24.0226 191:0 192:0 193:0 194:0.20069 195:21.2712 196:0 197:0 198:0 199:12.8889 200:3.1161001 201:0 202:0 203:5.0249 204:8.7318001 205:0 206:0 207:3.7699001 208:9.8541002 209:0 210:0 211:5.3431001 212:5.4858999 213:0 214:0 215:5.1767001 216:2.9281001 217:0 218:0 219:6.9369001 220:4.2382998 221:0 222:0 223:12.7795 224:1.5846 225:0 226:30.433201 227:131.37959 228:0 229:0 230:101.2819 231:27.665501 232:0 233:17.8097 234:55.144199 235:0 236:0 237:33.0359 238:0 239:0 240:19.292299 241:0 242:0 243:17.488899 244:0 245:0 246:19.006901 247:0.34303999 248:0 249:11.0776 250:12.7229 251:0 252:0 253:8.7166996 254:0 255:1.0016 256:0 257:0 258:5.2007999 259:48.5592 260:0 261:0 262:25.717501 263:33.495602 264:0 265:0 266:35.5737 267:0.6469 268:0 269:16.185301 270:17.302799 271:0 272:0 273:29.244499 274:0 275:0 276:22.910101 277:12.1846 278:0 279:0 280:11.58 281:0.33814001 282:1.0457 283:0 284:0 285:15.5493 286:12.1361 287:0 288:0 289:0 290:0 291:4.3330998 292:8.3417997 293:0 294:0 295:16.2514 296:8.3919001 297:0 298:0 299:21.7623 300:0.8017 301:0 302:1.0182 303:15.3669 304:0 305:0 306:0 307:7.7891002 308:4.0043001 309:0 310:0 311:3.7916 312:6.6714001 313:0 314:0 315:1.682 316:8.0115004 317:0 318:0 319:4.5450001 320:8.0432997 321:11.5168 322:1.814 323:0 324:0 325:19.424801 326:2.3131001 327:0 328:2.3078001 329:14.6039 330:0 331:0 332:7.9913001 333:0 334:0 335:16.927799 336:0 337:0 338:16.162399 339:16.160299 340:0 341:0 342:20.4191 343:0 344:0 345:7.4190998 346:0 347:0 348:9.7728996 349:0 350:0 351:11.1675 352:9.1606998 353:55.207298 354:0 355:0 356:26.7848 357:56.135502 358:0 359:0 360:31.2829 361:18.329901 362:0 363:0 364:5.4693999 365:5.6550999 366:5.9928999 367:0 368:0 369:14.5499 370:9.0797997 371:0 372:0 373:15.5647 374:0 375:0 376:7.6574998 377:5.6859999 378:0 379:0 380:9.0094004 381:3.8887 382:0 383:0 384:12.6363 385:9.6927004 386:0 387:0 388:14.1939 389:8.3564997 390:0 391:0 392:24.659401 393:0 394:0 395:9.9233999 396:20.201401 397:0 398:0 399:14.3524 400:7.7013998 401:0 402:0 403:9.1465998 404:1.4965 405:0 406:0 407:4.9691 408:5.0732002 409:0 410:0 411:8.2404003 412:8.8534002 413:0 414:0 415:11.9635 416:8.0488005 417:0 418:5.9881001 419:57.454899 420:0 421:0 422:20.7342 423:33.7337 424:0 425:0 426:13.1136 427:13.2189 428:0 429:0 430:0 431:11.1976 432:2.6300001 433:0 434:0 435:15.752 436:0 437:0 438:11.7366 439:13.5863 440:0 441:0 442:21.3498 443:8.0339003 444:0 445:0 446:25.4069 447:5.1454 448:0 449:14.7397 450:0 451:0 452:7.4268999 453:7.0576 454:0 455:1.7363 456:0 457:0 458:19.614201 459:0 460:0 461:17.3421 462:24.4072 463:0 464:0 465:34.223301 466:0 467:0 468:10.1272 469:16.7796 470:0 471:0 472:0 473:0 474:14.416 475:0 476:0 477:11.8568 478:30.321899 479:0 480:0 481:49.7029 482:0 483:0 484:9.9828997 485:61.677299 486:0 487:0 488:17.8703 489:40.054501 490:0 491:0 492:14.8168 493:19.1509 494:0 495:0 496:6.9717999 497:12.0302 498:0 499:0 500:8.7447996 501:12.9544 502:0 503:0 504:19.9125 505:6.0806999 506:0 507:0.71390003 508:23.158701 509:0 510:0 511:10.6305 512:12.6109 513:0.43195 514:5.3130002 515:0 516:0 517:15.5686 518:9.7536001 519:0 520:1.4207 521:25.816799 522:0 523:0 524:24.98 525:0 526:0 527:17.1017 528:14.2113 529:0 530:0 531:24.040001 532:0 533:0 534:10.1546 535:5.0794001 536:0 537:0 538:0 539:5.4808002 540:18.0436 541:0 542:0 543:25.477699 544:11.6076 545:0 546:0 547:51.374001 548:0 549:0 550:5.2669001 551:46.778099 552:0 553:0 554:15.5036 555:26.239599 556:0 557:0 558:12.1057 559:6.1938 560:0 561:0 562:2.6839001 563:7.3565001 564:0 565:0 566:12.042 567:9.2757998 568:0 569:0 570:26.088699 571:0 572:0 573:22.7173 574:12.7232 575:0 576:1.2808 577:0 578:1.1845 579:57.933701 580:0 581:0 582:7.8748002 583:47.897499 584:0 585:0 586:13.5452 587:24.329 588:0 589:0 590:6.6335001 591:2.0016999 592:0 593:2.7454 594:0 595:0 596:7.0318999 597:3.2794001 598:0 599:0 600:1.0692 601:9.8196001 602:0.71381003 603:0 604:1.8069 605:22.465 606:0 607:0 608:16.437599 609:0 610:7.9547 611:23.834801 612:0 613:0 614:22.0457 615:0 616:0 617:9.7426996 618:2.4137001 619:0 620:7.2245002 621:1.3148 622:0 623:4.9438 624:7.5401001 625:0 626:0 627:0 628:5.9717002 629:6.8790998 630:0 631:0 632:25.240101 633:2.7934999 634:0 635:10.1669 636:30.8985 637:0 638:0 639:30.082899 640:2.7400999 641:21.738899 642:0 643:0 644:4.2521 645:20.5784 646:0 647:0 648:0 649:4.3446002 650:9.0026999 651:0 652:0 653:2.1178 654:18.056299 655:0 656:0 657:8.8029003 658:9.3360996 659:0 660:0 661:4.7399998 662:0 663:2.6731999 664:6.6272001 665:0 666:0 667:16.611 668:0 669:0 670:12.3678 671:14.5343 672:0 673:27.979401 674:0 675:0 676:18.759399 677:18.830299 678:0 679:0 680:10.9898 681:0 682:2.9746001 683:8.4625998 684:0 685:0 686:19.660801 687:0 688:0 689:6.8346 690:13.8443 691:0 692:0 693:0 694:16.7174 695:3.0957999 696:0 697:0.75796998 698:27.9478 699:0 700:0 701:17.9368 702:16.478901 703:0 704:0 705:13.613 706:0.68535 707:0 708:0 709:26.3391 710:0 711:0 712:11.9527 713:29.5028 714:0 715:0 716:23.7204 717:12.5199 718:0 719:0 720:11.7568 721:0 722:0 723:3.2658999 724:0 725:1.3703001 726:14.8712 727:0 728:0 729:10.7212 730:9.7952995 731:0 732:0 733:7.0983 734:1.6855 735:0 736:0 737:22.8046 738:0 739:0 740:2.5193999 741:37.131802 742:0 743:0 744:16.2465 745:36.5359 746:0 747:0 748:28.6166 749:18.5567 750:0 751:0 752:22.4946 753:1.5766 754:0 755:1.6918 756:11.0328 757:0 758:0 759:4.6897998 760:8.5714998 761:0 762:0 763:11.6686 764:4.4008999 765:0 766:0.55422997 767:11.9979 768:0 769:8.8634996 770:0 771:0 772:10.1463 773:1.3304 774:0 775:6.9087 776:6.3088999 777:0 778:0 779:10.6175 780:0 781:0 782:1.0884 783:4.2361999 784:4.7993002 785:0 786:0 787:10.9742 788:13.6838 789:0 790:0 791:20.6089 792:6.4194002 793:0 794:0 795:11.7973 796:2.1048 797:0 798:0 799:0 800:12.0858 801:0 802:2.2586 803:40.304401 804:0 805:0 806:11.5447 807:37.196499 808:0 809:0 810:18.378799 811:27.2444 812:0 813:0 814:16.455099 815:13.8643 816:0 817:0 818:7.118 819:4.4134002 820:0 821:0 822:0 823:0 824:3.7098999 825:2.2753 826:0 827:0 828:6.2249999 829:4.2728 830:0 831:0 832:6.4811001 833:0 834:3.2004001 835:36.258801 836:0 837:0 838:10.5653 839:24.2521 840:0 841:0 842:8.6170998 843:13.7153 844:0 845:0 846:8.7156 847:1.5805 848:0 849:7.5946002 850:7.2933998 851:0 852:0 853:22.9512 854:0 855:0 856:10.7709 857:17.872601 858:0 859:0 860:5.6294999 861:3.9630001 862:4.0857 863:0 864:0 865:0 866:0 867:11.6793 868:2.6025 869:0 870:0 871:10.7958 872:2.4563 873:0 874:0 875:4.7504001 876:0.63378 877:0 878:0 879:0 880:1.807 881:7.4920001 882:0 883:0 884:3.9700999 885:9.6152 886:0 887:0 888:3.7607 889:7.9466 890:0 891:0 892:2.4051001 893:3.6847999 894:0 895:0 896:0 897:0 898:2.1616001 899:4.7972002 900:0 901:0 902:8.0541 903:0 904:0 905:6.3512001 906:6.2020998 907:0 908:0 909:6.7628002 910:1.4327 911:0 912:0 913:0 914:3.8187001 915:5.1760001 916:0 917:0 918:10.3037 919:4.4106998 920:0 921:0 922:6.3958998 923:0 924:0 925:0 926:0 927:6.3796 928:8.8277998 929:8.0661001 930:3.0466001 931:0 932:0 933:17.393101 934:8.7105999 935:0 936:0 937:21.838699 938:2.0339 939:0 940:0.79510999 941:10.7473 942:0 943:0 944:0 945:0 946:9.6603003 947:6.1901999 948:0 949:0 950:17.073 951:3.1424 952:0 953:0 954:12.5401 955:0 956:0 957:1.9843 958:2.9194 959:0 960:1.6973 961:14.5794 962:0 963:0 964:2.8685 965:18.6628 966:0 967:0 968:6.7312002 969:12.9162 970:0 971:0 972:10.0543 973:2.9191 974:0 975:3.3462999 976:8.6908998 977:0 978:0 979:13.4428 980:0 981:0 982:8.1149998 983:10.7648 984:0 985:0 986:13.8489 987:0 988:0 989:10.6544 990:2.2205 991:0 992:6.4548001 993:1.8681999 994:0.81826001 995:0 996:0 997:2.0023999 998:3.8761001 999:0 1000:0 1001:2.2413001 1002:3.7089 1003:0 1004:0 1005:3.0227001 1006:0 1007:0 1008:7.8376999 1009:0 1010:0 1011:4.4661002 1012:12.2648 1013:0 1014:0 1015:9.4271002 1016:7.8955002 1017:0 1018:0 1019:7.5531998 1020:1.9500999 1021:0 1022:0 1023:4.1634998 1024:0 #
9.5340367746470951e-010 1:32371.852 2:73.327904 3:330.43079 4:0 5:0 6:224.65691 7:63.466 8:0 9:40.062901 10:73.322304 11:0 12:26.611601 13:36.297401 14:0 15:26.7328 16:73.184502 17:0 18:0 19:80.194 20:0 21:0 22:55.794201 23:0.60802001 24:0 25:32.852299 26:22.3139 27:0 28:3.3636 29:21.5156 30:0 31:0.78760999 32:0 33:0 34:19.688299 35:160.0092 36:0 37:0 38:72.254097 39:80.514198 40:0 41:0 42:52.821301 43:0 44:0 45:19.9193 46:0 47:0 48:23.028 49:12.587 50:0 51:0 52:17.569 53:0 54:0 55:0 56:0 57:13.1717 58:17.270599 59:0 60:0 61:31.7754 62:4.9138999 63:0 64:4.1163001 65:168.61211 66:0 67:0 68:149.616 69:100.3126 70:0 71:6.4970002 72:118.9844 73:0 74:0 75:67.260696 76:0 77:0 78:78.329697 79:0 80:0 81:101.3955 82:0 83:0 84:51.528999 85:54.795502 86:0 87:0 88:43.7393 89:0 90:0 91:14.3894 92:0 93:11.3546 94:17.422701 95:0 96:6.1842999 97:81.151398 98:0 99:0 100:18.3944 101:102.9203 102:0 103:0 104:41.2827 105:57.202801 106:0 107:0 108:31.056801 109:0 110:0 111:13.7881 112:0 113:0 114:23.0679 115:3.9530001 116:0 117:4.0545001 118:8.7434998 119:0 120:6.7778001 121:0 122:0 123:23.2278 124:13.8892 125:0 126:0 127:34.6586 128:0 129:12.6172 130:14.3989 131:0 132:0 133:48.0019 134:32.6367 135:0 136:0 137:59.373798 138:0 139:0 140:29.6486 141:0 142:0 143:43.399899 144:0 145:0 146:29.529699 147:49.047501 148:0 149:0 150:36.196098 151:11.4862 152:0 153:0 154:0 155:23.027 156:16.5853 157:0 158:0 159:50.2351 160:0 161:126.069 162:0 163:0 164:95.236298 165:86.799202 166:0 167:0 168:83.323799 169:0 170:0 171:54.853001 172:0 173:0 174:42.129501 175:7.2981 176:0 177:12.7984 178:12.6623 179:0 180:9.4879999 181:0 182:0 183:15.9925 184:12.6676 185:0 186:0 187:15.1319 188:0 189:0 190:0.72465998 191:0 192:6.5700002 193:98.012497 194:0 195:0 196:68.882401 197:82.4664 198:0 199:0 200:81.295097 201:0 202:0 203:32.377998 204:22.3755 205:0 206:1.5664001 207:20.908501 208:0 209:0 210:5.6945 211:0 212:5.1266999 213:5.3994002 214:0 215:0 216:16.611099 217:0 218:0 219:2.9109001 220:9.1389999 221:0.97960001 222:0 223:0 224:7.2273998 225:0 226:20.4163 227:46.741501 228:0 229:0 230:50.754501 231:0 232:0 233:40.3993 234:0 235:0 236:35.9897 237:0 238:0 239:28.9848 240:17.4848 241:0 242:7.5426002 243:26.472799 244:0 245:0 246:17.0168 247:0 248:0 249:13.3375 250:0 251:0 252:17.6681 253:0 254:0 255:23.7721 256:0 257:0 258:16.348101 259:91.688103 260:0 261:0 262:60.198399 263:34.605099 264:0 265:0 266:45.697701 267:0 268:0 269:27.1098 270:2.7397001 271:0 272:10.096 273:13.1971 274:0 275:0 276:5.9857001 277:1.2006 278:2.5135 279:0 280:0 281:10.6845 282:7.7670999 283:0 284:0 285:13.695 286:1.3953 287:0 288:0 289:0 290:7.3958001 291:83.221001 292:0 293:0 294:34.077499 295:50.218201 296:0 297:0 298:37.1054 299:0 300:0 301:23.2659 302:2.5585999 303:0 304:15.9451 305:22.688101 306:0 307:0 308:19.370701 309:0.51450002 310:0 311:0 312:0 313:11.7494 314:14.7778 315:0 316:0 317:34.276798 318:0 319:0 320:20.007601 321:0 322:14.5402 323:95.735397 324:0 325:0 326:43.943901 327:36.438599 328:0 329:0 330:15.2937 331:0.72793001 332:2.1522 333:0 334:0 335:6.3376999 336:9.3084002 337:0 338:0 339:7.7186999 340:0 341:0 342:8.4196997 343:0 344:0 345:3.4911001 346:8.4830999 347:0 348:0 349:3.8232 350:6.0928001 351:0 352:0 353:0 354:0 355:18.547701 356:0 357:0 358:4.3245001 359:18.892 360:0 361:0 362:19.050301 363:3.4531 364:0 365:8.5755997 366:22.065001 367:0 368:0 369:21.784201 370:8.6664 371:0 372:0 373:9.2770004 374:5.0833998 375:0 376:0 377:0 378:18.4972 379:4.8266001 380:0 381:0 382:21.9289 383:0 384:0 385:65.743202 386:0 387:0 388:36.4394 389:59.316601 390:0 391:0 392:29.2411 393:18.882601 394:0 395:0 396:0 397:28.8311 398:11.2205 399:0 400:0 401:41.0266 402:0 403:0 404:10.3707 405:21.3701 406:0 407:0 408:4.1043 409:6.3167 410:0 411:0 412:0.37367001 413:6.7818999 414:0 415:0 416:9.9843998 417:36.682999 418:0 419:0 420:13.2437 421:50.252201 422:0 423:0 424:37.027699 425:29.363501 426:0 427:0 428:41.317101 429:0 430:0 431:15.3567 432:16.017599 433:0 434:0 435:4.9931998 436:7.0116 437:3.2591 438:0 439:0 440:28.500601 441:0 442:0 443:18.2003 444:32.4757 445:0 446:0 447:32.059799 448:8.8879995 449:0 450:2.4530001 451:42.093201 452:0 453:0 454:3.7189 455:34.051601 456:1.5147001 457:0 458:0 459:39.173302 460:8.7894001 461:0 462:0 463:46.1488 464:2.6681001 465:0 466:0 467:38.250198 468:0.29189 469:0 470:0 471:30.3295 472:2.5378001 473:0 474:0.36807001 475:26.2635 476:0 477:0 478:10.6262 479:11.3084 480:0 481:0 482:0 483:45.3027 484:0 485:0 486:10.9383 487:54.3321 488:0 489:0 490:34.024899 491:34.800999 492:0 493:0 494:25.4809 495:12.4245 496:0 497:0 498:4.9590998 499:21.2192 500:0 501:0 502:20.4594 503:17.643801 504:0 505:0.56314999 506:38.9048 507:0 508:0 509:39.621399 510:17.342501 511:0 512:0 513:15.0353 514:3.4003 515:0 516:0 517:25.424601 518:9.9096003 519:0 520:0 521:25.617701 522:2.9288001 523:0 524:0 525:12.3832 526:0.76178998 527:0 528:0 529:5.7844 530:8.6519003 531:0 532:0 533:19.525801 534:4.0117998 535:0 536:5.1954002 537:28.7272 538:0 539:0 540:17.667101 541:16.9953 542:0 543:0 544:3.9769001 545:37.176998 546:4.3313999 547:0 548:0 549:62.063599 550:4.4400001 551:0 552:7.0797 553:54.964699 554:0 555:0 556:21.395201 557:17.1208 558:0 559:0 560:6.329 561:1.8875999 562:0 563:0 564:8.2386999 565:9.0186005 566:0 567:0 568:34.890598 569:0 570:0 571:29.169399 572:29.489599 573:0 574:0 575:37.258999 576:0 577:35.7789 578:0 579:0 580:9.9551001 581:33.552601 582:0 583:0 584:0 585:13.9379 586:11.5215 587:0 588:0 589:16.024 590:12.9517 591:0 592:0 593:5.9875998 594:0 595:8.9562998 596:3.5016999 597:0 598:4.0015001 599:31.4536 600:0 601:0 602:20.9807 603:19.386101 604:0 605:0 606:7.2947998 607:7.8182001 608:5.3413 609:29.850201 610:0 611:0 612:23.3325 613:17.5534 614:0 615:0 616:11.3897 617:0 618:6.3692999 619:5.9130998 620:0 621:4.0935998 622:25.551201 623:0 624:0 625:16.860701 626:20.816299 627:0 628:0 629:12.0063 630:24.6304 631:0 632:0 633:17.539101 634:23.9767 635:0 636:0 637:21.4806 638:3.346 639:0 640:3.7955 641:3.6408 642:0 643:0 644:13.267 645:7.2575002 646:0 647:0 648:32.034901 649:0 650:0 651:8.1374998 652:25.9641 653:0 654:0 655:5.3309002 656:0 657:9.9584999 658:11.3962 659:0 660:0 661:40.413399 662:0 663:0 664:20.336599 665:26.434 666:0 667:0 668:18.2836 669:0 670:0 671:9.1717997 672:0 673:0 674:3.3704 675:49.637199 676:0 677:0 678:1.3843 679:18.656099 680:11.3805 681:0 682:0 683:5.0549998 684:36.288601 685:0 686:0 687:10.6224 688:33.1633 689:0 690:0 691:6.1960001 692:20.131599 693:0 694:0 695:0.56531 696:16.5646 697:0 698:0 699:7.6567001 700:9.1652002 701:0 702:0 703:11.0622 704:0 705:0 706:4.9843998 707:73.995003 708:0 709:0 710:19.8002 711:46.858898 712:0 713:0 714:12.9788 715:12.2916 716:0 717:0 718:0 719:5.1711001 720:19.288099 721:0 722:0 723:18.8036 724:6.316 725:0 726:6.2776999 727:11.108 728:0 729:0.56848001 730:11.857 731:0 732:0 733:9.5774002 734:0 735:0 736:11.6595 737:0 738:4.2322998 739:45.774899 740:0 741:0 742:16.7507 743:31.239 744:0 745:0 746:17.2882 747:14.812 748:0 749:0 750:11.3178 751:5.8291998 752:0 753:0 754:8.0794001 755:0.81059003 756:0 757:1.8659 758:6.5616999 759:0 760:0 761:5.9597001 762:3.3397999 763:0 764:0 765:7.0198998 766:1.3181 767:0 768:0 769:0 770:1.9942 771:4.1451001 772:0 773:0 774:5.3439999 775:0.96263999 776:0 777:0 778:2.4405999 779:4.0928998 780:0 781:0 782:2.3087001 783:6.4383998 784:0 785:0 786:0 787:6.4313998 788:2.1952 789:0 790:0 791:11.274 792:0 793:0 794:10.4015 795:3.7646999 796:0 797:8.4988003 798:14.4075 799:0 800:0 801:17.915899 802:0 803:0 804:7.0369 805:10.1277 806:0 807:0.64301002 808:0 809:0 810:16.159901 811:3.4266 812:0 813:2.8127999 814:18.348101 815:0 816:0 817:5.6524 818:0.45585001 819:1.5861 820:2.9593999 821:0 822:1.081 823:13.3821 824:0 825:0 826:16.7995 827:0 828:0 829:13.2297 830:12.1663 831:0 832:0 833:16.901899 834:0 835:0 836:0 837:8.5283003 838:9.2721004 839:1.0283999 840:0 841:0 842:38.767399 843:0 844:0 845:16.7668 846:39.897701 847:0 848:0 849:28.650299 850:7.9380999 851:0 852:5.3346 853:10.8689 854:0 855:0 856:9.6554003 857:0 858:0 859:6.3813 860:0 861:0 862:5.4380002 863:0 864:0 865:12.5887 866:7.4703002 867:0 868:0 869:28.0035 870:24.775101 871:0 872:0 873:37.684399 874:14.9399 875:0 876:0 877:26.0427 878:0 879:0 880:5.3395 881:6.1978998 882:0 883:1.9433 884:11.0738 885:0 886:0 887:13.9462 888:12.4616 889:0 890:0 891:17.4154 892:8.0432997 893:0 894:0 895:9.7545004 896:6.7772002 897:32.840801 898:2.9590001 899:0 900:0 901:57.3992 902:0 903:0 904:18.7342 905:52.902802 906:0 907:0 908:44.711899 909:4.5717001 910:0 911:20.695499 912:23.804399 913:0 914:0 915:34.3382 916:0 917:0 918:17.588499 919:9.3908997 920:0 921:0 922:0 923:2.2883999 924:16.9436 925:0 926:0 927:24.8069 928:19.072599 929:26.812401 930:0 931:0 932:15.2692 933:33.537201 934:0 935:0 936:33.866299 937:13.2264 938:0 939:2.7895 940:30.639799 941:0 942:0 943:25.1005 944:0 945:0 946:24.32 947:5.8302002 948:0 949:13.9588 950:26.714001 951:0 952:0 953:29.343599 954:0 955:0 956:20.520599 957:0 958:0 959:26.381701 960:0 961:0 962:0 963:36.269699 964:0.78040999 965:0 966:0 967:28.6469 968:1.3077 969:0 970:0.37904999 971:17.085699 972:0 973:0 974:8.0026999 975:0 976:0 977:14.1429 978:9.2828999 979:0 980:0 981:29.490101 982:0 983:0 984:8.6896 985:20.733601 986:0 987:0 988:4.1451998 989:5.6384001 990:4.3188 991:0 992:0 993:0 994:0 995:43.355202 996:8.4404001 997:0 998:0 999:43.155201 1000:5.2758999 1001:0 1002:0 1003:22.9883 1004:0 1005:0 1006:0 1007:0 1008:10.6988 1009:16.333401 1010:0 1011:0 1012:28.983601 1013:4.0001001 1014:0 1015:6.7655001 1016:16.102501 1017:0 1018:0 1019:6.8723998 1020:0 1021:3.9888999 1022:6.5757999 1023:0 1024:3.5896001 #
-9.5340367746470951e-010 1:32460.914 2:68.785698 3:205.4935 4:0 5:0 6:186.9404 7:0 8:0 9:82.509804 10:27.446699 11:0 12:36.7383 13:0 14:0 15:58.4576 16:0 17:0 18:57.896198 19:32.2309 20:0 21:16.0996 22:50.326801 23:0 24:0 25:29.2565 26:0 27:3.0114 28:15.2283 29:0 30:9.9890003 31:26.366501 32:0 33:0 34:26.9746 35:98.341003 36:0 37:0 38:84.746696 39:9.4879999 40:0 41:23.217899 42:38.647701 43:0 44:0 45:19.842699 46:0 47:0 48:7.2887001 49:0 50:2.7418001 51:13.3492 52:0 53:0 54:12.7231 55:0 56:0 57:2.5864 58:0.83200997 59:1.3953 60:1.3108 61:0 62:2.0235 63:9.3282003 64:0 65:121.4648 66:0 67:0 68:123.1842 69:45.254799 70:0 71:38.256001 72:66.659798 73:0 74:8.2481003 75:34.744301 76:0 77:27.316799 78:29.6008 79:0 80:24.1117 81:63.102501 82:0 83:0 84:78.062401 85:0 86:0 87:50.9291 88:2.6155 89:0 90:20.866899 91:1.5475 92:0 93:18.4111 94:0 95:0 96:27.564199 97:55.531502 98:0 99:0 100:44.903 101:44.806702 102:0 103:0 104:54.264599 105:0 106:0 107:20.167 108:19.6819 109:0 110:0 111:11.9035 112:0 113:0 114:0 115:0 116:4.5274 117:2.3137 118:0 119:0.64238 120:8.8866997 121:0 122:0 123:6.8427 124:3.7535999 125:0 126:0 127:6.2182999 128:0 129:0 130:12.1824 131:17.945299 132:0 133:6.5275998 134:16.466801 135:0 136:9.0960999 137:15.3547 138:0 139:12.1208 140:27.177099 141:0 142:0 143:46.619598 144:0 145:0 146:50.885502 147:0 148:0 149:30.632099 150:17.3671 151:0 152:6.1894999 153:17.3251 154:0 155:0.41165 156:2.993 157:0 158:10.0189 159:0 160:0 161:76.260201 162:0 163:0 164:79.130402 165:29.261801 166:0 167:27.504801 168:50.4935 169:0 170:0.76424003 171:44.157799 172:0 173:0 174:43.963402 175:0 176:0 177:43.839802 178:0 179:0 180:25.289301 181:9.3795996 182:0 183:6.1202002 184:2.0864999 185:0 186:12.324 187:0 188:0 189:29.0972 190:0 191:0 192:23.788099 193:107.0064 194:0 195:0 196:98.299698 197:57.559299 198:0 199:8.3444996 200:70.892502 201:0 202:0 203:27.644899 204:0 205:7.4811001 206:13.2822 207:0 208:12.5751 209:35.672699 210:0 211:0 212:41.480999 213:0 214:0 215:19.959101 216:2.4830999 217:0 218:7.7996001 219:0 220:0 221:16.301701 222:0 223:0 224:20.885401 225:0 226:15.7054 227:11.78 228:0 229:19.4737 230:30.566099 231:0 232:0 233:53.4314 234:0 235:0 236:51.3424 237:0 238:0 239:28.239799 240:19.495701 241:0 242:7.4419999 243:21.3899 244:0 245:0 246:14.6388 247:0 248:0 249:7.7526002 250:0 251:4.9675999 252:7.0569 253:0 254:5.4166002 255:14.0387 256:0 257:0 258:36.394699 259:92.7799 260:0 261:0 262:96.781898 263:0 264:0 265:59.539501 266:8.4570999 267:0 268:26.433001 269:10.9517 270:0 271:20.4732 272:4.3250999 273:0 274:22.003599 275:12.5654 276:0 277:8.9861002 278:23.251301 279:0 280:0 281:15.7164 282:0 283:0 284:0 285:0 286:9.3357 287:0 288:0 289:0 290:10.658 291:51.1129 292:0 293:0 294:40.1222 295:18.544001 296:0 297:0 298:34.116001 299:0 300:0 301:15.0768 302:9.9759998 303:0 304:0 305:5.6113 306:1.0488 307:0 308:0 309:0 310:8.4335003 311:0 312:0 313:8.5123997 314:5.5282998 315:0 316:1.087 317:9.7186003 318:0 319:0 320:6.1768999 321:0 322:0 323:26.334101 324:0 325:0 326:5.6724 327:28.989201 328:0 329:0 330:15.768 331:15.1048 332:0 333:0 334:6.3734002 335:8.6592999 336:0 337:0 338:0 339:17.4244 340:0 341:0 342:7.8463001 343:13.1153 344:0 345:0 346:3.7739 347:8.8610001 348:0 349:0 350:1.0368 351:18.258699 352:0 353:0 354:1.9769 355:25.6952 356:0 357:0 358:8.0295 359:19.651199 360:0 361:0 362:7.4751 363:13.0026 364:0 365:0 366:2.0248001 367:12.6493 368:0 369:0 370:0 371:16.312901 372:0 373:0 374:1.7852 375:18.718399 376:0 377:0 378:6.6787 379:18.000099 380:0 381:0 382:11.5916 383:11.4416 384:0 385:13.0258 386:0 387:0 388:13.5644 389:3.1071999 390:0 391:7.0935001 392:3.5624001 393:0 394:8.4176998 395:3.1993999 396:0 397:9.7553997 398:12.9293 399:0 400:0 401:24.653601 402:0 403:0 404:20.816601 405:6.1022 406:0 407:3.7725 408:12.6705 409:0 410:0 411:2.2328 412:3.1001 413:2.8789999 414:0 415:0 416:12.8696 417:26.778799 418:0 419:0 420:20.826 421:18.9916 422:0 423:0 424:16.9408 425:0 426:0 427:4.0619998 428:0 429:5.8339 430:12.146 431:0 432:0 433:28.0702 434:0 435:0 436:18.2903 437:21.5252 438:0 439:0 440:26.071899 441:0.78474998 442:0 443:4.7842002 444:15.6877 445:0 446:0 447:6.9516001 448:7.5632 449:0 450:2.948 451:13.7755 452:0 453:0 454:7.5263 455:4.9042001 456:0 457:0 458:2.0536001 459:6.0857 460:0 461:0 462:5.3435001 463:7.9366999 464:0 465:0 466:9.5543003 467:0 468:0 469:4.2866998 470:0 471:0 472:5.7659998 473:0 474:0 475:12.907 476:0 477:0 478:12.7773 479:5.0741 480:0 481:0 482:9.3774996 483:35.598801 484:0 485:0 486:31.087601 487:4.9829001 488:0 489:7.5394001 490:16.098499 491:0 492:0 493:6.4446001 494:0 495:3.0143001 496:1.3843 497:0 498:6.2845998 499:12.4554 500:0 501:0 502:20.774 503:0 504:0 505:9.5063 506:15.5129 507:0 508:0 509:14.9565 510:3.4856 511:0 512:0.82744002 513:13.9896 514:1.6602 515:0 516:0 517:26.475201 518:0.81209999 519:0 520:5.7919998 521:30.996599 522:0 523:0 524:19.952299 525:16.3333 526:0 527:0 528:14.1245 529:0 530:0 531:0 532:0 533:7.7013998 534:11.6049 535:0 536:0 537:28.5128 538:0 539:0 540:14.7656 541:23.7726 542:0 543:0 544:21.3946 545:54.433899 546:0 547:0 548:30.3599 549:61.2472 550:0 551:0 552:53.018299 553:22.280199 554:0 555:0 556:40.110199 557:0 558:0 559:10.8554 560:12.2724 561:0 562:0 563:0.32861 564:3.4122 565:3.9291999 566:0 567:0 568:6.3318 569:2.9105 570:0 571:0 572:3.3141999 573:1.5721 574:0 575:0 576:0.81335002 577:37.0592 578:0 579:0 580:35.924599 581:23.3647 582:0 583:0.68396002 584:39.0784 585:0 586:0 587:25.327499 588:10.1183 589:0 590:0 591:17.381201 592:0 593:0 594:0 595:15.6271 596:0 597:0 598:6.1996002 599:21.7985 600:0 601:0 602:23.674 603:9.9507999 604:0 605:1.5476 606:24.3312 607:0 608:0 609:0 610:0 611:9.6356001 612:12.0717 613:0 614:0 615:32.6684 616:0 617:0 618:22.0966 619:20.5175 620:0 621:0 622:23.0159 623:0 624:0 625:2.2398 626:6.6788998 627:3.4951999 628:0 629:0 630:13.594 631:4.5871 632:0 633:3.3132 634:17.106701 635:0 636:0 637:13.6131 638:2.2995999 639:0 640:2.1712 641:0 642:2.6779001 643:20.260201 644:0 645:0 646:12.289 647:14.1849 648:0 649:0 650:18.715599 651:2.5545001 652:0 653:5.3118 654:17.4193 655:0 656:0 657:19.3666 658:2.6013 659:0 660:7.4807 661:18.8925 662:0 663:0 664:20.7512 665:4.5181999 666:0 667:2.5516 668:18.479 669:0 670:0 671:8.6953001 672:9.7594004 673:0 674:6.3144999 675:17.3967 676:0 677:0 678:14.0723 679:0 680:0 681:7.9762998 682:0 683:0 684:7.0883999 685:0.86263001 686:0 687:0 688:6.5251999 689:4.1064 690:0 691:0 692:20.849001 693:0.27052 694:0 695:12.2278 696:28.8307 697:0 698:0 699:32.883099 700:5.9667001 701:0 702:3.9482999 703:21.758699 704:0 705:0 706:9.2004004 707:39.008598 708:0 709:0 710:30.0208 711:7.5847998 712:0 713:5.6645002 714:13.0422 715:0 716:0.98756999 717:5.7460999 718:0 719:4.3975 720:12.7164 721:0 722:0 723:20.1922 724:0.57084 725:0 726:5.1756001 727:16.6394 728:0 729:0 730:5.7705998 731:13.1241 732:0 733:0 734:6.0750999 735:18.411699 736:0 737:0 738:9.7107 739:49.837002 740:0 741:0 742:39.388699 743:20.754601 744:0 745:0 746:36.766399 747:0 748:0 749:13.3456 750:13.7384 751:0 752:0 753:2.9723001 754:12.5516 755:0 756:0 757:8.6091003 758:19.2155 759:0 760:0 761:23.6485 762:0 763:0 764:10.8979 765:6.1967001 766:0 767:5.6248999 768:0 769:0 770:5.0447998 771:21.993799 772:0 773:0 774:17.242201 775:8.5309 776:0 777:0 778:16.9375 779:0.77355999 780:0 781:2.5455 782:19.145201 783:0 784:0 785:16.2458 786:14.6062 787:0 788:0 789:25.2502 790:0 791:0 792:11.383 793:14.2707 794:0 795:0 796:9.9637003 797:5.2147999 798:0 799:0 800:5.1764998 801:10.3819 802:0 803:0 804:4.8038998 805:16.685301 806:0 807:0 808:18.642599 809:7.3116002 810:0 811:2.4979999 812:20.139 813:0 814:0 815:13.2788 816:6.8389001 817:0 818:0 819:9.5398998 820:2.7325001 821:0 822:0 823:10.7265 824:0 825:0 826:6.5844998 827:5.1420002 828:0 829:2.7479999 830:4.3800001 831:0 832:5.1585999 833:28.500401 834:0 835:0 836:17.2108 837:29.764099 838:0 839:0 840:26.479799 841:13.0388 842:0 843:0 844:28.2293 845:0 846:0 847:13.1395 848:21.916201 849:0 850:0 851:28.573 852:0 853:0 854:18.8179 855:13.7938 856:0 857:0.33581001 858:21.3811 859:0 860:0 861:11.8678 862:3.2090001 863:0 864:0 865:31.933901 866:0 867:0 868:19.8543 869:27.364901 870:0 871:0 872:17.5194 873:7.2458 874:0 875:0 876:3.5822999 877:9.4841995 878:0 879:0 880:3.1867001 881:9.9123001 882:0 883:0 884:0.22832 885:6.6883001 886:3.4303999 887:0 888:0 889:11.2678 890:5.6973 891:0 892:0 893:13.9659 894:4.6810002 895:0 896:0 897:18.7297 898:0 899:0 900:8.7952995 901:21.809 902:0 903:0 904:14.9738 905:6.8578 906:0 907:0 908:2.2381999 909:1.7358 910:6.1968002 911:0 912:0 913:19.9606 914:1.9076 915:0 916:10.1434 917:21.993401 918:0 919:0 920:20.450199 921:0 922:0 923:5.4556999 924:0 925:1.4394 926:5.7721 927:0 928:0.47795999 929:5.6668 930:0 931:0 932:2.5006001 933:11.3045 934:0 935:0 936:14.8386 937:3.7934 938:0 939:5.0704999 940:14.8296 941:0 942:0 943:11.5042 944:1.1133 945:0 946:0 947:1.2769001 948:4.0462999 949:0 950:0 951:3.9800999 952:10.6242 953:0 954:0 955:10.7813 956:4.0682001 957:0 958:0 959:5.6227002 960:6.9268999 961:1.9136 962:0 963:1.0872 964:10.0233 965:0 966:0 967:16.055401 968:1.0858001 969:0 970:5.5658002 971:10.1799 972:0 973:0 974:1.5749 975:2.7959001 976:4.2863002 977:0 978:0 979:13.5542 980:0.74219 981:0 982:5.9717999 983:10.6505 984:0 985:0 986:4.2487998 987:0.17691 988:3.5260999 989:0 990:0 991:13.758 992:3.5373001 993:0 994:0 995:16.378599 996:5.4414001 997:0 998:3.1012001 999:31.053101 1000:0 1001:0 1002:30.091 1003:7.0881 1004:0 1005:9.4610996 1006:17.374599 1007:0 1008:0 1009:10.1351 1010:0 1011:1.3739001 1012:5.3555999 1013:0 1014:2.7825 1015:7.9551001 1016:0 1017:0 1018:7.4159002 1019:0 1020:0 1021:1.7953 1022:0 1023:5.0539999 1024:0 #
9.5340367746470951e-010 1:32373.117 2:79.826302 3:321.4939 4:0 5:0 6:227.78081 7:33.107498 8:0 9:60.471401 10:46.4333 11:0 12:47.551201 13:16.316099 14:0 15:47.1945 16:51.809601 17:0 18:0.78748 19:59.960602 20:0 21:0 22:39.028702 23:0 24:0 25:28.5779 26:0 27:0 28:22.4021 29:0 30:0 31:15.0548 32:0 33:0 34:16.6313 35:127.8566 36:0 37:0 38:63.251598 39:63.756699 40:0 41:0 42:47.347301 43:0 44:0 45:15.2092 46:0 47:0 48:21.3701 49:0 50:0 51:14.6718 52:7.4064999 53:0 54:6.1919999 55:2.4902 56:0 57:11.9619 58:3.4219 59:0 60:10.0279 61:15.3846 62:0 63:0 64:20.672701 65:178.22121 66:0 67:0 68:145.6118 69:106.9228 70:0 71:1.4873 72:103.4095 73:0 74:0 75:58.277401 76:0 77:0 78:70.238602 79:0 80:0 81:63.900299 82:0 83:0 84:26.868799 85:15.8475 86:0 87:8.1655998 88:5.4973001 89:0 90:11.1587 91:0 92:0 93:16.608801 94:0 95:0 96:12.5771 97:53.359901 98:3.99 99:0 100:0 101:91.842201 102:0 103:0 104:40.7593 105:61.004799 106:0 107:0 108:44.349998 109:0 110:0 111:33.192299 112:0 113:0 114:45.430901 115:0 116:0 117:29.3197 118:9.3668003 119:0 120:11.1503 121:1.7718 122:0 123:18.4282 124:0 125:0 126:26.9744 127:4.7965002 128:0 129:28.757099 130:0 131:0 132:18.1668 133:30.575701 134:0 135:0 136:28.9909 137:8.5563002 138:0 139:0 140:19.6998 141:0 142:0 143:3.3278 144:7.5815001 145:0 146:0 147:0 148:8.3940001 149:0 150:0 151:5.0264001 152:8.3542995 153:0 154:0 155:13.5372 156:0 157:0 158:10.4921 159:7.1209002 160:0 161:145.6626 162:0 163:0 164:139.3313 165:70.999001 166:0 167:25.151199 168:98.107498 169:0 170:0 171:56.861801 172:0 173:0 174:33.6819 175:0 176:2.8497 177:46.187401 178:0 179:0 180:55.582699 181:0 182:0 183:38.206001 184:6.6191001 185:0 186:13.0087 187:8.8472004 188:0 189:6.5057001 190:0 191:0 192:17.158501 193:41.490799 194:1.5819 195:0 196:0 197:60.000301 198:0 199:0 200:16.298201 201:32.9622 202:0 203:0 204:12.5866 205:0 206:4.0974002 207:21.6024 208:0 209:0 210:24.981501 211:6.7213998 212:0 213:0 214:6.3520999 215:7.2718 216:0 217:0 218:3.8843 219:20.7813 220:0 221:0 222:21.925699 223:0 224:0 225:0 226:43.540401 227:107.0736 228:0 229:0 230:128.7742 231:0 232:0 233:62.907299 234:46.5816 235:0 236:0 237:22.4235 238:0 239:13.1367 240:0 241:0 242:29.057199 243:20.524 244:0 245:0 246:30.9289 247:0 248:0 249:10.0166 250:1.2062 251:0 252:0 253:0 254:7.2473001 255:3.0975001 256:0 257:0 258:6.6181998 259:88.167503 260:0 261:0 262:41.920898 263:58.545799 264:0 265:0 266:53.973202 267:0 268:0 269:38.422699 270:0 271:0 272:33.027901 273:16.1215 274:0 275:6.8537002 276:23.628901 277:0 278:0 279:1.9136 280:0 281:18.2826 282:0 283:0 284:26.2791 285:17.7139 286:0 287:7.3596001 288:37.844101 289:0 290:0 291:40.606201 292:9.8956003 293:0 294:0 295:29.857901 296:22.8661 297:0 298:0 299:17.6982 300:28.813101 301:0 302:0 303:5.5461001 304:26.01 305:0 306:0 307:0 308:21.507999 309:4.6988001 310:0 311:0 312:16.400499 313:1.483 314:0 315:0.79516 316:11.9801 317:0 318:0 319:6.8206 320:12.8879 321:0 322:2.7028 323:8.0889997 324:0 325:2.5850999 326:0 327:0 328:22.639999 329:0 330:0 331:17.3505 332:20.301001 333:0 334:1.4967999 335:23.114201 336:0 337:0 338:27.7579 339:0 340:0 341:25.9366 342:1.3642 343:0 344:5.9724998 345:1.8132 346:1.7028 347:7.6954002 348:0 349:0 350:29.003599 351:0 352:0 353:32.095001 354:0 355:0 356:24.689199 357:15.5417 358:0 359:4.6157999 360:8.3439999 361:0 362:10.3104 363:8.8106003 364:0 365:1.8849 366:23.9286 367:0 368:0 369:13.1484 370:15.9806 371:0 372:0 373:16.5109 374:15.2747 375:0 376:0 377:29.350599 378:1.3545001 379:0 380:8.3410997 381:23.0909 382:0 383:0 384:6.4948001 385:0 386:0 387:13.9361 388:0.59430999 389:0 390:0 391:8.3986998 392:7.5658002 393:0 394:0 395:8.7483997 396:19.253799 397:0 398:0 399:20.4305 400:16.027 401:0 402:0 403:19.6929 404:0 405:0 406:1.3893 407:0 408:4.8751998 409:8.6348 410:0 411:0 412:22.794201 413:0 414:0 415:11.2254 416:13.2976 417:0 418:14.3887 419:84.249298 420:0 421:0 422:35.0397 423:29.4713 424:0 425:0 426:0 427:19.5504 428:16.332199 429:0 430:0 431:37.433102 432:7.5426002 433:0 434:0 435:30.955099 436:0 437:0 438:2.3138001 439:28.7819 440:0 441:0 442:13.7809 443:27.3272 444:0 445:0 446:23.567699 447:4.7978001 448:0 449:0 450:1.9687001 451:7.4211001 452:0 453:0 454:21.7113 455:13.6449 456:0 457:0 458:47.880001 459:0 460:0 461:20.4282 462:36.805099 463:0 464:0 465:17.0525 466:13.2549 467:0 468:0 469:0 470:21.1686 471:9.0397997 472:0 473:0 474:30.9513 475:0 476:0 477:9.5620003 478:16.176001 479:0 480:0 481:81.660103 482:0 483:0 484:9.0937004 485:90.191704 486:0 487:0 488:0 489:59.815701 490:23.123301 491:0 492:0 493:56.584202 494:23.9979 495:0 496:0 497:43.794102 498:2.6252 499:0 500:3.6293001 501:18.6929 502:0 503:0 504:6.3987999 505:5.5334001 506:0 507:0 508:7.6198001 509:0 510:0 511:4.0558 512:2.5895 513:61.591202 514:0 515:0 516:6.0534 517:82.5243 518:0 519:0 520:20.217699 521:58.1689 522:0 523:0 524:23.071501 525:27.4554 526:0 527:0 528:22.0896 529:12.6886 530:0 531:0 532:35.003799 533:0 534:0 535:25.252199 536:27.2869 537:0 538:0 539:31.3906 540:0 541:0 542:6.1570001 543:5.9679999 544:0 545:5.4892001 546:0 547:0 548:24.4072 549:0 550:0 551:17.278799 552:29.730301 553:0 554:0 555:21.6518 556:20.910299 557:0 558:0 559:14.4369 560:21.549999 561:0 562:0 563:17.8773 564:13.8703 565:0 566:0 567:14.5901 568:0 569:0 570:3.3376 571:0 572:0.47569001 573:2.9445 574:0 575:0.31959999 576:7.7131 577:0 578:0 579:9.2948999 580:34.220299 581:0 582:0 583:36.6385 584:43.000198 585:0 586:0 587:46.953701 588:17.430201 589:0 590:0 591:26.447001 592:0 593:0 594:18.3717 595:0 596:0 597:30.267799 598:6.6348 599:0 600:9.1947002 601:34.8708 602:0 603:0 604:24.950701 605:2.4124999 606:0 607:7.5254002 608:1.5021 609:0 610:0 611:8.7308998 612:6.0065999 613:0 614:0 615:6.2919002 616:22.647699 617:0 618:0 619:21.035 620:16.879 621:0 622:0 623:17.1339 624:0 625:0 626:8.3875999 627:0 628:0.61223 629:17.990499 630:0 631:0 632:18.3864 633:1.4475 634:0 635:6.6197 636:3.9196 637:0 638:5.2666998 639:0 640:0 641:0 642:7.9531999 643:55.327099 644:0 645:0 646:32.157101 647:30.9107 648:0 649:0 650:29.8615 651:2.1386001 652:0 653:3.3216 654:3.5431001 655:0.58712 656:7.2456002 657:0 658:0 659:23.581499 660:0.72553003 661:0 662:13.3185 663:22.803301 664:0 665:0 666:26.306801 667:0 668:0 669:18.180401 670:2.382 671:0 672:7.5749998 673:0 674:5.1229 675:67.228699 676:0 677:0 678:28.554899 679:50.878601 680:0 681:0 682:41.303101 683:15.3031 684:0 685:0 686:26.3016 687:0 688:0 689:1.8536 690:18.0893 691:0 692:0 693:4.921 694:24.868999 695:0 696:0 697:20.5235 698:12.5129 699:0 700:0 701:16.4139 702:0 703:0 704:3.5086999 705:0 706:2.9934001 707:17.789101 708:0 709:0 710:3.7088001 711:2.6530001 712:2.0448 713:0 714:0 715:3.7005999 716:1.4832 717:0 718:7.2392001 719:0 720:0 721:13.6669 722:14.0563 723:0 724:0 725:24.6401 726:0 727:0 728:9.5419998 729:1.6777 730:0 731:7.7371998 732:0 733:0 734:11.378 735:0.41341001 736:0 737:7.2082 738:7.3818998 739:0 740:0 741:28.6273 742:16.667801 743:0 744:0 745:44.587399 746:0 747:0 748:23.646299 749:22.2635 750:0 751:0 752:25.4366 753:0 754:0 755:16.621401 756:6.7385001 757:0 758:2.0926001 759:15.5319 760:0 761:0 762:7.4506001 763:5.5447998 764:0 765:0 766:0 767:8.5363998 768:4.3894 769:8.4132004 770:8.6612997 771:0 772:0 773:21.128099 774:32.530102 775:0 776:0 777:35.952202 778:22.0089 779:0 780:0 781:23.1647 782:0 783:0 784:6.5620999 785:0 786:0 787:15.4304 788:0 789:0 790:8.0043001 791:0 792:0.39919999 793:8.3611002 794:0 795:0 796:21.164 797:0 798:0 799:14.0603 800:1.1736 801:6.3397999 802:5.7702999 803:0 804:0 805:16.327499 806:16.168699 807:0 808:0 809:14.4832 810:8.4039001 811:0 812:0 813:0 814:12.0416 815:4.8669 816:0 817:0.34509999 818:11.2887 819:0 820:0.64947999 821:10.3928 822:0 823:0 824:25.6043 825:0 826:0 827:17.058001 828:11.5394 829:0 830:2.2869999 831:2.2509999 832:0 833:22.2069 834:0 835:0 836:13.7021 837:27.5637 838:0 839:0 840:30.153299 841:9.2344999 842:0 843:2.7842 844:28.4 845:0 846:0 847:16.3808 848:14.2128 849:0 850:0 851:19.6786 852:4.9647002 853:0 854:0.80097997 855:23.9884 856:0 857:0 858:14.3014 859:14.1316 860:0 861:0 862:7.9520001 863:3.4865 864:1.975 865:51.095299 866:0 867:0 868:52.701 869:25.637501 870:0 871:7.1331 872:41.983898 873:0 874:0 875:17.961901 876:0 877:0 878:5.77 879:0 880:0.61682999 881:9.9933004 882:0 883:0 884:0.61750001 885:0 886:10.9462 887:6.6006999 888:0 889:0.24513 890:21.438499 891:0 892:0 893:3.5639 894:5.5414 895:7.0579 896:0 897:30.1635 898:0 899:0 900:36.291801 901:0 902:0 903:27.8267 904:6.0521002 905:0 906:27.902 907:17.0245 908:0 909:16.8218 910:47.830601 911:0 912:0 913:62.084301 914:0 915:0 916:27.0832 917:33.076698 918:0 919:0 920:19.974501 921:0 922:0 923:0 924:0 925:14.6804 926:14.0678 927:0 928:0 929:0 930:6.5545998 931:31.8703 932:0 933:0 934:19.781601 935:6.8884001 936:0 937:4.0429001 938:8.6622 939:0 940:0 941:16.165501 942:0 943:0 944:19.384399 945:16.473 946:0 947:0 948:33.337898 949:0 950:0 951:11.1664 952:15.1472 953:0 954:0 955:0 956:0 957:21.0116 958:0 959:0 960:16.930599 961:0 962:3.3605001 963:35.9426 964:0 965:0 966:0 967:6.4878001 968:17.3853 969:0 970:0 971:6.1753998 972:50.864601 973:0 974:0 975:40.1805 976:34.270302 977:0 978:0 979:43.254101 980:0 981:0 982:23.1905 983:1.8779 984:0 985:12.9449 986:0.43753001 987:0 988:14.9705 989:0 990:0 991:16.4492 992:10.6445 993:0 994:0 995:31.5802 996:9.2425003 997:0 998:0 999:29.7101 1000:20.452299 1001:0 1002:0 1003:35.936901 1004:15.7214 1005:0 1006:0 1007:37.568401 1008:0 1009:0 1010:34.686401 1011:3.2592001 1012:0 1013:20.279301 1014:28.3634 1015:0 1016:0 1017:30.308399 1018:0 1019:0 1020:19.160801 1021:0 1022:0 1023:26.816099 1024:0 #
-9.5340367746470951e-010 1:32310.617 2:72.997803 3:420.22809 4:0 5:0 6:246.7068 7:148.0696 8:0 9:0 10:129.15649 11:0 12:0 13:70.986 14:0 15:0 16:124.7849 17:0 18:0 19:90.317902 20:57.259899 21:0 22:7.1700001 23:73.121201 24:0 25:0 26:63.9165 27:0 28:0 29:54.528702 30:8.0037003 31:0 32:22.5919 33:0 34:7.8996 35:112.0407 36:0 37:0 38:31.8969 39:72.724998 40:0 41:0 42:31.753099 43:20.1761 44:0 45:2.0039999 46:11.7201 47:0 48:0.46674001 49:24.725901 50:0 51:0 52:14.2782 53:18.614 54:0 55:0 56:2.3276 57:3.3027 58:11.5418 59:0 60:0 61:4.8137002 62:35.529202 63:0 64:0 65:248.6431 66:0 67:0 68:158.6398 69:219.3765 70:0 71:0 72:178.22121 73:0 74:0 75:57.6492 76:7.4959998 77:0 78:69.045403 79:7.2820001 80:0 81:52.581799 82:86.818703 83:0 84:0 85:101.606 86:0 87:0 88:45.499699 89:27.327101 90:0 91:15.1521 92:25.532 93:0 94:7.3990002 95:30.756201 96:0 97:41.750801 98:5.7329001 99:0 100:0 101:65.710197 102:14.2341 103:0 104:0 105:61.709499 106:0 107:0 108:24.368099 109:17.67 110:0 111:13.5316 112:29.031099 113:0 114:0 115:55.206699 116:0 117:0 118:12.7003 119:38.879299 120:0 121:0 122:0 123:2.3731 124:25.614799 125:0.85640001 126:0 127:10.0798 128:61.900398 129:34.281601 130:0 131:0 132:6.0689001 133:35.271301 134:0 135:0 136:4.7797999 137:7.1387 138:0 139:6.1620002 140:0 141:0 142:11.2968 143:22.9083 144:0 145:0 146:14.3418 147:28.007 148:0 149:0 150:7.6905999 151:26.9445 152:0 153:0 154:0 155:24.0991 156:6.5344 157:0 158:0 159:23.0021 160:7.2659001 161:158.2845 162:0 163:0 164:98.350403 165:146.5804 166:0 167:0 168:122.4199 169:5.2277999 170:0 171:37.520901 172:25.194201 173:0 174:27.837601 175:26.302099 176:0 177:9.7051001 178:62.403198 179:0 180:0 181:58.6661 182:10.4726 183:0 184:15.7038 185:31.6315 186:0 187:0 188:17.4631 189:0 190:1.437 191:10.3322 192:0 193:0 194:14.5443 195:34.5979 196:0 197:0 198:40.4701 199:0 200:0 201:44.0574 202:0 203:0 204:33.5597 205:29.7997 206:0 207:0 208:47.404499 209:0 210:0 211:23.172001 212:10.8678 213:0 214:2.6900001 215:0 216:0 217:17.7701 218:0 219:0 220:23.493299 221:23.650999 222:0 223:0 224:41.676701 225:0 226:29.5203 227:182.62849 228:0 229:0 230:108.6963 231:81.186501 232:0 233:0 234:85.234497 235:0 236:0 237:34.526501 238:6.7955999 239:0 240:22.1208 241:14.0768 242:0 243:7.2108002 244:30.8067 245:0 246:0 247:29.8916 248:0 249:0 250:12.3614 251:18.9835 252:0 253:0 254:16.681499 255:4.8913002 256:0 257:0 258:0 259:34.5448 260:14.2824 261:0 262:0 263:52.726101 264:0 265:0 266:20.4247 267:36.260502 268:0 269:0 270:39.458801 271:0 272:0 273:32.340401 274:17.615601 275:0 276:0 277:30.5611 278:1.5281 279:0 280:0 281:8.5768995 282:24.8375 283:0 284:0 285:14.8132 286:48.637501 287:0 288:0 289:5.8691001 290:0 291:0 292:15.5789 293:2.1940999 294:0 295:2.2844 296:24.498199 297:0 298:0 299:5.3601999 300:23.8764 301:0 302:0 303:2.8662 304:22.054899 305:0 306:0 307:2.2225001 308:12.0756 309:0 310:0 311:0 312:0 313:16.029499 314:6.349 315:0 316:0 317:34.262798 318:0 319:0 320:14.0403 321:0 322:2.3225999 323:3.0479 324:0 325:0 326:8.4899998 327:0 328:0 329:4.2549 330:6.8137999 331:0 332:0 333:4.8305001 334:0 335:0 336:7.4684 337:0 338:0 339:8.9645004 340:15.4453 341:0 342:0 343:22.9032 344:16.9314 345:0 346:0 347:34.345501 348:10.7283 349:0 350:0 351:36.0452 352:0.56589001 353:18.4713 354:0 355:0 356:1.6952 357:25.714899 358:0 359:0 360:7.9759998 361:16.5627 362:0 363:0 364:6.0054002 365:0 366:1.9461 367:9.0988998 368:0 369:0 370:21.819901 371:5.3228002 372:0 373:0.64175999 374:21.833599 375:0 376:0 377:0 378:6.4907999 379:9.6664 380:0 381:0 382:7.1059999 383:28.974899 384:0 385:0 386:5.7473998 387:52.673302 388:0 389:0 390:9.5212002 391:19.189501 392:3.9784 393:0 394:0 395:8.7931004 396:36.771301 397:0 398:0 399:30.504801 400:29.7216 401:0 402:0 403:29.4172 404:0 405:0 406:14.676 407:0 408:0 409:26.4116 410:0 411:0 412:13.7129 413:31.1856 414:0 415:0 416:25.288401 417:0 418:5.5615001 419:75.952599 420:0 421:0 422:24.4063 423:57.678501 424:0 425:0 426:28.0347 427:30.1038 428:0 429:0 430:12.2403 431:11.1876 432:0 433:0 434:0 435:11.8414 436:15.4805 437:0 438:0 439:20.538401 440:13.8197 441:0 442:0 443:18.0313 444:3.9793 445:0 446:0 447:2.8103001 448:3.9554999 449:63.742001 450:0 451:0 452:5.3246999 453:67.905197 454:1.0858001 455:0 456:0 457:37.0271 458:33.5448 459:0 460:0 461:36.016102 462:48.5439 463:0 464:0 465:37.140099 466:25.8836 467:0 468:0 469:8.9201002 470:7.8267002 471:8.5172997 472:0 473:0 474:19.0686 475:20.735701 476:0 477:0 478:26.194799 479:3.6556001 480:0 481:118.9261 482:0 483:0 484:28.6471 485:138.3857 486:0 487:0 488:33.7346 489:82.736801 490:0 491:0 492:9.8389997 493:50.010502 494:0 495:0 496:0 497:39.9324 498:1.2173001 499:0 500:3.6406 501:29.905899 502:0 503:0 504:11.4138 505:20.5783 506:0 507:0 508:14.1515 509:19.345301 510:0 511:0 512:17.9641 513:26.1271 514:0 515:0 516:22.780199 517:23.191099 518:0 519:0 520:36.2915 521:0 522:0 523:14.6471 524:26.4867 525:0 526:0 527:17.3001 528:12.0127 529:0 530:0 531:1.0681 532:13.7984 533:6.7108002 534:0 535:0 536:29.227501 537:7.9006 538:0 539:0 540:32.689301 541:0 542:0 543:5.6503 544:15.0642 545:0 546:3.4518001 547:67.845398 548:0 549:0 550:6.0995002 551:47.2397 552:0.46052 553:0 554:0 555:39.7812 556:12.319 557:0 558:0 559:46.827 560:0 561:0 562:19.495501 563:34.056599 564:0 565:0 566:37.3312 567:3.3759999 568:0 569:6.1430001 570:26.267799 571:0 572:0 573:1.8615 574:15.1391 575:6.4555998 576:0 577:0 578:1.9622 579:43.844799 580:0 581:0 582:2.8334 583:22.607599 584:2.9117 585:0 586:0 587:7.5057001 588:13.9906 589:0 590:0 591:4.3895001 592:6.8361001 593:0 594:2.4237001 595:0 596:0 597:13.7071 598:13.8042 599:0 600:0 601:23.888201 602:8.3324003 603:0 604:0 605:13.8255 606:2.5113001 607:0 608:0 609:0 610:0 611:36.740601 612:6.8815999 613:0 614:0 615:34.664799 616:5.1138 617:0 618:0 619:15.4942 620:1.2332 621:0 622:0 623:0 624:14.5939 625:20.9928 626:0 627:0 628:37.522598 629:14.1484 630:0 631:0 632:43.447498 633:0 634:0 635:20.3657 636:26.157101 637:0 638:0 639:21.541201 640:7.4004002 641:0 642:3.0780001 643:64.235497 644:0 645:0 646:18.2082 647:56.867298 648:0 649:0 650:31.486099 651:33.394901 652:0 653:0 654:23.117599 655:13.5747 656:0 657:0 658:3.3548999 659:22.196501 660:0 661:0 662:5.9780002 663:40.430698 664:0 665:0 666:27.9452 667:33.521099 668:0 669:0 670:31.8519 671:10.3372 672:0 673:0 674:5.0549998 675:28.0035 676:0 677:0 678:24.674601 679:19.6206 680:0 681:0 682:34.348999 683:3.6556001 684:0 685:2.8175001 686:25.632299 687:0 688:0 689:0.76191002 690:13.5638 691:6.1568999 692:0 693:0 694:22.1066 695:13.8381 696:0 697:0 698:41.464001 699:0 700:0 701:19.2318 702:37.878799 703:0 704:0 705:19.480499 706:8.0358 707:0 708:0 709:42.572201 710:24.1681 711:0 712:0 713:61.096802 714:4.8729 715:0 716:10.4931 717:50.677502 718:0 719:0 720:27.8249 721:25.110201 722:0 723:0 724:26.187099 725:14.8199 726:0 727:0 728:25.7215 729:18.9207 730:0 731:0 732:30.0119 733:18.081699 734:0 735:0 736:24.438101 737:28.4459 738:9.0129004 739:0 740:0 741:58.444 742:23.054701 743:0 744:0 745:71.864304 746:0 747:0 748:26.449499 749:35.309502 750:0 751:0 752:28.299299 753:0 754:0 755:18.745701 756:2.4888999 757:0 758:2.0579 759:3.2248001 760:3.5994 761:5.4671998 762:0 763:0 764:30.0231 765:0 766:0 767:12.634 768:34.015099 769:28.084999 770:0 771:0 772:13.2248 773:26.786301 774:0 775:0 776:16.389799 777:0 778:0 779:14.1787 780:0 781:0 782:15.2497 783:23.317699 784:0 785:0 786:34.0252 787:11.9435 788:0 789:0 790:32.541698 791:0 792:0 793:4.6441002 794:18.6819 795:0 796:0 797:3.1018 798:7.7188001 799:0 800:0 801:29.472799 802:0 803:0 804:34.619701 805:15.5948 806:0 807:6.5500998 808:37.316502 809:0 810:0 811:27.416201 812:0.67444998 813:0 814:13.8316 815:3.885 816:0 817:12.0861 818:14.1463 819:0 820:0 821:24.3708 822:0 823:0 824:7.3035998 825:13.5666 826:0 827:0 828:2.8097 829:7.5525999 830:0 831:0 832:0 833:29.371401 834:0 835:0 836:26.445299 837:23.562799 838:0 839:0 840:31.5166 841:0 842:0 843:4.2171998 844:11.7133 845:1.0355 846:0 847:0 848:6.6241999 849:16.281601 850:0 851:0 852:19.962799 853:12.1693 854:0 855:0 856:25.1619 857:0 858:0 859:13.6107 860:16.4438 861:0 862:0 863:18.4431 864:8.0503998 865:3.9247999 866:0 867:0 868:16.041599 869:0 870:0 871:22.8853 872:10.0633 873:0 874:3.2599001 875:29.248899 876:0 877:0 878:22.898399 879:5.9974999 880:0 881:5.6471 882:10.1637 883:0 884:2.7221999 885:4.1458998 886:0 887:7.6798 888:14.3009 889:0 890:0 891:30.5471 892:0 893:0 894:14.6595 895:26.463499 896:0 897:0 898:5.0334001 899:57.078098 900:0 901:0 902:17.5298 903:37.356701 904:0 905:0 906:11.9148 907:21.515499 908:0 909:0 910:4.7291999 911:15.5164 912:0 913:0 914:5.9980001 915:8.9933996 916:0 917:0 918:8.3597002 919:0.63327003 920:0 921:2.1243 922:9.9764004 923:0 924:0 925:5.2670999 926:14.6476 927:0 928:0 929:0 930:10.6558 931:60.690201 932:0 933:0 934:27.190901 935:12.1613 936:0 937:6.0138001 938:0 939:0 940:30.379299 941:0 942:0 943:15.7922 944:33.2724 945:0 946:0 947:28.0264 948:0 949:0 950:21.6814 951:0 952:0 953:21.7167 954:19.990299 955:0 956:0 957:32.9855 958:0 959:0 960:8.3055 961:0 962:3.3972001 963:44.8353 964:0 965:0 966:10.1641 967:25.666901 968:0 969:0 970:1.5073 971:9.4333 972:4.1128001 973:0 974:0 975:5.2712002 976:7.0854998 977:0 978:0 979:2.1798 980:0 981:2.0504999 982:5.1230998 983:0 984:0 985:11.7563 986:5.7993002 987:0 988:0 989:12.1498 990:0.69573998 991:0 992:0 993:0 994:4.2228999 995:28.7229 996:0 997:0 998:23.1243 999:21.209101 1000:0 1001:0 1002:37.448299 1003:0 1004:0 1005:15.924 1006:26.386499 1007:0 1008:0 1009:25.687 1010:0 1011:0 1012:15.5113 1013:4.8908 1014:0 1015:7.9955001 1016:13.3892 1017:0 1018:0 1019:15.6362 1020:0 1021:0 1022:7.5585999 1023:1.3566999 1024:0 #
9.5340367746470951e-010 1:32331.484 2:73.136803 3:385.93311 4:0 5:0 6:224.55769 7:106.743 8:0 9:6.4334002 10:74.852303 11:0 12:23.895201 13:24.330299 14:0 15:27.954 16:67.572998 17:0 18:0 19:60.215302 20:0 21:0 22:50.477299 23:0 24:0 25:64.316299 26:0 27:0 28:42.544899 29:26.171101 30:0 31:12.8269 32:29.2792 33:0 34:22.343399 35:151.9187 36:0 37:0 38:72.187103 39:61.639801 40:0 41:0 42:36.2584 43:0 44:0 45:3.8655 46:0 47:4.1115999 48:5.6385002 49:0 50:5.1711001 51:12.6193 52:0 53:0 54:24.541901 55:0 56:0 57:7.7224998 58:15.397 59:0 60:0 61:1.0038 62:3.1745999 63:4.9706998 64:0 65:228.7534 66:0 67:0 68:156.342 69:181.535 70:0 71:0 72:145.4451 73:0 74:0 75:46.469002 76:0 77:0 78:64.806099 79:0 80:0 81:62.215 82:19.092199 83:0 84:19.803499 85:17.696899 86:0 87:29.264099 88:11.5312 89:0 90:26.0853 91:51.558399 92:0 93:0 94:59.220402 95:0 96:0 97:101.2698 98:0 99:0 100:46.389099 101:102.2337 102:0 103:0 104:55.499401 105:34.730099 106:0 107:0 108:23.7822 109:9.6823997 110:0 111:0 112:11.2848 113:11.2282 114:0 115:0 116:17.762699 117:6.6462002 118:0 119:0 120:15.8608 121:5.1023998 122:0 123:0 124:11.2828 125:10.1924 126:0 127:0 128:10.7279 129:8.4786997 130:7.7287002 131:0 132:0 133:18.4778 134:27.478001 135:0 136:0 137:23.739401 138:18.559 139:0 140:0 141:8.7959003 142:0 143:3.2716 144:3.8461001 145:0 146:0 147:15.066 148:0.93423998 149:0 150:0 151:1.4167 152:7.2721 153:6.1392999 154:0 155:0 156:25.3144 157:1.9756 158:0 159:8.1036997 160:23.9303 161:130.88071 162:0 163:0 164:82.838501 165:100.3447 166:0 167:0 168:71.9673 169:0 170:0 171:44.096199 172:0 173:0 174:46.461201 175:3.9498999 176:0 177:16.642099 178:13.0821 179:0 180:14.7036 181:0 182:0 183:24.5735 184:19.464399 185:0 186:0.96112001 187:36.077099 188:0 189:0 190:25.7145 191:0 192:0 193:55.585999 194:0 195:0 196:40.099998 197:52.460701 198:0 199:0 200:62.3489 201:0 202:0 203:20.593 204:41.044601 205:0 206:0 207:23.911501 208:14.2304 209:0 210:0 211:0 212:19.0203 213:11.9034 214:0 215:0 216:32.692902 217:6.2364001 218:0 219:0 220:15.4973 221:0 222:0.60009003 223:0 224:0 225:0 226:39.647202 227:155.4635 228:0 229:0 230:120.3838 231:18.4216 232:0 233:30.6579 234:40.3694 235:0 236:8.6999998 237:17.909901 238:0 239:13.9028 240:22.812 241:0 242:1.2832 243:22.541599 244:0 245:4.0563998 246:16.6036 247:0 248:5.802 249:38.699699 250:0 251:0 252:47.8545 253:0 254:0 255:20.952 256:16.3207 257:0 258:28.767 259:135.7887 260:0 261:0 262:105.6931 263:45.258701 264:0 265:0 266:89.137802 267:0 268:0 269:35.868099 270:38.751499 271:0 272:0 273:13.6614 274:25.231899 275:0 276:0 277:0 278:34.148399 279:3.2702999 280:0 281:0 282:24.044399 283:0.66777998 284:0 285:0 286:1.1262 287:9.9180002 288:5.8530002 289:0 290:0 291:32.167599 292:20.3382 293:0 294:0 295:35.0242 296:20.246 297:0 298:0 299:11.3393 300:8.158 301:6.0346999 302:0 303:0 304:13.2401 305:18.848101 306:0 307:0 308:8.5981998 309:0 310:6.1483002 311:9.5506001 312:0 313:0 314:37.3097 315:0 316:0 317:13.6407 318:28.7041 319:0 320:0 321:1.5522 322:0 323:0 324:36.548901 325:0 326:0 327:12.3936 328:62.638302 329:0 330:0 331:20.8654 332:57.4967 333:0 334:0 335:18.27 336:35.720402 337:0 338:0 339:11.1499 340:12.0021 341:0 342:0 343:4.7593999 344:0 345:0 346:7.5669999 347:1.5128 348:0 349:0 350:8.4392004 351:2.2644999 352:0 353:44.9053 354:0 355:0 356:24.6147 357:36.1539 358:0 359:0 360:15.4021 361:0 362:3.6183 363:7.8382001 364:0 365:0 366:31.2544 367:0 368:0 369:6.3980999 370:25.347601 371:0 372:0 373:0 374:16.587601 375:14.7814 376:0 377:0 378:19.8937 379:17.874599 380:0 381:0 382:12.574 383:8.7033997 384:0 385:41.572601 386:0 387:0 388:13.0075 389:35.857899 390:0 391:0 392:0 393:7.7304001 394:18.3311 395:0 396:0 397:15.5247 398:30.2955 399:0 400:0 401:26.5695 402:10.2545 403:0 404:0 405:13.6327 406:2.3162 407:0 408:0 409:9.6695995 410:13.3347 411:0 412:0 413:26.7882 414:4.6701999 415:0 416:7.5309 417:0 418:8.3775997 419:45.861301 420:0 421:0 422:19.042299 423:12.4133 424:0 425:0 426:0 427:3.9166999 428:33.794998 429:0 430:0 431:21.1185 432:41.048901 433:0 434:0 435:12.2061 436:29.226601 437:3.9948001 438:0 439:0 440:35.926399 441:27.9275 442:0 443:0 444:41.903599 445:20.3473 446:0 447:0 448:19.676701 449:0 450:13.3991 451:53.465099 452:0 453:0 454:40.084202 455:19.500799 456:0 457:0 458:12.6084 459:17.1187 460:3.4326 461:0 462:0 463:43.631802 464:8.7087002 465:0 466:0 467:40.978298 468:3.325 469:0 470:0 471:18.209801 472:21.927601 473:0 474:0 475:22.2603 476:30.1852 477:0 478:0 479:33.2216 480:2.4112999 481:29.367701 482:6.2406001 483:0 484:0 485:39.437599 486:27.215401 487:0 488:0 489:31.671101 490:36.6175 491:0 492:0 493:18.494101 494:35.6297 495:0 496:0 497:5.1917 498:29.1094 499:0 500:0 501:0 502:21.469101 503:7.2645998 504:0 505:0 506:17.276199 507:10.1131 508:0 509:0 510:16.531799 511:7.8491998 512:0 513:70.337601 514:0 515:0 516:7.9246001 517:89.191101 518:0 519:0 520:9.0434999 521:68.588799 522:0 523:0 524:1.4883 525:53.794498 526:1.4847 527:0 528:0 529:47.167702 530:0 531:0 532:3.3836 533:40.370098 534:0 535:0 536:10.391 537:29.367001 538:0 539:0 540:10.2125 541:19.515699 542:0 543:0 544:4.9301 545:63.690498 546:0 547:0 548:45.764301 549:56.881199 550:0 551:0 552:53.551201 553:7.3593998 554:0 555:0.82454997 556:18.301901 557:3.3158 558:0 559:0 560:7.3044 561:19.6411 562:0 563:0 564:26.444599 565:7.4562998 566:0 567:6.8790998 568:32.123001 569:0 570:0 571:24.3148 572:18.402399 573:0 574:0 575:15.3019 576:13.2217 577:4.0713 578:0 579:5.4015002 580:56.0438 581:0 582:0 583:62.0746 584:55.545799 585:0 586:0 587:74.223198 588:1.0409 589:0 590:14.1707 591:31.557501 592:0 593:0 594:7.4580002 595:18.985001 596:0 597:0 598:7.5997 599:44.7318 600:0 601:0 602:36.869099 603:42.604401 604:0 605:0 606:39.562801 607:14.4371 608:0 609:0 610:0 611:111.8314 612:1.6908 613:0 614:0 615:84.100899 616:8.1442003 617:0 618:0 619:50.855598 620:9.9392996 621:0 622:0 623:24.182899 624:0 625:0 626:15.4372 627:1.0739 628:0 629:8.9942999 630:34.004002 631:0 632:0 633:21.555401 634:39.755402 635:0 636:0 637:21.749399 638:35.848499 639:0 640:0 641:0 642:20.401199 643:113.2532 644:0 645:0 646:61.564499 647:30.104601 648:0 649:4.3723998 650:18.801201 651:0 652:7.6451001 653:16.295401 654:0 655:0 656:16.839199 657:3.23 658:0 659:0 660:0 661:25.5236 662:5.3736 663:0 664:5.2448001 665:44.159199 666:0 667:0 668:28.840599 669:22.858801 670:0 671:0 672:19.3092 673:0 674:17.008699 675:30.861601 676:0 677:0 678:59.824501 679:0 680:0 681:33.219601 682:39.2141 683:0 684:0 685:32.3573 686:0 687:0 688:17.0317 689:0 690:0 691:20.6556 692:12.2784 693:0 694:0 695:22.1766 696:2.8506999 697:0 698:0 699:4.4468002 700:17.472799 701:0 702:0 703:4.6297002 704:35.148602 705:10.6725 706:5.7740002 707:0 708:0 709:16.1523 710:24.2906 711:0 712:0 713:18.431299 714:24.5445 715:0 716:0 717:11.6663 718:5.9015002 719:0 720:2.3740001 721:0 722:0 723:23.9877 724:0 725:0 726:10.6586 727:26.7185 728:0 729:0 730:24.739599 731:3.0478001 732:0 733:6.3681002 734:15.0542 735:0 736:0 737:32.5242 738:0 739:0 740:0.66811001 741:38.173401 742:0 743:0 744:0.78961998 745:17.965099 746:0.94225001 747:0 748:0 749:0 750:8.7173004 751:2.5311999 752:0 753:0.75854999 754:11.8697 755:0 756:0 757:14.5553 758:0 759:0 760:7.0324998 761:16.834801 762:0 763:0 764:7.0362 765:7.7740002 766:1.5934 767:0 768:0 769:65.9618 770:0 771:0 772:18.962999 773:72.275497 774:0 775:0 776:23.8484 777:30.9765 778:0 779:0 780:7.4794998 781:6.7146001 782:0 783:0 784:0 785:8.3929996 786:0 787:0 788:9.6669998 789:14.0492 790:0 791:0 792:29.2712 793:6.6841002 794:0 795:0 796:33.5317 797:0 798:0 799:5.6185999 800:25.105499 801:54.835499 802:0 803:0 804:29.445299 805:53.655399 806:0 807:0 808:36.2798 809:14.4316 810:0 811:0 812:16.3862 813:2.0848999 814:0 815:0 816:9.2208996 817:6.1002002 818:0 819:0 820:17.255301 821:0 822:0 823:5.8504 824:16.476601 825:0 826:0 827:10.0718 828:8.5138998 829:0 830:0 831:8.1863003 832:8.3695002 833:0 834:0 835:5.3662 836:15.4117 837:0 838:0 839:17.038601 840:20.214399 841:0 842:0 843:22.6019 844:4.9703999 845:0 846:3.5074 847:8.5781002 848:0 849:1.7304 850:6.1072998 851:0 852:0 853:9.0693998 854:0 855:0 856:7.4791002 857:0 858:0 859:15.3473 860:0 861:0 862:22.6856 863:9.9466 864:0 865:0 866:0 867:45.5737 868:3.1863999 869:0 870:0 871:38.1619 872:5.1111002 873:0 874:0 875:29.400999 876:0 877:0 878:9.7552996 879:16.521601 880:0 881:0 882:18.941799 883:1.551 884:0 885:1.3837 886:13.1348 887:0.70165998 888:0 889:0 890:7.5921998 891:11.6393 892:0 893:0 894:13.2291 895:6.7293 896:0 897:0 898:0 899:37.2491 900:8.3268995 901:0 902:0 903:31.9606 904:8.5978003 905:0 906:0 907:15.3716 908:2.9992001 909:0 910:0 911:1.9408 912:0 913:0 914:6.4152002 915:4.0156002 916:0 917:0 918:22.853701 919:4.5056 920:0 921:0 922:26.248501 923:0 924:0 925:4.9531002 926:3.277 927:0.51713997 928:9.1330996 929:0 930:0 931:30.086201 932:0.97169 933:0 934:3.1933 935:25.429199 936:0 937:0 938:15.9958 939:0 940:0 941:16.283899 942:10.2285 943:0 944:0 945:25.495399 946:0 947:0 948:5.7775998 949:6.9379001 950:1.2578 951:0.32943001 952:0 953:0 954:18.2523 955:0 956:0 957:3.3015001 958:14.2822 959:0 960:0 961:0 962:6.7867999 963:21.67 964:0 965:0 966:29.4597 967:7.2542 968:0 969:3.6075001 970:33.2953 971:0 972:0 973:20.854 974:11.8915 975:0 976:2.6524 977:15.6149 978:0 979:0 980:18.5938 981:0 982:0 983:12.4181 984:8.0073004 985:0 986:0.78928 987:5.6371002 988:0 989:4.7156 990:7.6230001 991:0 992:0 993:0 994:8.1374998 995:0 996:0 997:11.0646 998:21.7593 999:0 1000:0 1001:22.750401 1002:0 1003:0 1004:17.3925 1005:0 1006:0 1007:18.194201 1008:21.459801 1009:0 1010:0 1011:29.623199 1012:3.7830999 1013:0 1014:1.2115999 1015:7.0801001 1016:0 1017:6.8397999 1018:0 1019:0 1020:13.7383 1021:21.338699 1022:0 1023:0 1024:24.5653 #
