SVM-light Version V6.02
0 # kernel type
3 # kernel parameter -d 
1 # kernel parameter -g 
1 # kernel parameter -s 
1 # kernel parameter -r 
empty# kernel parameter -u 
1024 # highest feature index 
40 # number of training documents 
23 # number of support vectors plus 1 
-58.919047 # threshold b, each following line is a SV (starting with alpha*y)
-1.2453045547089481e-005 1:32325.156 2:71.710999 3:399.47211 4:0 5:0 6:237.0303 7:130.9445 8:0 9:0 10:113.0118 11:0 12:0 13:57.277199 14:0 15:0 16:103.1105 17:0 18:0 19:85.472603 20:16.079201 21:0 22:39.389 23:33.686699 24:0 25:20.729 26:53.9217 27:0 28:0 29:66.067398 30:0 31:0 32:43.398998 33:0 34:20.374599 35:191.8208 36:0 37:0 38:73.624802 39:106.0603 40:0 41:0 42:52.941601 43:18.711399 44:0 45:2.8810999 46:0 47:0 48:17.340799 49:5.5970998 50:0 51:0 52:13.3309 53:0 54:0 55:0 56:0 57:9.5661001 58:17.878201 59:0 60:0 61:23.299 62:12.4726 63:0 64:0 65:200.70441 66:0 67:0 68:145.5443 69:159.8688 70:0 71:0 72:150.711 73:0 74:0 75:67.849098 76:0 77:0 78:71.5242 79:0 80:0 81:61.613499 82:57.022301 83:0 84:0 85:79.952202 86:0 87:0 88:48.498299 89:0 90:0 91:32.940701 92:0 93:0 94:31.183901 95:11.2417 96:0 97:99.327698 98:0 99:0 100:14.4203 101:127.7589 102:0 103:0 104:33.567699 105:85.242996 106:0 107:0 108:35.1455 109:23.5014 110:0 111:1.6222 112:6.4958 113:0 114:10.7735 115:17.501699 116:0 117:0 118:22.3456 119:0 120:0 121:6.9295001 122:0 123:0 124:17.824301 125:0 126:0 127:11.7939 128:25.663799 129:0 130:14.2815 131:0 132:0 133:20.8255 134:41.703201 135:0 136:0 137:46.4216 138:7.9517002 139:0 140:11.63 141:12.0145 142:0 143:15.5717 144:12.871 145:0 146:2.2688999 147:40.063702 148:0 149:0 150:19.7637 151:17.9946 152:0 153:0 154:0 155:10.7516 156:16.1092 157:0 158:0 159:34.459 160:6.6069002 161:125.0382 162:0 163:0 164:97.223396 165:91.342598 166:0 167:0 168:100.132 169:0 170:0 171:68.539101 172:0 173:0 174:48.018101 175:21.132 176:0 177:16.174101 178:35.8195 179:0 180:0 181:29.310699 182:0 183:0 184:36.251598 185:0 186:0 187:48.236301 188:0 189:0 190:35.9146 191:28.360901 192:0 193:129.4151 194:0 195:0 196:75.9963 197:121.9276 198:0 199:0 200:93.9627 201:17.5158 202:0 203:11.5018 204:34.065601 205:0 206:0 207:10.512 208:0 209:0.82524002 210:0 211:0 212:8.8470001 213:4.5067 214:0 215:1.6917 216:13.8058 217:0 218:0 219:3.3841 220:2.1868 221:4.4590001 222:0 223:0 224:7.9521999 225:0 226:17.7264 227:26.1122 228:0 229:0 230:56.372501 231:0 232:0 233:47.236599 234:19.442301 235:0 236:9.7230997 237:32.969601 238:0 239:0 240:35.001701 241:0 242:0 243:28.0389 244:12.4869 245:0 246:0 247:10.2049 248:4.2501001 249:6.2681999 250:0 251:0 252:33.9072 253:14.1587 254:0 255:0 256:50.602299 257:0 258:19.001499 259:112.4782 260:0 261:0 262:75.652603 263:59.5979 264:0 265:0 266:77.808296 267:1.3867 268:0 269:15.8455 270:39.373798 271:0 272:0 273:20.7444 274:0 275:0 276:12.0811 277:2.7995999 278:0 279:6.5756998 280:16.7374 281:0 282:0 283:15.1624 284:6.0012002 285:0 286:0 287:6.5229998 288:0 289:0 290:6.7658 291:84.0504 292:0 293:0 294:30.4529 295:55.000099 296:0 297:0 298:35.888901 299:8.9287004 300:0 301:9.8541002 302:14.0111 303:0 304:0 305:19.198 306:0 307:0 308:9.4888 309:0 310:0 311:6.1739998 312:0 313:0 314:29.010201 315:0 316:0 317:20.322599 318:29.174 319:0 320:0 321:0 322:3.8952999 323:53.314301 324:0 325:0 326:5.2200999 327:16.9708 328:6.5300002 329:0 330:0 331:0 332:37.244999 333:5.1145 334:0 335:2.2746999 336:38.379601 337:0 338:0 339:10.4539 340:4.9089999 341:0 342:10.6239 343:0 344:0 345:20.4652 346:14.6637 347:0 348:0 349:23.5681 350:0 351:0 352:9.2666998 353:0 354:0 355:4.7013001 356:15.3487 357:0 358:0 359:10.4234 360:26.334299 361:0 362:0 363:17.2157 364:16.0868 365:0 366:0 367:9.5340004 368:0 369:1.7919 370:12.4247 371:0 372:0 373:22.240999 374:2.8303001 375:0 376:6.7217002 377:11.5287 378:0 379:4.5303998 380:9.0794001 381:0 382:1.9551001 383:27.6884 384:0 385:21.471201 386:0 387:0 388:11.3704 389:21.1492 390:0 391:0 392:11.1719 393:4.9689999 394:0 395:0 396:0 397:1.4306 398:16.7159 399:0 400:0 401:10.0737 402:25.819599 403:0 404:0 405:12.9007 406:24.4401 407:0 408:0 409:5.4672999 410:26.467699 411:0 412:0 413:3.2333 414:30.1164 415:0 416:0 417:0 418:2.5037 419:5.5813999 420:0 421:1.4378 422:4.2781 423:0 424:2.2342999 425:13.8312 426:0 427:0 428:19.625799 429:5.2406998 430:0 431:4.8024998 432:17.009899 433:0 434:0 435:15.3186 436:0 437:0 438:21.257999 439:0 440:0 441:15.3605 442:24.0382 443:0 444:0 445:30.1005 446:2.8855 447:0 448:6.3109002 449:0 450:0 451:56.540798 452:4.2014999 453:0 454:0 455:51.266899 456:12.9527 457:0 458:0 459:47.839001 460:18.0994 461:0 462:0 463:41.275398 464:14.0133 465:0 466:0 467:23.215 468:11.8974 469:0 470:0 471:4.4741001 472:21.4837 473:0 474:0 475:4.6030002 476:27.3892 477:0 478:0 479:16.304199 480:11.3853 481:0 482:3.6966 483:50.326698 484:0 485:0 486:16.404301 487:46.944199 488:0 489:0 490:22.952999 491:41.6819 492:0 493:0 494:22.990499 495:33.5574 496:0 497:0 498:15.3289 499:23.413401 500:0 501:0 502:2.0220001 503:18.5471 504:3.1084001 505:0 506:0 507:18.7691 508:4.3983998 509:0 510:0 511:14.449 512:0 513:20.579599 514:14.1239 515:0 516:0 517:41.059799 518:55.8675 519:0 520:0 521:57.4734 522:57.522999 523:0 524:0 525:48.954899 526:34.5364 527:0 528:0 529:17.6402 530:19.258699 531:0 532:0 533:0 534:19.3615 535:6.9407001 536:0 537:0 538:15.6755 539:0 540:0 541:11.9496 542:0 543:0 544:11.7304 545:80.973801 546:3.9572001 547:0 548:0 549:107.5188 550:19.583799 551:0 552:0 553:94.543999 554:26.702299 555:0 556:0 557:80.187698 558:11.2655 559:0 560:3.5645001 561:54.2822 562:0 563:0 564:30.7649 565:17.726601 566:0 567:0 568:37.6992 569:0 570:0 571:9.2655001 572:30.6399 573:0 574:0 575:0.64598 576:25.8939 577:72.3498 578:0 579:0 580:31.482901 581:76.886002 582:0 583:0 584:41.612 585:33.2005 586:0 587:0 588:26.134701 589:15.0714 590:0 591:0 592:26.496 593:11.4237 594:0 595:0 596:43.000301 597:0 598:0 599:19.0595 600:43.076698 601:0 602:0 603:29.6394 604:24.754 605:0 606:0 607:16.245899 608:15.2359 609:16.593901 610:0 611:0 612:36.605301 613:6.1587 614:0 615:11.0197 616:57.5289 617:0 618:0 619:40.908798 620:37.729301 621:0 622:0 623:43.437099 624:0.31428 625:0 626:14.3787 627:20.7125 628:0 629:0 630:25.4088 631:0 632:0 633:4.4166999 634:19.813101 635:0 636:0 637:0 638:14.9505 639:9.3964005 640:0 641:0 642:0 643:31.9135 644:19.6861 645:0 646:0 647:37.853901 648:28.673599 649:0 650:0 651:36.428101 652:9.4378996 653:0 654:6.2666998 655:12.6419 656:0 657:6.3783002 658:30.0394 659:0 660:0 661:39.669201 662:28.2689 663:0 664:0 665:40.370499 666:15.9198 667:0 668:0 669:11.6497 670:22.7712 671:1.2282 672:0 673:0 674:0 675:48.556499 676:0 677:0 678:1.0579 679:31.8041 680:0 681:0 682:0.88045001 683:0 684:4.5244002 685:19.6357 686:0 687:0 688:25.589001 689:34.584801 690:0 691:0 692:37.633701 693:19.158199 694:0 695:0 696:20.284901 697:2.7743001 698:0 699:0 700:0 701:8.9677 702:11.8193 703:0 704:0 705:0 706:1.7772 707:41.6353 708:0 709:0 710:6.1690001 711:26.965401 712:0 713:0 714:0 715:7.5588002 716:11.4891 717:0 718:0 719:5.9243002 720:32.925499 721:0 722:0 723:28.4261 724:29.936701 725:0 726:0 727:41.8503 728:0 729:0 730:12.8338 731:18.7824 732:0 733:0 734:7.296 735:0 736:9.1639004 737:0 738:0 739:31.505301 740:2.1164 741:0 742:0 743:39.455002 744:0.35543001 745:0 746:5.4733 747:52.122101 748:0 749:0 750:28.927999 751:52.502399 752:0 753:0 754:51.0075 755:29.907301 756:0 757:0 758:46.7183 759:5.5760999 760:0 761:0 762:23.855801 763:3.8587 764:0 765:0 766:12.027 767:13.5831 768:0 769:0 770:3.809 771:39.945301 772:0 773:0 774:14.7716 775:32.927299 776:0 777:0 778:21.518499 779:30.450399 780:0 781:0 782:37.7425 783:22.041201 784:0 785:0 786:53.1185 787:0 788:0 789:21.2064 790:41.304699 791:0 792:0 793:30.674101 794:13.2485 795:0 796:0 797:11.1698 798:7.9172001 799:0 800:0 801:0 802:7.0381999 803:19.141701 804:0 805:0 806:24.218599 807:0 808:0 809:18.7414 810:12.1108 811:0 812:1.0700001 813:27.2658 814:0 815:0 816:21.4366 817:13.968 818:0 819:0 820:19.6759 821:3.4974999 822:0 823:0 824:8.158 825:11.2214 826:0 827:0 828:8.9196997 829:22.855301 830:0 831:0 832:20.4006 833:23.988701 834:1.9917001 835:0 836:0 837:34.1525 838:7.1213999 839:0 840:0 841:33.553101 842:2.1847999 843:0 844:4.8097 845:27.4116 846:0 847:0 848:22.4608 849:11.8661 850:0 851:0 852:32.805099 853:0 854:0 855:10.6341 856:31.236799 857:0 858:0 859:11.1808 860:27.407 861:0 862:0 863:8.6820002 864:26.2696 865:21.255501 866:7.0079999 867:0 868:0 869:34.6245 870:26.0945 871:0 872:0 873:36.234699 874:23.535801 875:0 876:0 877:22.3599 878:12.4262 879:0 880:0 881:4.678 882:4.2848001 883:0.51261997 884:0 885:0 886:0 887:5.2462001 888:11.9223 889:0 890:0 891:11.1072 892:16.9613 893:0 894:0 895:15.1729 896:6.6637998 897:0 898:14.1166 899:0.75669998 900:0 901:16.2285 902:47.077202 903:0 904:0 905:47.219299 906:25.2075 907:0 908:0 909:32.962601 910:0 911:0 912:10.0596 913:0 914:0 915:16.764601 916:0 917:0 918:15.249 919:7.3667998 920:0 921:4.5230999 922:10.4941 923:0 924:0 925:16.378099 926:0 927:0 928:12.7436 929:18.167 930:0 931:0 932:3.1835001 933:25.587799 934:0 935:0 936:10.0535 937:21.872499 938:0 939:0 940:16.6731 941:10.7064 942:0 943:0 944:14.8341 945:0 946:0 947:4.3000002 948:5.6740999 949:0 950:0 951:1.3658 952:2.4733 953:1.1162 954:0 955:0 956:9.8203001 957:0 958:0 959:7.8217001 960:12.2394 961:41.524502 962:0 963:0 964:44.511398 965:26.259899 966:0 967:0.9964 968:49.290901 969:0 970:0 971:25.277901 972:6.9611001 973:0 974:7.7305999 975:0 976:0 977:20.2997 978:0 979:0 980:15.6431 981:19.8806 982:0 983:0 984:27.8939 985:0 986:0 987:30.2549 988:3.4219999 989:0 990:11.6886 991:31.044701 992:0 993:13.221 994:0 995:0 996:30.9951 997:0 998:0 999:21.3598 1000:29.686701 1001:0 1002:0 1003:28.1863 1004:0 1005:0 1006:12.418 1007:0 1008:0 1009:18.408199 1010:0 1011:0 1012:12.1756 1013:11.9025 1014:0 1015:3.3597 1016:9.2677002 1017:0 1018:6.5249 1019:19.5229 1020:0 1021:0 1022:34.4268 1023:0 1024:0 #
-3.4294509205501367e-006 1:32383.563 2:94.2444 3:296.71851 4:0 5:0 6:254.0284 7:0 8:0 9:93.0588 10:44.4944 11:0 12:33.518398 13:0 14:0 15:63.317902 16:0 17:0 18:64.858704 19:10.598 20:0 21:37.319599 22:17.542801 23:0 24:31.097401 25:10.5825 26:0 27:33.524502 28:21.0341 29:0 30:19.1654 31:34.558102 32:0 33:0 34:0.34083 35:26.7498 36:0 37:0 38:10.92 39:24.4758 40:0 41:0 42:19.5536 43:0 44:0 45:7.4899001 46:0 47:0 48:12.5926 49:0 50:0 51:15.3233 52:2.0750999 53:0 54:7.2182002 55:4.5788999 56:0 57:6.2462001 58:0 59:0 60:12.4349 61:1.5369999 62:0 63:10.1349 64:10.6874 65:215.72971 66:0 67:0 68:194.558 69:119.3857 70:0 71:11.0461 72:142.5269 73:0 74:0 75:55.125301 76:0 77:5.8429999 78:21.109699 79:0 80:20.8731 81:46.674999 82:0 83:0 84:52.564499 85:0 86:0 87:36.3172 88:0 89:0 90:34.9333 91:0 92:0 93:41.964199 94:0 95:0 96:36.572102 97:5.1998 98:8.4671001 99:0 100:0 101:32.993698 102:7.4720998 103:0 104:12.4191 105:31.233801 106:0 107:0 108:18.75 109:0 110:3.0562 111:11.3227 112:0 113:5.5648999 114:25.753799 115:0 116:0 117:26.4965 118:0 119:0 120:13.9449 121:0 122:0 123:17.8925 124:0 125:0 126:29.703899 127:0 128:0 129:41.519001 130:0 131:0 132:40.222301 133:16.3116 134:0 135:12.7488 136:20.8459 137:0 138:5.9334998 139:15.9393 140:0 141:4.1350999 142:20.5313 143:0 144:0 145:21.073799 146:0 147:0 148:13.9508 149:0 150:0 151:12.8062 152:0 153:0 154:14.6267 155:0 156:0 157:9.5944996 158:3.3662 159:0 160:4.3074999 161:58.171001 162:0 163:0 164:57.035999 165:29.2512 166:0 167:8.2709999 168:44.021 169:0 170:0 171:21.822701 172:0 173:0 174:3.9477 175:0 176:7.3646002 177:10.0117 178:0 179:0 180:17.010599 181:0 182:0 183:10.6381 184:0 185:0 186:6.8835001 187:0 188:0 189:12.55 190:0 191:0 192:14.1994 193:0 194:46.358601 195:141.201 196:0 197:0 198:119.7482 199:0 200:0 201:50.8526 202:5.2828002 203:0 204:34.2822 205:0 206:0 207:48.119301 208:0 209:0 210:39.093201 211:16.2701 212:0 213:17.5376 214:22.923 215:0 216:6.2666001 217:18.744699 218:0 219:3.6085 220:13.4167 221:0 222:5.5444002 223:11.3101 224:0 225:0 226:19.542101 227:89.220299 228:0 229:0 230:68.828796 231:23.3577 232:0 233:8.9082003 234:41.795101 235:0 236:0 237:22.7267 238:0 239:0 240:16.364401 241:0 242:0 243:17.925501 244:0 245:0 246:12.9411 247:0 248:0 249:11.653 250:0 251:0 252:15.7303 253:0 254:0 255:15.2785 256:3.8278 257:21.0205 258:0 259:0 260:16.5917 261:11.1354 262:0 263:0.53052998 264:5.2521 265:0 266:6.9171 267:0 268:0 269:17.4972 270:7.0892 271:0 272:6.3119001 273:27.3785 274:0 275:0 276:29.1359 277:3.8041 278:0 279:8.8121004 280:21.438299 281:0 282:0 283:15.5799 284:5.0544 285:0 286:0 287:8.1675997 288:3.7321 289:16.905899 290:0 291:0 292:12.4433 293:16.786699 294:0 295:0 296:22.6632 297:0 298:0 299:21.9321 300:2.9389 301:0 302:13.9508 303:19.648899 304:0 305:0 306:24.7763 307:0 308:0 309:10.9918 310:1.8 311:0 312:4.5812001 313:0 314:0 315:12.8798 316:0 317:0 318:12.8755 319:2.2572999 320:0 321:67.182503 322:0 323:0 324:62.522999 325:36.021198 326:0 327:6.4997001 328:48.872601 329:0 330:0 331:27.263201 332:0 333:0 334:6.3477998 335:2.2521999 336:1.5334001 337:0 338:0 339:16.672899 340:0 341:0 342:17.942801 343:17.3398 344:0 345:0 346:28.8325 347:0 348:0 349:20.0305 350:0 351:0 352:9.8776999 353:3.6378 354:5.8463998 355:0 356:0 357:23.241301 358:8.5065002 359:0 360:3.8362999 361:33.331402 362:0 363:0 364:20.894699 365:14.8424 366:0 367:0 368:13.7406 369:9.1194 370:0 371:0 372:14.6774 373:5.5510998 374:0 375:1.5511 376:10.7512 377:0 378:0 379:4.8003001 380:0 381:3.0806999 382:6.7888999 383:0 384:0 385:0 386:17.0863 387:74.5177 388:0 389:0 390:53.904701 391:18.120501 392:0 393:2.5780001 394:26.9212 395:0 396:0 397:2.5283999 398:4.2309999 399:5.1553998 400:0 401:0 402:15.354 403:0 404:0 405:12.7092 406:11.1409 407:0 408:0 409:17.793301 410:0 411:0 412:8.0985003 413:2.5081 414:0 415:0 416:0 417:36.399899 418:0 419:0 420:47.7635 421:0 422:0 423:31.055201 424:20.3176 425:0 426:8.1823997 427:22.0364 428:0 429:1.1618 430:10.0858 431:0 432:7.0272999 433:5.6943002 434:0 435:8.2723999 436:6.5826001 437:0 438:8.8706999 439:5.0653 440:0 441:11.8247 442:11.054 443:0 444:3.9382 445:20.1602 446:0 447:0 448:13.6634 449:45.5737 450:0 451:0 452:12.2235 453:67.051102 454:0 455:0 456:41.6847 457:42.354801 458:0 459:0 460:37.6894 461:9.1365995 462:0 463:0 464:13.2394 465:20.2705 466:0 467:0 468:30.996099 469:16.0368 470:0 471:3.5718999 472:35.2668 473:0 474:0 475:24.3473 476:0 477:0 478:8.4986 479:0 480:0 481:0 482:12.2631 483:51.524799 484:0 485:0 486:37.383301 487:15.3532 488:0 489:0 490:20.625999 491:6.2154002 492:0 493:0 494:16.182501 495:15.1026 496:0 497:0 498:25.859501 499:0.93472999 500:0 501:6.7252002 502:9.0229998 503:0 504:3.2392001 505:0 506:0 507:15.5864 508:4.3143001 509:0 510:5.3343 511:22.032301 512:0 513:0 514:6.9765 515:91.8237 516:0 517:0 518:40.672699 519:75.266403 520:0 521:0 522:57.957901 523:31.9958 524:0 525:0 526:31.5931 527:19.8162 528:0 529:0 530:22.9986 531:32.7756 532:0 533:0 534:38.674 535:9.5407 536:0 537:3.7925999 538:15.7149 539:0 540:0.40704 541:0 542:0 543:18.749399 544:0 545:0 546:17.750999 547:16.073601 548:0 549:18.279301 550:35.359798 551:0 552:0 553:54.7178 554:0 555:0 556:40.035099 557:13.2021 558:0 559:2.1903999 560:21.8708 561:0 562:0 563:0 564:15.3406 565:3.2941 566:0 567:4.0966001 568:18.7432 569:0 570:0 571:13.7976 572:0 573:0 574:5.3227 575:0 576:1.4999 577:56.998001 578:0 579:0 580:33.048901 581:56.0616 582:0 583:0 584:38.869999 585:25.157499 586:0 587:0 588:26.6106 589:20.061501 590:0 591:0 592:26.1091 593:10.7952 594:0 595:0 596:13.2555 597:2.3787 598:0 599:0 600:0 601:16.4049 602:3.6436999 603:0 604:2.234 605:23.1509 606:0 607:0 608:8.7573996 609:55.4203 610:0 611:0 612:66.365601 613:7.5738001 614:0 615:37.263 616:31.042299 617:0 618:9.4573002 619:33.5755 620:0 621:0 622:23.996401 623:0 624:0 625:9.9216003 626:0 627:2.2070999 628:0 629:0 630:21.0221 631:0 632:0 633:23.044201 634:20.749701 635:0 636:0 637:32.652901 638:0 639:0 640:6.9267998 641:0 642:7.6942 643:1.0887001 644:0 645:14.1557 646:9.3710003 647:0 648:5.5865002 649:17.052 650:0 651:0 652:8.8231001 653:0 654:6.3042002 655:0 656:0 657:18.248699 658:8.0239 659:0 660:13.1013 661:26.6173 662:0 663:0 664:33.768002 665:0 666:0 667:23.8018 668:0 669:0 670:13.0631 671:0 672:0 673:0 674:6.3808999 675:2.3153999 676:0 677:9.8133001 678:9.6841002 679:0 680:2.1824999 681:14.7137 682:0 683:0 684:11.1224 685:0 686:0 687:8.9608002 688:0 689:0 690:7.0247002 691:0 692:3.0451 693:7.7593002 694:0 695:2.6308999 696:21.5226 697:0 698:0 699:28.333599 700:4.9849 701:0 702:5.3280001 703:23.513599 704:0 705:0 706:0 707:29.463301 708:4.0149002 709:0 710:4.5369 711:42.313499 712:0 713:0 714:26.194201 715:22.572001 716:0 717:0 718:12.9109 719:16.406401 720:0 721:0 722:10.1421 723:33.804501 724:0 725:0 726:33.258499 727:15.0583 728:0 729:0 730:19.666901 731:0 732:0 733:0 734:0 735:16.130501 736:0 737:0 738:7.4696999 739:44.0019 740:0 741:0 742:30.6451 743:20.4284 744:0 745:0 746:28.427799 747:0 748:0 749:13.0131 750:3.3399999 751:0 752:6.2509999 753:0.43952 754:0 755:8.6732998 756:1.79 757:0 758:7.1029 759:7.2263999 760:0 761:2.2718 762:10.1424 763:0 764:0 765:11.7722 766:0 767:0 768:12.4692 769:0 770:3.8497 771:11.1685 772:0 773:0 774:14.4792 775:0 776:0 777:14.6252 778:7.4439998 779:0 780:2.2957001 781:23.150299 782:0 783:0 784:17.626699 785:13.1964 786:0 787:0 788:15.6476 789:7.5644002 790:0 791:0 792:14.1319 793:9.2554998 794:0 795:0 796:17.778601 797:0.36322001 798:0 799:4.8056002 800:7.6306 801:0 802:8.0402002 803:7.7567 804:0 805:9.8326998 806:11.0469 807:0 808:7.3628998 809:23.012199 810:0 811:0 812:31.0553 813:0 814:0 815:20.919701 816:2.9934001 817:0 818:9.6939001 819:0.74789 820:0 821:12.1227 822:0 823:0 824:11.9826 825:5.0409999 826:0 827:5.5597 828:3.3002 829:0 830:9.8810997 831:0 832:0 833:29.011999 834:0 835:0 836:11.0555 837:41.274502 838:0 839:0 840:34.219799 841:15.9966 842:0 843:3.7286 844:23.790701 845:0 846:0 847:13.9194 848:0 849:0 850:14.0719 851:0 852:0 853:11.5738 854:2.2535999 855:0 856:0 857:2.964 858:10.3081 859:0 860:0 861:18.215 862:11.0414 863:0 864:2.9352 865:58.181 866:0 867:0 868:49.9473 869:29.9554 870:0 871:5.8717999 872:27.7994 873:0 874:3.2375 875:13.0338 876:0 877:7.1419001 878:20.9529 879:0 880:0 881:20.878799 882:0 883:0 884:5.2151999 885:0 886:4.3147001 887:4.3645 888:0 889:3.5818999 890:14.4944 891:0 892:0 893:14.2149 894:0 895:0 896:11.6608 897:0 898:2.0016999 899:26.8785 900:0 901:0 902:15.2895 903:23.1541 904:0 905:0 906:25.3088 907:2.9967 908:0 909:4.8590999 910:10.5299 911:0 912:0 913:0.45344999 914:0 915:6.717 916:4.8449001 917:0 918:0 919:14.5194 920:2.5371001 921:0 922:0 923:20.6399 924:0.24979 925:0 926:5.6413002 927:25.562901 928:0 929:0 930:3.223 931:20.0959 932:0 933:0 934:10.1547 935:8.5878 936:0 937:0 938:4.6761999 939:0.72804999 940:0 941:0 942:0 943:0.89674002 944:8.0326004 945:0 946:0 947:6.9401002 948:10.8614 949:0 950:0 951:13.2579 952:4.9807 953:0 954:0 955:10.6967 956:0 957:0 958:0 959:5.7600002 960:1.6627001 961:24.4118 962:0 963:0 964:24.875601 965:12.1025 966:0 967:3.6117001 968:20.057199 969:0 970:0 971:9.2277002 972:0.50018001 973:0 974:0.57182002 975:0 976:2.2581999 977:4.1813002 978:0 979:0 980:1.6625 981:2.5631001 982:2.5078001 983:0 984:0 985:13.0153 986:1.4903001 987:0 988:4.8906002 989:16.341101 990:0 991:0 992:12.0483 993:0 994:18.9039 995:66.730598 996:0 997:0 998:48.651001 999:3.9129 1000:0 1001:8.5883999 1002:6.4857001 1003:0 1004:4.7335 1005:0 1006:1.3328 1007:20.2941 1008:0 1009:0 1010:23.8169 1011:0 1012:0 1013:19.1542 1014:1.8092999 1015:0 1016:12.6718 1017:7.7807002 1018:0 1019:5.2742 1020:7.8821001 1021:0 1022:4.1774998 1023:5.2683001 1024:0 #
-4.7531183651728336e-006 1:32319.953 2:97.892303 3:386.28049 4:0 5:0 6:290.0571 7:36.413502 8:0 9:85.982697 10:78.455299 11:0 12:45.075901 13:46.580101 14:0 15:38.794601 16:75.750198 17:0 18:0 19:86.577599 20:0 21:0 22:62.3792 23:0 24:0 25:41.3046 26:0 27:0 28:33.990002 29:0.45308 30:0 31:28.4366 32:16.7661 33:0 34:35.441299 35:184.4664 36:0 37:0 38:104.4403 39:55.478001 40:0 41:0 42:36.9874 43:0 44:0 45:0 46:0 47:14.5207 48:6.79 49:0 50:2.8239999 51:0 52:0 53:16.157 54:0 55:0 56:25.6444 57:10.536 58:0 59:6.2316999 60:27.2376 61:0 62:0 63:19.773001 64:0 65:217.7428 66:0 67:0 68:186.6851 69:135.12711 70:0 71:2.9394 72:158.5278 73:0 74:0 75:103.1401 76:0 77:0 78:91.2416 79:0 80:0 81:90.311203 82:4.0841999 83:0 84:57.317299 85:53.942402 86:0 87:0 88:68.632301 89:0 90:0 91:35.415001 92:0 93:0 94:14.4739 95:0 96:0 97:132.937 98:0 99:0 100:54.139198 101:128.56709 102:0 103:0 104:45.198601 105:48.167801 106:0 107:0 108:5.3569002 109:29.469101 110:0 111:0 112:13.172 113:2.924 114:0 115:19.621099 116:4.7884002 117:0 118:15.18 119:27.1304 120:0 121:0 122:30.4895 123:0 124:0 125:26.879601 126:0 127:0 128:23.381001 129:12.4625 130:12.3892 131:0 132:0 133:38.867599 134:38.041599 135:0 136:0 137:59.288101 138:9.2993002 139:0 140:9.3151999 141:21.684999 142:0 143:10.5395 144:6.8143001 145:0 146:15.4001 147:45.461899 148:0 149:0 150:54.5793 151:16.945299 152:0 153:2.0427001 154:39.871601 155:0 156:0 157:7.6698999 158:12.1918 159:0.62480998 160:0 161:103.8102 162:0 163:0 164:109.7422 165:55.4058 166:0 167:20.812401 168:106.8064 169:0 170:0 171:89.178101 172:0 173:0 174:57.9995 175:15.0306 176:0 177:28.0455 178:41.875 179:0 180:0 181:36.894001 182:0 183:0 184:12.9163 185:0 186:7.5215001 187:29.943899 188:0 189:0 190:51.434299 191:0 192:0 193:76.823502 194:0 195:0 196:95.558197 197:40.555401 198:0 199:13.0119 200:105.0382 201:0 202:0 203:51.8932 204:29.0891 205:0 206:0 207:3.5913 208:2.5764999 209:16.406799 210:0 211:0 212:14.3926 213:14.2392 214:0 215:0 216:0 217:1.1131001 218:13.2367 219:0 220:0 221:13.1037 222:16.2017 223:0 224:0 225:0 226:22.9471 227:95.419998 228:0 229:0 230:72.547096 231:0 232:0 233:44.260601 234:14.5292 235:0 236:33.043098 237:51.940601 238:0 239:0 240:72.049599 241:0 242:0 243:38.391998 244:11.1355 245:0 246:20.302099 247:6.8028998 248:0 249:20.7076 250:17.7211 251:0 252:5.2694998 253:25.1478 254:0 255:0 256:20.4692 257:0 258:27.812401 259:109.6184 260:0 261:0 262:99.811699 263:25.3363 264:0 265:16.003401 266:72.000801 267:0 268:0 269:41.166302 270:5.1381998 271:0 272:13.1569 273:8.9341002 274:0 275:4.3990002 276:12.3417 277:0 278:0 279:4.7550998 280:5.1399002 281:0.53649002 282:0 283:0 284:9.3881998 285:0.46792001 286:0 287:1.7897 288:1.6944 289:0 290:7.7799001 291:8.8899002 292:0 293:0 294:29.120501 295:2.1882 296:0 297:0 298:31.856501 299:4.3455 300:0 301:0 302:28.2651 303:5.6308999 304:0 305:0 306:13.4748 307:0 308:0 309:0 310:0 311:3.5706 312:18.447399 313:0 314:0 315:9.5853004 316:15.7694 317:0 318:0 319:0 320:11.2811 321:7.3534002 322:6.1097002 323:0 324:0 325:23.8137 326:10.9849 327:0 328:1.1695 329:23.153799 330:0 331:0 332:20.0884 333:0 334:0 335:31.393499 336:0.87488002 337:0 338:11.7029 339:27.529699 340:0 341:0 342:9.4987001 343:3.0912001 344:4.7343998 345:0 346:0 347:5.8599 348:28.217199 349:0 350:0 351:25.2624 352:18.4781 353:0 354:0 355:3.2993 356:5.9885998 357:0 358:0 359:5.1943002 360:11.562 361:0 362:0 363:10.2179 364:2.5769 365:0 366:5.1419001 367:1.8522 368:0 369:7.6466999 370:8.0823002 371:0 372:0 373:16.004801 374:0 375:0 376:16.5016 377:0 378:0 379:13.2211 380:14.3133 381:0 382:0 383:25.7201 384:0 385:0 386:0 387:31.704599 388:9.3895998 389:0 390:0 391:31.384899 392:10.7142 393:0 394:0 395:21.1922 396:0 397:0 398:17.260201 399:0 400:0 401:34.811798 402:7.2863002 403:0 404:7.0548 405:39.755501 406:0 407:0 408:16.537399 409:10.2896 410:0 411:0 412:0 413:5.3745999 414:7.7042999 415:0 416:0 417:0 418:13.9295 419:78.553802 420:0 421:0 422:31.9629 423:20.6311 424:0 425:0 426:0 427:8.2399998 428:20.385799 429:0 430:0 431:24.0007 432:1.5508 433:0 434:11.4993 435:2.0092001 436:0 437:12.2551 438:8.7820997 439:0 440:0 441:14.8938 442:0 443:0 444:0 445:5.8140998 446:5.0816002 447:0 448:0 449:0 450:11.2686 451:56.018002 452:0 453:0 454:32.718399 455:23.2038 456:0 457:0 458:11.6762 459:18.9781 460:0 461:0 462:2.9382999 463:34.0005 464:0 465:0 466:14.1833 467:25.182301 468:0 469:0 470:9.6141005 471:13.1318 472:0 473:0 474:5.3994002 475:17.7054 476:0 477:0 478:22.376499 479:8.5635996 480:0 481:49.537201 482:0 483:0 484:21.8218 485:33.283699 486:0 487:0 488:0 489:0 490:27.7696 491:0 492:0 493:17.5548 494:29.865801 495:0 496:0 497:19.5604 498:0 499:0 500:14.3454 501:0 502:0 503:26.3521 504:0 505:0 506:24.9571 507:2.1487 508:0 509:15.6668 510:17.810801 511:0 512:0 513:112.1918 514:0 515:0 516:40.036098 517:115.5625 518:0 519:0 520:29.6194 521:67.7528 522:0 523:0 524:7.6556001 525:67.368103 526:0 527:0 528:31.2866 529:37.998501 530:0 531:0 532:24.7925 533:0 534:0 535:6.7532001 536:0 537:9.9850998 538:17.7654 539:0 540:0 541:37.746899 542:0 543:0 544:32.614899 545:84.915298 546:0 547:0 548:38.378601 549:97.803902 550:0 551:0 552:58.594601 553:59.410099 554:0 555:0 556:54.2416 557:28.815701 558:0 559:0 560:37.461899 561:0 562:0 563:7.3119998 564:6.8952999 565:0 566:3.7778001 567:1.7839 568:0 569:1.8521 570:0 571:1.1987 572:7.1134 573:0 574:0 575:20.1436 576:0 577:3.7249 578:0 579:0 580:31.4695 581:0 582:0 583:26.7701 584:42.163799 585:0 586:0 587:44.5919 588:18.752701 589:0 590:0 591:37.4608 592:0 593:0 594:17.2672 595:18.3309 596:0 597:0 598:18.288 599:10.4586 600:0 601:0 602:14.0937 603:21.4664 604:0 605:0 606:25.255899 607:23.3881 608:0 609:0 610:1.6986001 611:84.812302 612:0 613:0 614:11.3489 615:76.338402 616:0 617:0 618:23.4809 619:54.785301 620:0 621:0 622:29.938299 623:26.973499 624:0 625:0 626:28.7472 627:2.4495001 628:0 629:7.1220002 630:20.5042 631:0 632:0 633:16.612499 634:7.4088001 635:0 636:0 637:12.7447 638:0 639:0 640:4.9622998 641:0 642:14.7986 643:77.162804 644:0 645:0 646:51.818199 647:31.881901 648:0 649:0 650:38.059898 651:0 652:0 653:7.5869999 654:9.7315998 655:0 656:0 657:10.1875 658:0 659:0 660:9.6529999 661:20.048 662:0 663:0 664:26.7078 665:22.5721 666:0 667:0 668:36.182701 669:8.2187004 670:0 671:0 672:25.2586 673:0 674:9.5457001 675:26.4832 676:0 677:0 678:32.0215 679:1.9966 680:0 681:7.5749998 682:19.8715 683:0 684:0 685:10.9939 686:0 687:0 688:15.323 689:3.53 690:0 691:2.4489 692:32.822102 693:0 694:0 695:18.063299 696:31.421101 697:0 698:0 699:21.7917 700:10.862 701:0 702:0 703:4.0376 704:1.9917001 705:0 706:0 707:9.3843002 708:2.2732999 709:0 710:0 711:21.318001 712:0 713:0 714:13.4922 715:25.5856 716:0 717:0 718:22.980301 719:12.7345 720:0 721:0 722:10.1958 723:8.8408003 724:0 725:0 726:1.837 727:20.1541 728:0 729:0 730:15.3698 731:10.7513 732:0 733:2.2725999 734:13.0122 735:0 736:0 737:0 738:0.71118999 739:21.429501 740:0 741:0 742:3.4110999 743:20.7631 744:0 745:0 746:13.7991 747:19.1388 748:0 749:0 750:33.520901 751:1.1701 752:0 753:13.1786 754:36.569401 755:0 756:0 757:31.812099 758:14.576 759:0 760:0 761:24.765499 762:0 763:0 764:11.5716 765:7.2379999 766:0 767:0 768:10.985 769:0 770:7.7828999 771:12.7052 772:0 773:5.3642998 774:16.918699 775:0 776:0 777:33.440102 778:0 779:0 780:19.096901 781:25.423401 782:0 783:0 784:11.7945 785:19.9004 786:0 787:0 788:7.0469999 789:27.353399 790:0 791:0 792:22.626699 793:11.6988 794:0 795:3.3383 796:22.834999 797:0 798:0 799:18.0994 800:2.2202001 801:11.288 802:6.4154 803:0 804:0 805:40.7719 806:5.0483999 807:0 808:16.0413 809:58.736099 810:0 811:0 812:56.413799 813:22.1194 814:0 815:0.61720997 816:47.7024 817:0 818:0 819:20.973101 820:18.002501 821:0 822:0 823:20.462299 824:2.4105 825:0 826:3.8580999 827:20.4888 828:0 829:0 830:15.622 831:11.6257 832:0 833:27.2801 834:1.4485 835:0 836:0 837:43.534 838:0 839:0 840:16.177601 841:31.2675 842:0 843:0 844:26.659401 845:0 846:0 847:21.288601 848:2.6185 849:0 850:11.9034 851:19.414 852:0 853:0 854:21.720699 855:2.4623001 856:0 857:0 858:17.516199 859:0 860:0 861:0 862:22.479799 863:0.80044001 864:0 865:19.367399 866:0 867:0 868:0 869:17.3477 870:4.0085001 871:0 872:0 873:4.4672999 874:19.0431 875:0 876:0 877:4.3580999 878:26.0086 879:0 880:0 881:8.4471998 882:22.7297 883:0 884:0 885:12.621 886:17.8843 887:0 888:0 889:16.8216 890:13.1575 891:0 892:0 893:16.8573 894:13.0499 895:0 896:0 897:24.422501 898:0 899:0 900:22.6768 901:4.0363002 902:0 903:12.5511 904:0 905:0 906:20.362301 907:0 908:0 909:22.4139 910:8.2927999 911:0 912:14.0694 913:16.5408 914:0 915:7.1197 916:22.084499 917:0 918:0 919:29.270599 920:0 921:0 922:32.052898 923:0 924:0 925:27.121201 926:7.3340998 927:0 928:12.5386 929:37.5741 930:0 931:0 932:54.692299 933:4.8368001 934:0 935:26.563801 936:39.951302 937:0 938:0 939:24.5779 940:2.5330999 941:0 942:0 943:0 944:27.2239 945:0 946:0 947:27.378599 948:26.1014 949:0 950:0 951:45.647202 952:0 953:0 954:32.092899 955:2.7853999 956:0 957:12.1193 958:0 959:0 960:21.0896 961:6.3896999 962:0 963:0 964:30.483801 965:0 966:0 967:30.016701 968:28.1374 969:0 970:0 971:34.654202 972:1.385 973:0 974:5.1694999 975:14.3243 976:0 977:0 978:6.46 979:2.3302 980:0 981:1.0685 982:4.3757 983:0 984:0.33559999 985:5.3376002 986:0 987:0 988:15.0073 989:0 990:0 991:16.184401 992:12.0558 993:0 994:9.2523003 995:49.493301 996:0 997:0 998:26.0602 999:19.528799 1000:0 1001:0 1002:10.8727 1003:14.7311 1004:0 1005:0 1006:16.784 1007:14.7095 1008:0 1009:0 1010:30.599199 1011:0 1012:0 1013:39.583 1014:0 1015:0 1016:27.985201 1017:30.170401 1018:0 1019:0 1020:41.582199 1021:0 1022:0 1023:14.9719 1024:11.5414 #
-1.258915320656584e-005 1:32429.125 2:51.3419 3:263.25479 4:0 5:0 6:158.9021 7:66.7649 8:0 9:15.6249 10:50.505901 11:0 12:26.3992 13:32.782501 14:0 15:7.9860001 16:77.416603 17:0 18:0 19:52.2253 20:8.9181995 21:0 22:16.2649 23:0 24:0 25:27.6577 26:0.47803 27:0 28:19.027 29:22.544001 30:0 31:0 32:18.568899 33:0 34:7.8992 35:71.347801 36:0 37:0 38:32.0158 39:40.458099 40:0 41:0 42:31.8141 43:1.7604001 44:0 45:10.5629 46:10.9436 47:0 48:0 49:12.3794 50:0 51:0 52:1.5351 53:0 54:5.6339998 55:4.1550002 56:0 57:0 58:20.866199 59:0 60:0 61:7.3772998 62:17.796301 63:0 64:0 65:158.5484 66:0 67:0 68:108.7527 69:122.8039 70:0 71:0 72:97.582001 73:0 74:0 75:43.1861 76:0 77:0 78:67.098396 79:0 80:0 81:50.3978 82:39.697399 83:0 84:0 85:38.263 86:0 87:0 88:8.4280996 89:0 90:9.2909002 91:18.6437 92:0 93:0 94:31.3634 95:0 96:0 97:21.4443 98:1.5282 99:0 100:0 101:39.2854 102:0 103:0 104:21.9631 105:34.608601 106:0 107:0 108:43.6064 109:0 110:0 111:19.7763 112:24.740601 113:0 114:0 115:15.8452 116:1.692 117:0 118:0 119:0 120:17.684799 121:17.1008 122:0 123:0 124:37.1642 125:0 126:0 127:9.2693005 128:18.014 129:16.5142 130:0 131:0 132:3.2045 133:17.516399 134:0 135:0 136:3.8605001 137:5.2603998 138:0 139:0.58105999 140:2.3652999 141:0 142:0 143:10.0902 144:3.7728 145:0 146:0 147:18.773899 148:6.5616999 149:0 150:0 151:25.997101 152:4.7051001 153:0 154:0 155:25.908199 156:0 157:0 158:2.7664001 159:17.8706 160:0 161:112.2072 162:0 163:0 164:80.643097 165:79.650597 166:0 167:0 168:67.309502 169:0 170:0 171:45.215401 172:0 173:0 174:55.0242 175:0 176:0 177:25.463301 178:25.542101 179:0 180:0.43127 181:7.1985002 182:0 183:17.9324 184:5.0159001 185:0 186:12.9557 187:32.844898 188:0 189:0 190:30.4778 191:0 192:0 193:1.9658 194:5.9762998 195:0 196:0 197:19.659901 198:8.8191996 199:0 200:5.5721998 201:26.7801 202:0 203:0 204:29.7474 205:0 206:0 207:22.370501 208:7.5507998 209:0 210:9.3991003 211:7.6412001 212:0 213:15.0577 214:6.6181998 215:0 216:14.4367 217:37.5341 218:0 219:0 220:47.774502 221:7.3673 222:0 223:8.5476999 224:24.419001 225:0 226:31.806299 227:91.343903 228:0 229:0 230:97.783096 231:0 232:0 233:49.1077 234:34.228802 235:0 236:6.7456002 237:28.9035 238:0 239:4.9015002 240:20.5667 241:0 242:1.5086 243:29.1842 244:0 245:0 246:25.7211 247:0 248:0 249:25.1581 250:0 251:0 252:33.571301 253:2.0908999 254:0 255:17.8636 256:23.9004 257:0 258:4.9959998 259:48.941399 260:0 261:0 262:27.548599 263:31.4629 264:0 265:0 266:39.876999 267:0 268:0 269:25.9016 270:15.5662 271:0 272:2.8125999 273:21.9207 274:0 275:0 276:10.6481 277:0 278:5.6515002 279:24.9526 280:0 281:0 282:43.122799 283:3.2332001 284:0 285:14.2316 286:31.492399 287:0 288:0 289:0 290:0 291:65.563499 292:12.9646 293:0 294:0 295:58.323002 296:15.9426 297:0 298:0 299:27.9235 300:16.5746 301:0 302:0 303:0 304:31.1112 305:12.5454 306:0 307:0 308:34.058601 309:3.9874001 310:0 311:0.32583001 312:4.9677 313:1.9859 314:11.8374 315:0 316:0 317:23.058399 318:20.295799 319:0 320:0 321:0 322:0 323:24.4475 324:8.2995005 325:0 326:0 327:23.3162 328:15.9708 329:0 330:0 331:22.075899 332:11.7665 333:0 334:0 335:11.8059 336:0.53008002 337:0 338:1.3569 339:0 340:1.0204999 341:10.4552 342:0 343:0 344:9.7517004 345:1.6054 346:0 347:7.2687998 348:3.1454999 349:0 350:6.0221 351:12.7031 352:0 353:58.767101 354:0 355:0 356:24.5578 357:53.5616 358:0 359:0 360:14.7813 361:9.1015997 362:5.3968 363:0 364:0 365:4.1996002 366:36.678902 367:0 368:0 369:17.841499 370:30.230499 371:0 372:0 373:9.2722998 374:14.2847 375:1.235 376:0 377:0 378:15.6532 379:13.541 380:0 381:0 382:18.4839 383:9.0541 384:0 385:20.1409 386:0 387:0 388:5.2147002 389:23.6926 390:0 391:0 392:8.6483002 393:12.7638 394:0 395:0 396:6.5102 397:4.4379001 398:0 399:0 400:3.6176 401:4.4963999 402:0 403:0 404:6.0264001 405:8.7437 406:0 407:0 408:11.1066 409:10.6743 410:0 411:0 412:11.5991 413:11.1495 414:0 415:0 416:7.6030998 417:0 418:8.2079 419:41.770199 420:0 421:0 422:23.2885 423:14.7412 424:0 425:0 426:2.6930001 427:7.6104999 428:8.9141998 429:0 430:0 431:23.1175 432:12.9588 433:0 434:0 435:23.489 436:6.8801999 437:0 438:0 439:9.9387999 440:15.2193 441:0 442:0 443:8.9443998 444:20.6817 445:0 446:0 447:10.7236 448:8.9590998 449:9.1218996 450:2.6903 451:0 452:0 453:10.3387 454:13.6263 455:0 456:0 457:6.3179998 458:20.4841 459:0 460:0 461:0 462:17.9953 463:6.6177001 464:0 465:0 466:16.577801 467:22.0168 468:0 469:0 470:24.118401 471:23.897499 472:0 473:0 474:23.493099 475:11.7696 476:0 477:0 478:6.2017002 479:11.5431 480:0.87177998 481:46.240799 482:0 483:0 484:7.5331001 485:56.3363 486:0 487:0 488:9.5288 489:37.976299 490:0 491:0 492:3.8701999 493:23.219 494:0 495:0 496:0 497:16.2251 498:4.0574999 499:0 500:0 501:17.939899 502:2.9377 503:0 504:1.5023 505:22.7873 506:0 507:0 508:14.5379 509:15.7762 510:0 511:0 512:14.7477 513:30.477501 514:0 515:0 516:13.3897 517:35.5481 518:0 519:0 520:23.3944 521:17.506399 522:0 523:0 524:18.205099 525:5.8937001 526:0 527:0 528:10.3693 529:13.577 530:0 531:0 532:21.7265 533:22.315201 534:0 535:0 536:41.561199 537:9.3678999 538:0 539:0.68054998 540:37.214901 541:0 542:0 543:4.6936998 544:13.9949 545:0 546:0 547:20.8666 548:8.5818996 549:0 550:0 551:27.492001 552:8.0373001 553:0 554:0 555:24.739401 556:1.2898 557:0 558:0 559:16.127199 560:2.6466999 561:0 562:0 563:19.0609 564:2.4886999 565:0 566:3.0086 567:26.734301 568:0 569:0 570:17.9652 571:18.857901 572:0 573:0 574:16.7213 575:2.8599999 576:0 577:0 578:3.6801 579:70.515999 580:0 581:0 582:10.7228 583:43.873699 584:0 585:0 586:0.62634999 587:19.100599 588:5.5577998 589:0 590:0 591:12.9736 592:3.8169999 593:0 594:5.6066999 595:10.6968 596:0 597:0 598:28.218599 599:0 600:0 601:10.0722 602:34.459 603:0 604:0 605:13.8567 606:23.9226 607:0 608:0 609:0 610:5.2666001 611:42.768101 612:0 613:0 614:14.8569 615:15.8723 616:0 617:0 618:3.9621999 619:0 620:0.57100999 621:7.7901001 622:0 623:0 624:0 625:19.507999 626:2.4071 627:0 628:0.49217999 629:32.143101 630:0 631:0 632:13.6495 633:20.827101 634:0 635:0 636:9.7226 637:0 638:1.2545 639:5.7045999 640:0 641:4.8804002 642:0 643:0 644:0 645:1.7542 646:6.0004001 647:0.52433997 648:0 649:1.1002001 650:18.281 651:0 652:0 653:13.6734 654:13.3018 655:0 656:0 657:15.003 658:0 659:0 660:13.5178 661:0 662:0 663:14.8538 664:6.1978998 665:0 666:1.4366 667:14.2087 668:0 669:0 670:3.7526 671:0 672:2.9667001 673:6.6040001 674:0 675:0 676:2.8901999 677:0.35958001 678:0 679:5.1479001 680:0 681:0 682:11.1104 683:4.1022 684:0 685:0 686:5.2765002 687:3.5221 688:1.8013 689:0 690:0 691:21.8955 692:0 693:0 694:13.2517 695:25.269899 696:0 697:0 698:30.461599 699:0 700:0 701:20.608101 702:9.2118998 703:0 704:6.1735001 705:13.6531 706:0 707:0 708:3.9126999 709:16.9104 710:0 711:0 712:10.3654 713:5.9159999 714:0 715:2.1682999 716:9.1542997 717:0 718:0 719:12.2151 720:0 721:0 722:8.0848999 723:4.6015 724:0 725:2.4758999 726:6.8038001 727:0 728:0 729:9.8359003 730:0 731:0 732:2.9886999 733:7.0257001 734:0 735:0 736:0 737:24.1735 738:0 739:0 740:3.3192 741:32.417 742:0 743:0 744:11.5197 745:20.0783 746:0 747:0 748:11.9394 749:1.0278 750:0 751:3.2867 752:0.35859001 753:0 754:2.4085 755:0 756:0.80307001 757:8.4820004 758:0 759:0 760:18.697701 761:2.4661 762:0 763:7.0207 764:22.6357 765:0 766:0 767:17.273001 768:5.2975998 769:4.1947999 770:1.8629 771:0 772:0 773:6.9189 774:7.1398001 775:0 776:0 777:7.5528998 778:6.6588001 779:0 780:0 781:5.3870001 782:2.7476001 783:0 784:0 785:3.4243 786:0 787:0 788:5.527 789:4.9524999 790:0 791:0 792:16.2789 793:3.8580999 794:0 795:0.56716001 796:24.261801 797:0 798:0 799:13.6307 800:14.9718 801:0 802:2.7437999 803:1.6368001 804:0 805:0 806:10.5892 807:0 808:0 809:2.7316999 810:12.2865 811:0 812:0 813:3.2128999 814:12.4274 815:0 816:0 817:7.9355001 818:7.2881999 819:0 820:0 821:12.5024 822:0 823:0 824:15.8457 825:4.0588999 826:0 827:3.3164999 828:16.5926 829:0 830:0 831:8.4961004 832:0.31648999 833:9.3197002 834:0 835:0 836:2.3441999 837:14.3632 838:0 839:0 840:8.1015997 841:12.5715 842:0 843:0 844:11.2164 845:4.5496001 846:0 847:0 848:6.8123002 849:0 850:0 851:5.7391 852:0.4039 853:0 854:2.2595 855:10.1917 856:0 857:0 858:7.7863998 859:11.154 860:0 861:0 862:9.8719997 863:3.3062 864:0 865:0 866:0 867:12.906 868:8.8598003 869:0 870:0 871:12.566 872:11.051 873:0 874:0 875:1.8602 876:12.5863 877:3.026 878:0 879:0 880:18.119499 881:0 882:0 883:12.1647 884:4.1283002 885:0 886:11.7683 887:19.0616 888:0 889:0 890:34.773998 891:0 892:0 893:8.3076 894:18.8141 895:0 896:0 897:0 898:0 899:30.118401 900:8.1865997 901:0 902:0 903:36.373199 904:0 905:0 906:9.9189997 907:20.2736 908:0 909:0 910:14.9439 911:0 912:0 913:13.7914 914:3.5271001 915:0 916:0 917:7.4535999 918:5.7648001 919:0 920:0 921:2.8411 922:20.558201 923:0 924:0 925:10.8415 926:18.6719 927:0 928:0 929:3.9117 930:0 931:0 932:9.4468002 933:0 934:0 935:7.2129002 936:13.0897 937:0 938:0 939:17.912901 940:1.5926 941:0 942:6.2807999 943:11.6927 944:0 945:0 946:11.5638 947:0 948:0 949:13.9617 950:0 951:0 952:8.4629002 953:11.7531 954:0 955:0 956:8.4625998 957:4.0384002 958:0 959:0 960:0 961:4.2778001 962:1.0933 963:0 964:0 965:11.1985 966:0 967:0 968:11.9094 969:7.9301 970:0 971:2.4073999 972:23.8762 973:0 974:0 975:24.181299 976:10.7785 977:0 978:0 979:18.1873 980:0 981:0 982:1.5336 983:0 984:7.0503998 985:9.7974997 986:0 987:0 988:21.760401 989:2.7304001 990:0 991:1.4566 992:13.1138 993:0 994:9.4542999 995:30.2563 996:0 997:0 998:32.720699 999:3.3202 1000:0 1001:8.0099001 1002:21.492599 1003:0 1004:0 1005:8.9906998 1006:1.6061 1007:0 1008:1.3737 1009:0 1010:0.89916003 1011:10.8015 1012:0 1013:0 1014:9.7378998 1015:5.7426 1016:0 1017:0 1018:8.4844999 1019:0 1020:0 1021:4.1029 1022:0.92995 1023:0 1024:0.90107 #
-2.3705543037435065e-005 1:32338.016 2:78.851997 3:377.39709 4:0 5:0 6:254.62219 7:96.684799 8:0 9:22.473101 10:114.5976 11:0 12:0 13:47.729401 14:0 15:15.1748 16:77.890404 17:0 18:0 19:96.681503 20:0 21:0 22:54.310299 23:27.961599 24:0 25:17.3048 26:28.9592 27:0 28:10.4776 29:27.7609 30:0 31:1.1517 32:40.507999 33:0 34:22.8743 35:142.687 36:0 37:0 38:78.663696 39:60.9198 40:0 41:0 42:48.8908 43:0 44:0 45:8.4131002 46:0 47:0 48:18.950701 49:0 50:0 51:14.5423 52:12.1726 53:0 54:0 55:3.9175 56:1.5836999 57:7.0822001 58:0 59:0 60:12.5269 61:19.920099 62:0 63:0 64:28.492599 65:232.03081 66:0 67:0 68:156.22501 69:191.6364 70:0 71:0 72:162.8923 73:0 74:0 75:60.219398 76:0 77:0 78:58.7001 79:0 80:0 81:61.714298 82:35.5527 83:0 84:14.2046 85:74.783096 86:0 87:0 88:62.686001 89:1.2108001 90:0 91:18.344801 92:14.2108 93:0 94:9.0723 95:0 96:0 97:109.0146 98:0 99:0 100:36.876801 101:125.1768 102:0 103:0 104:58.895401 105:56.186401 106:0 107:0 108:30.496799 109:0 110:0 111:11.7295 112:0 113:0 114:36.067699 115:0 116:0 117:15.4053 118:25.5618 119:0 120:0 121:7.7902002 122:0 123:10.033 124:0 125:0 126:13.8971 127:36.8587 128:0 129:17.962099 130:0 131:0 132:15.3235 133:16.731001 134:0 135:0 136:19.2577 137:5.8080001 138:0 139:0 140:10.3071 141:4.4773998 142:0 143:0 144:2.5362 145:0 146:2.2504001 147:8.2821999 148:0 149:0 150:18.2763 151:19.8873 152:0 153:0 154:34.4869 155:20.5665 156:0 157:0 158:40.0033 159:17.0564 160:0 161:106.2793 162:0 163:0 164:111.0485 165:61.2346 166:0 167:9.6492996 168:109.8259 169:0 170:0 171:60.354099 172:4.8294001 173:0 174:20.570499 175:0 176:0 177:37.863499 178:0 179:0 180:34.2738 181:14.3729 182:0 183:13.7192 184:18.965401 185:0 186:9.3406 187:22.329 188:0 189:0 190:32.4538 191:0 192:0 193:8.2462997 194:1.2064 195:0 196:0 197:13.3212 198:1.8787 199:0 200:1.6372 201:11.3174 202:0 203:0 204:11.6164 205:0 206:0 207:10.2571 208:12.2415 209:0 210:0 211:16.2239 212:2.7237999 213:0 214:0 215:4.033 216:2.2016001 217:2.8326001 218:0 219:0 220:14.0057 221:4.1683998 222:0 223:0.62035 224:16.7855 225:0 226:43.639099 227:167.78709 228:0 229:0 230:151.5271 231:35.440498 232:0 233:23.592501 234:98.389198 235:0 236:0 237:43.043098 238:0 239:0 240:21.704399 241:0 242:0 243:38.000702 244:0.80724001 245:0 246:13.5787 247:20.225599 248:0 249:0 250:5.1789999 251:0 252:10.3997 253:8.5017996 254:0 255:1.8499 256:20.285999 257:0 258:10.2143 259:100.6116 260:0 261:0 262:48.372398 263:66.8862 264:0 265:0 266:61.5924 267:6.5752001 268:0 269:19.2761 270:25.489201 271:0 272:1.9249001 273:29.8368 274:0 275:0 276:31.0853 277:0 278:0 279:11.1101 280:10.4166 281:0 282:2.0120001 283:0 284:0 285:20.8904 286:0 287:0 288:21.469101 289:0 290:0 291:0.87931001 292:20.9596 293:0 294:0 295:6.9570999 296:40.614498 297:0 298:0 299:19.9133 300:32.6842 301:0 302:0 303:17.5707 304:3.0531001 305:0 306:7.1216002 307:0 308:0 309:21.846399 310:2.1517 311:0 312:7.9731998 313:23.2251 314:0 315:0 316:19.463499 317:3.4030001 318:0 319:3.2690001 320:13.2802 321:2.1700001 322:7.3150001 323:0 324:0 325:27.1777 326:7.3176999 327:0 328:13.343 329:35.980099 330:0 331:0 332:40.383202 333:0 334:0 335:33.497101 336:0 337:0 338:32.3969 339:14.2287 340:0 341:12.8834 342:36.839298 343:0 344:0 345:31.004801 346:0 347:0 348:17.540199 349:0 350:0 351:31.317301 352:0 353:38.503399 354:0 355:0 356:1.6985 357:45.069199 358:0 359:0 360:0 361:24.5361 362:3.2785001 363:0 364:0 365:8.4821997 366:10.9037 367:0 368:0 369:4.2122998 370:12.0267 371:0 372:0 373:5.7631001 374:6.9457002 375:0 376:0 377:8.4162998 378:5.0774002 379:0 380:0 381:12.9527 382:6.0841999 383:0 384:0 385:31.548599 386:0 387:0 388:20.1092 389:27.6511 390:0 391:0 392:25.9137 393:0 394:0 395:10.4933 396:11.6574 397:0 398:0 399:10.894 400:3.9187 401:0 402:0 403:5.8098001 404:9.3276997 405:0 406:0 407:6.5592999 408:10.8984 409:0 410:0 411:2.3543999 412:6.6606002 413:2.8822999 414:0 415:0 416:10.2777 417:0 418:1.6832 419:47.623199 420:0 421:0 422:0 423:31.0674 424:7.427 425:0 426:0 427:28.2976 428:15.0193 429:0 430:0 431:32.858398 432:0.62869 433:0 434:7.1037998 435:21.999901 436:0 437:0 438:5.2406001 439:16.123301 440:0.77977997 441:0 442:0 443:34.499699 444:0 445:0 446:12.393 447:42.146198 448:0 449:0 450:0 451:17.4632 452:1.9546 453:0 454:5.2533998 455:23.4494 456:0 457:0 458:30.9907 459:0.68514001 460:0 461:17.3118 462:29.917601 463:0 464:0 465:29.4606 466:2.7091 467:0 468:2.9375 469:0 470:2.5913 471:16.771799 472:0 473:0 474:31.0466 475:20.0266 476:0 477:0 478:38.2085 479:0 480:0 481:75.909897 482:0 483:0 484:23.057899 485:74.572701 486:0 487:0 488:1.4201 489:42.508598 490:19.112 491:0 492:0 493:64.163803 494:18.1752 495:0 496:4.8333998 497:66.021004 498:0 499:0 500:35.791199 501:16.1476 502:0 503:1.4728 504:4.4664998 505:0 506:14.2344 507:0 508:0 509:35.311298 510:5.9798002 511:0 512:15.2842 513:59.222 514:0 515:0 516:20.2959 517:65.102501 518:0 519:0 520:26.679701 521:33.4575 522:0 523:0 524:20.3612 525:17.957399 526:0 527:0 528:25.4503 529:10.2263 530:0 531:0 532:34.222198 533:0 534:0 535:5.1993999 536:30.866699 537:0 538:0 539:4.1894999 540:22.3986 541:0 542:0 543:0 544:17.670401 545:0 546:0 547:49.419201 548:8.8430004 549:0 550:0 551:49.1311 552:19.8218 553:0 554:0 555:52.8456 556:19.687 557:0 558:0 559:51.9851 560:2.7195001 561:0 562:6.5208001 563:32.603699 564:0 565:0 566:9.6346998 567:6.8804002 568:0 569:0 570:0 571:3.3541 572:10.0367 573:0 574:0 575:16.5037 576:0 577:0 578:4.4963999 579:105.3 580:0 581:0 582:12.4076 583:76.740997 584:0 585:0 586:3.1564 587:54.195 588:0 589:0 590:7.5516 591:43.6828 592:0 593:0 594:34.84 595:15.5262 596:0 597:6.9875998 598:43.922901 599:0 600:0 601:41.108398 602:13.0267 603:0 604:5.2596998 605:29.5609 606:0 607:0 608:14.1197 609:0 610:14.9117 611:64.729202 612:0 613:0 614:47.262299 615:15.2897 616:0 617:3.6837001 618:24.219 619:0 620:0 621:6.8965998 622:3.4923999 623:0 624:0 625:0.89678001 626:11.205 627:0 628:0 629:18.022301 630:6.1041999 631:0 632:5.7944999 633:25.335899 634:0 635:0 636:22.5893 637:6.2744002 638:0 639:1.9005001 640:12.0455 641:0 642:13.8089 643:4.3994999 644:0 645:10.1451 646:47.8349 647:0 648:0 649:37.209099 650:32.519798 651:0 652:0 653:31.0816 654:0.59382999 655:0 656:10.7264 657:4.8780999 658:0 659:7.7037001 660:22.134701 661:0 662:0 663:27.822599 664:18.7705 665:0 666:0 667:33.854698 668:0.62041998 669:0 670:6.7673001 671:15.8581 672:0 673:31.340099 674:0 675:0 676:0.65667999 677:37.9137 678:0.35383999 679:0 680:0 681:23.880699 682:5.474 683:0 684:0 685:10.4915 686:8.5080004 687:0 688:0 689:0 690:7.8393002 691:9.1106005 692:0 693:0 694:13.2169 695:18.7899 696:0 697:0 698:23.7484 699:11.4774 700:0 701:0 702:20.033199 703:0 704:0 705:42.1744 706:0 707:0 708:25.9006 709:47.401299 710:0 711:0 712:39.7159 713:19.2339 714:0 715:0 716:18.432501 717:1.7025 718:0 719:0 720:0 721:13.0624 722:25.3848 723:0 724:0 725:30.0166 726:21.7568 727:0 728:0 729:22.2449 730:10.4333 731:0 732:0 733:3.1466 734:13.9442 735:0.48065999 736:0 737:24.2414 738:0 739:0 740:16.0303 741:32.374401 742:0 743:0 744:31.141001 745:26.094299 746:0 747:0 748:32.631199 749:19.8599 750:0 751:0 752:24.909 753:19.1388 754:0 755:0 756:20.3283 757:15.5153 758:0 759:0 760:17.186399 761:0 762:0 763:8.0534 764:3.9463999 765:0 766:5.2581 767:12.7627 768:0 769:8.6071997 770:0 771:0 772:5.0434999 773:6.0148001 774:0 775:0 776:4.2902002 777:2.8892 778:0 779:0 780:11.5185 781:7.6251001 782:0 783:0 784:33.2127 785:0 786:0 787:14.9245 788:37.807899 789:0 790:0 791:24.9869 792:17.586599 793:0 794:0 795:7.7021999 796:8.0754004 797:1.0622 798:0 799:0 800:15.4805 801:0 802:0 803:8.4154997 804:8.2595997 805:0 806:0 807:33.4818 808:0 809:0 810:16.086599 811:38.9757 812:0 813:0 814:25.082701 815:21.5651 816:0 817:0 818:9.7294998 819:11.8801 820:0 821:0 822:0 823:8.1203003 824:4.5204 825:0 826:0 827:0 828:8.4152002 829:8.5347996 830:0 831:0 832:13.8127 833:0 834:0 835:26.2467 836:8.8915997 837:0 838:0 839:41.284801 840:0 841:0 842:12.8616 843:38.5499 844:0 845:0 846:30.0623 847:14.8637 848:0 849:0 850:25.380301 851:0 852:0 853:2.7335 854:13.7858 855:0 856:0 857:0 858:9.9272003 859:1.2094001 860:0 861:0 862:9.0700998 863:0 864:0 865:0 866:0 867:15.9585 868:11.1481 869:0 870:0 871:20.120899 872:9.2624998 873:0 874:0 875:8.5733004 876:0.61619002 877:0.67084002 878:0 879:0 880:2.0067 881:7.8878999 882:0 883:0 884:0 885:0 886:8.1210003 887:2.552 888:0 889:0 890:18.722099 891:0 892:0 893:6.0641999 894:9.5480003 895:0 896:0 897:0 898:0 899:5.7537999 900:2.8448 901:0 902:0 903:9.3169003 904:0 905:0 906:6.5634999 907:2.5283 908:0 909:4.7469001 910:6.8821001 911:0 912:0 913:15.7245 914:0 915:0 916:9.1020002 917:13.8186 918:0 919:0 920:10.0525 921:8.5612001 922:0 923:0 924:5.9796 925:9.4596004 926:0 927:0 928:6.7329998 929:0 930:12.7195 931:28.277 932:0 933:0 934:43.8311 935:0 936:0 937:12.7032 938:31.1754 939:0 940:0 941:9.4427004 942:9.7755003 943:0 944:0 945:0 946:2.9582 947:0 948:0 949:3.7067001 950:0 951:0 952:10.766 953:7.9334998 954:0 955:0 956:15.0909 957:5.9471998 958:0 959:0 960:7.9768 961:0 962:17.3573 963:17.934299 964:0 965:9.5606003 966:49.101898 967:0 968:0 969:52.938599 970:3.7586 971:0 972:21.5576 973:20.8272 974:0 975:9.0998001 976:21.812799 977:0 978:0 979:33.638302 980:0 981:0 982:29.0543 983:3.7332001 984:0 985:10.0018 986:9.1360998 987:0 988:6.5627999 989:4.5089002 990:0 991:8.6469002 992:12.9559 993:16.086599 994:1.6906 995:0 996:0 997:37.826401 998:0 999:0 1000:24.0301 1001:43.699799 1002:0 1003:0 1004:45.224098 1005:9.2552004 1006:0 1007:8.4582996 1008:16.4207 1009:0 1010:6.4959002 1011:10.4698 1012:0 1013:1.6161 1014:24.9125 1015:0 1016:0 1017:12.5501 1018:3.2367001 1019:0 1020:5.4457998 1021:0 1022:0 1023:30.1742 1024:0 #
8.1441097186281397e-006 1:32350.992 2:73.324097 3:361.2634 4:0 5:0 6:233.80791 7:94.897499 8:0 9:17.2668 10:102.0961 11:0 12:0 13:46.4743 14:0 15:4.3502998 16:63.991901 17:0 18:0 19:65.867401 20:0 21:0 22:48.012001 23:12.1776 24:0 25:19.938499 26:35.8866 27:0 28:0 29:28.617901 30:0 31:0 32:14.9657 33:0 34:5.5499001 35:93.536797 36:0 37:0 38:30.5783 39:63.907501 40:0 41:0 42:38.007401 43:2.1282001 44:0 45:22.028299 46:0 47:0 48:26.288099 49:19.055401 50:0 51:0 52:26.855101 53:0 54:0 55:9.8142004 56:0 57:7.5029001 58:25.867399 59:0 60:0 61:43.585098 62:0 63:0 64:24.7407 65:216.80431 66:0 67:0 68:144.2914 69:180.1777 70:0 71:0 72:148.76891 73:0 74:0 75:46.090099 76:3.2339001 77:0 78:44.305599 79:0 80:0 81:51.923 82:23.151501 83:0 84:14.8462 85:54.8316 86:0 87:0 88:45.485802 89:0 90:0 91:13.2739 92:7.9726 93:0 94:8.4560003 95:0 96:0 97:41.843399 98:8.8395996 99:0 100:0 101:77.762398 102:10.7069 103:0 104:9.9382 105:61.6278 106:0 107:0 108:26.007 109:0 110:0 111:37.774799 112:0 113:0 114:51.684601 115:10.3415 116:0 117:13.2425 118:23.902399 119:0 120:7.7065001 121:2.1041 122:0 123:27.109501 124:19.940399 125:0 126:5.2423 127:53.081902 128:0 129:47.674301 130:0 131:0 132:38.2005 133:30.6716 134:0 135:0 136:31.991199 137:0 138:0 139:19.725 140:0 141:0 142:6.5613999 143:9.5649004 144:0 145:0 146:0 147:19.0798 148:2.9089 149:0 150:1.8982 151:28.214199 152:0 153:0 154:6.3315001 155:17.4956 156:0 157:0 158:0 159:19.552799 160:8.2623997 161:120.961 162:0 163:0 164:96.730698 165:95.696602 166:0 167:0 168:112.7371 169:0 170:0 171:49.369202 172:27.5387 173:0 174:5.6654 175:19.261999 176:0 177:6.6493001 178:2.8972001 179:0 180:19.0529 181:14.2931 182:0 183:3.431 184:40.608299 185:0 186:0 187:32.6516 188:13.893 189:0 190:0.54374999 191:16.1366 192:0 193:0 194:21.516199 195:49.410198 196:0 197:0 198:61.677399 199:0 200:0 201:33.555302 202:16.301701 203:0 204:5.3794999 205:7.0549998 206:0 207:12.8811 208:1.3281 209:0 210:10.8423 211:15.3519 212:0 213:0 214:9.5082998 215:0 216:0.73842001 217:0 218:0 219:10.8133 220:2.7804 221:0 222:7.2181001 223:12.4158 224:0 225:0 226:23.5534 227:145.29379 228:0 229:0 230:100.9462 231:69.947899 232:0 233:0 234:102.1041 235:0 236:0 237:59.510799 238:16.645 239:0 240:22.9077 241:26.106701 242:0 243:9.7140999 244:20.7778 245:0 246:12.3647 247:25.0086 248:0 249:3.4547 250:48.3633 251:0 252:0 253:55.572498 254:0 255:0 256:31.0222 257:0 258:4.3922 259:67.066597 260:0 261:0 262:13.8648 263:36.019798 264:0 265:0 266:5.8655 267:1.6284 268:0.54460001 269:11.1036 270:0 271:0 272:10.1043 273:26.662399 274:0 275:0 276:14.4255 277:27.939699 278:0 279:0 280:11.0392 281:19.1446 282:0 283:0 284:2.1591001 285:15.8366 286:0 287:0 288:5.5840998 289:0 290:7.6169 291:28.366899 292:0 293:0 294:8.5623999 295:0 296:11.6385 297:13.8004 298:0 299:0 300:38.6768 301:0 302:0 303:29.204599 304:2.0604999 305:0 306:20.264601 307:5.3607001 308:0 309:15.2641 310:20.414301 311:0 312:0 313:17.4228 314:0 315:1.3854001 316:4.9481001 317:0 318:8.8118 319:28.132099 320:0 321:46.935101 322:0 323:0 324:28.5334 325:31.761499 326:0 327:0 328:13.9906 329:0 330:4.283 331:6.0173001 332:0 333:0.81251001 334:12.3882 335:0 336:0 337:0 338:0.85157001 339:14.4313 340:0 341:0 342:22.598 343:11.8177 344:0 345:6.8559999 346:32.6003 347:0 348:0 349:32.312199 350:0 351:0 352:12.2449 353:53.908199 354:0 355:0 356:26.6229 357:54.250198 358:0 359:0 360:37.251801 361:8.9916 362:0 363:7.2947998 364:13.4849 365:0 366:0 367:6.3919001 368:0 369:6.1652002 370:1.5556999 371:0 372:11.4293 373:22.359699 374:0 375:0 376:34.415298 377:11.6642 378:0 379:0 380:26.378599 381:9.4129 382:0 383:0 384:15.4586 385:0 386:8.9996004 387:60.556301 388:0 389:0 390:21.717899 391:23.476801 392:0 393:0 394:0 395:14.4695 396:16.714701 397:0 398:0 399:28.3806 400:11.4673 401:0 402:0 403:19.739 404:6.0228 405:0 406:0 407:10.4906 408:22.820999 409:0 410:0 411:27.297199 412:21.497999 413:0 414:0 415:31.436501 416:0 417:0 418:0.41214001 419:53.272499 420:0 421:0 422:15.3457 423:52.091099 424:0 425:0 426:36.794601 427:18.141399 428:0 429:0 430:16.6668 431:0 432:0.26245001 433:0 434:0 435:34.571499 436:0 437:0 438:21.690201 439:51.813499 440:0 441:0 442:45.756699 443:21.807501 444:0 445:0 446:18.7955 447:14.256 448:0 449:66.704102 450:0 451:0 452:6.8462 453:84.497498 454:0 455:0 456:10.2026 457:56.684299 458:0 459:0 460:0 461:32.5369 462:13.427 463:0 464:0 465:30.9573 466:15.418 467:0 468:0 469:24.676001 470:0 471:0 472:6.4663 473:0 474:0 475:8.4642 476:0 477:0 478:14.9386 479:0 480:0 481:72.3283 482:0 483:0 484:5.5416999 485:93.829903 486:0 487:0 488:12.34 489:67.334396 490:0 491:0 492:7.4238 493:38.977699 494:0 495:0 496:0 497:33.750702 498:0.36043999 499:0 500:9.3144999 501:35.971001 502:0 503:0 504:33.307999 505:15.0566 506:0 507:0 508:27.602699 509:0 510:0 511:6.0830002 512:0.87484002 513:0 514:0 515:10.2835 516:24.806 517:0 518:0 519:42.637798 520:14.3412 521:0 522:1.3898 523:40.170502 524:0 525:0 526:11.3651 527:12.9496 528:0 529:0 530:0 531:10.5616 532:4.4354 533:0 534:0.5977 535:13.568 536:0 537:0 538:9.6933002 539:1.1508 540:0 541:1.4227 542:2.1415 543:2.0752001 544:0 545:0 546:0 547:65.966202 548:6.0755 549:0 550:0 551:52.8806 552:22.663 553:0 554:0 555:50.747398 556:24.141399 557:0 558:0 559:42.8382 560:0 561:0 562:10.0976 563:13.533 564:0 565:0 566:12.7456 567:0 568:0 569:7.1792998 570:11.3659 571:0 572:0 573:7.0475001 574:16.0275 575:0 576:0 577:0 578:10.4391 579:62.084702 580:0 581:0 582:27.9666 583:13.2264 584:0 585:6.2199998 586:0 587:0 588:24.2386 589:6.7491002 590:0 591:3.8248 592:27.3806 593:0 594:0 595:6.1549001 596:0 597:7.4061999 598:9.3709002 599:0 600:0 601:36.245499 602:0 603:0 604:18.267599 605:28.514799 606:0 607:0 608:22.9526 609:0 610:6.4513001 611:48.891399 612:0 613:0 614:30.361799 615:31.4086 616:0 617:0 618:36.050598 619:0.31569001 620:0 621:10.1693 622:11.8804 623:0 624:1.5563 625:6.6020002 626:0 627:0.84464997 628:6.4580998 629:0 630:0 631:0 632:0 633:9.4692001 634:0.43895999 635:0 636:8.5038004 637:17.763901 638:0 639:0 640:22.889299 641:0 642:0 643:9.5562 644:0 645:0 646:4.9267998 647:16.774799 648:0 649:0 650:21.3361 651:14.487 652:0 653:0 654:31.650101 655:0 656:0 657:13.7863 658:11.5589 659:0 660:2.9995999 661:0.465 662:0 663:16.8627 664:5.5700998 665:0 666:9.2726002 667:31.610201 668:0 669:0 670:33.1194 671:0 672:0 673:32.928799 674:0 675:0 676:2.7804999 677:44.680801 678:0 679:0 680:5.9790001 681:38.650299 682:0 683:0 684:8.4849005 685:25.3703 686:0 687:0 688:5.5967999 689:6.1368999 690:0 691:2.1605999 692:0 693:0 694:8.9898005 695:11.2194 696:0 697:0 698:11.6681 699:15.1038 700:0 701:0 702:11.687 703:16.181801 704:0 705:44.645699 706:0.65722001 707:0 708:0 709:62.149399 710:0 711:0 712:6.8109999 713:50.482101 714:0 715:0 716:17.3528 717:19.7232 718:0 719:0 720:10.0768 721:0 722:0 723:14.3054 724:0 725:0 726:11.8319 727:2.0132 728:0 729:4.2721 730:0 731:0 732:16.0005 733:0 734:0 735:14.8304 736:16.1229 737:22.495501 738:0.59881997 739:0 740:0 741:25.3785 742:2.6830001 743:0 744:0 745:9.3990002 746:5.9151001 747:0 748:0 749:0 750:6.3664999 751:3.1442001 752:0 753:0 754:0 755:4.6932998 756:16.988501 757:0 758:0 759:14.2288 760:21.0825 761:0 762:0 763:10.6354 764:6.2644 765:0.88234001 766:0 767:0 768:5.8284998 769:0 770:0 771:4.8986001 772:6.2943001 773:0 774:0 775:13.6578 776:3.7846 777:0 778:0 779:11.7817 780:1.1277 781:0 782:0 783:4.8239002 784:9.6120005 785:0 786:0 787:5.6784 788:14.3459 789:0 790:0 791:4.0939999 792:10.7108 793:0 794:0 795:0 796:9.7859001 797:5.3237 798:0 799:0 800:6.6763 801:0 802:0 803:12.7087 804:22.957001 805:0 806:0 807:22.0228 808:39.308601 809:0 810:0 811:33.326 812:24.587999 813:0 814:0 815:25.181999 816:0 817:0 818:23.569799 819:0 820:0 821:25.3248 822:18.6493 823:0 824:0 825:26.980101 826:0 827:0 828:13.9168 829:0 830:0 831:27.555401 832:0 833:0 834:0 835:25.4809 836:17.9132 837:0 838:0 839:35.603401 840:19.2138 841:0 842:0 843:31.0203 844:0 845:0 846:18.367901 847:0 848:0 849:20.4916 850:19.2955 851:0 852:0 853:29.251801 854:3.9124999 855:0 856:0 857:3.4586999 858:12.3035 859:6.7157998 860:0 861:0 862:30.9645 863:3.2290001 864:0 865:0 866:4.0785999 867:32.582802 868:0 869:0 870:23.2379 871:20.913099 872:0 873:0 874:33.962399 875:0 876:0 877:26.589899 878:10.7134 879:0 880:7.6996999 881:26.307899 882:0 883:0 884:22.362301 885:0 886:0 887:11.6004 888:0 889:0 890:18.955799 891:0 892:0 893:17.9699 894:23.418301 895:0 896:0 897:3.7925999 898:4.395 899:0 900:0 901:11.5028 902:13.8274 903:0 904:0 905:17.4018 906:3.8531001 907:0 908:4.2126999 909:7.2646999 910:0 911:1.8644 912:12.4405 913:0 914:0 915:13.4892 916:6.9955001 917:0 918:0 919:5.8105998 920:3.2476001 921:2.2987001 922:0 923:0 924:11.3105 925:12.8843 926:0 927:0 928:19.3018 929:8.0089998 930:1.7894 931:0 932:0 933:15.8641 934:0 935:0 936:6.6362 937:10.8313 938:0 939:0.65682 940:15.3257 941:0 942:0 943:25.797899 944:0 945:0 946:10.9384 947:25.5819 948:0 949:0 950:17.7176 951:5.1949 952:0 953:2.0286 954:0 955:0 956:9.7698002 957:0 958:0 959:7.4931002 960:14.7857 961:0 962:11.7401 963:35.9165 964:0 965:0 966:38.661098 967:0 968:0 969:13.6211 970:19.3325 971:0 972:0 973:6.5688 974:0 975:8.3853998 976:2.1723001 977:0 978:8.4927998 979:23.967899 980:0 981:0 982:27.1663 983:3.1018 984:0 985:8.9441004 986:11.6886 987:0 988:1.8043 989:9.1150999 990:0 991:0 992:9.0001001 993:0 994:5.4593 995:6.2635002 996:0 997:0 998:23.424999 999:0 1000:0 1001:9.3392 1002:26.997999 1003:0 1004:0 1005:20.125 1006:11.8404 1007:0 1008:0 1009:18.247999 1010:0 1011:0 1012:19.173599 1013:3.9005001 1014:0 1015:2.8599999 1016:21.663099 1017:0 1018:0 1019:6.0451999 1020:15.3533 1021:0 1022:0 1023:0.52942997 1024:13.8334 #
3.1320746008367539e-005 1:32372.297 2:67.872803 3:335.27231 4:0 5:0 6:217.4729 7:89.912804 8:0 9:14.9898 10:91.406898 11:0 12:6.0118999 13:40.523201 14:0 15:12.0907 16:81.338402 17:0 18:0 19:78.487503 20:1.39 21:0 22:32.0797 23:15.4354 24:0 25:24.398199 26:12.8536 27:0 28:18.3452 29:33.183701 30:0 31:0 32:38.965599 33:0 34:17.274401 35:101.0058 36:0 37:0 38:55.140999 39:35.942101 40:0 41:0 42:24.1481 43:0 44:0 45:4.3386002 46:0 47:4.257 48:13.5974 49:0 50:0 51:9.1726999 52:0 53:0 54:7.9926 55:0 56:0 57:18.356199 58:0 59:0 60:11.6368 61:9.2854004 62:0 63:0 64:8.1366997 65:212.9556 66:0 67:0 68:139.8598 69:180.0394 70:0 71:0 72:144.1248 73:0 74:0 75:38.481998 76:0 77:0 78:50.7715 79:0 80:0 81:58.1497 82:33.888901 83:0 84:3.3771999 85:57.122101 86:0 87:0 88:33.288898 89:0 90:0 91:20.523001 92:0 93:0 94:19.3783 95:0 96:0 97:65.534302 98:0 99:0 100:27.064699 101:66.071404 102:0 103:0 104:27.5417 105:24.1686 106:0 107:0 108:4.0998998 109:11.4021 110:0.97442001 111:0 112:1.0678 113:8.0467997 114:0 115:0 116:9.7334995 117:0 118:0 119:18.4704 120:0.56586999 121:0 122:6.5977998 123:13.2263 124:0 125:0 126:4.6801 127:0 128:4.1939001 129:13.1331 130:0 131:0 132:13.4263 133:3.8838 134:0 135:9.4310999 136:10.4933 137:0 138:0 139:26.307899 140:0 141:0 142:21.268499 143:19.685101 144:0 145:0 146:21.7241 147:10.3001 148:0 149:0 150:10.7401 151:18.518101 152:0 153:0 154:14.6075 155:28.618299 156:0 157:0 158:29.1539 159:18.2276 160:0 161:118.3231 162:0 163:0 164:92.709297 165:88.378304 166:0 167:0 168:95.667099 169:0 170:0 171:53.255199 172:0 173:0 174:39.193699 175:10.5357 176:0 177:19.2782 178:33.568298 179:0 180:0 181:26.3344 182:0 183:0 184:8.2089996 185:0 186:4.2624998 187:21.5282 188:0 189:0 190:34.6633 191:2.4995999 192:0 193:0 194:5.7470002 195:3.608 196:0 197:6.8395 198:16.4501 199:0 200:0 201:29.0397 202:0 203:0 204:19.7237 205:25.0257 206:0 207:0 208:37.001999 209:0 210:0 211:10.7208 212:23.063601 213:0 214:0 215:4.1581001 216:6.5370998 217:7.9656 218:0 219:0 220:16.4035 221:23.6597 222:0 223:0 224:33.050098 225:0 226:41.417 227:179.20239 228:0 229:0 230:133.0816 231:37.4189 232:0 233:20.596701 234:60.295601 235:0 236:0 237:27.8351 238:0 239:3.6069 240:36.089401 241:0 242:0 243:36.98 244:0 245:0 246:9.2063999 247:2.7365999 248:0 249:12.1815 250:0 251:0 252:32.316399 253:0 254:0 255:15.6925 256:26.190901 257:0 258:13.589 259:87.426804 260:0 261:0 262:46.044701 263:39.9231 264:0 265:0 266:32.122398 267:6.5064998 268:0 269:0 270:15.2039 271:2.2053001 272:0 273:0.40419 274:18.583799 275:0 276:0 277:13.4011 278:14.2877 279:0 280:0 281:12.0943 282:0.66381001 283:0 284:0 285:0 286:6.8213 287:13.8152 288:0 289:9.6612997 290:0 291:0 292:18.243999 293:4.3786001 294:0 295:0.58850998 296:20.5725 297:0 298:0 299:0 300:14.8585 301:16.749599 302:0 303:0 304:24.233601 305:22.427601 306:0 307:0 308:23.611099 309:8.5239 310:0 311:0 312:0 313:11.8022 314:11.0928 315:0 316:0 317:32.0215 318:1.216 319:0 320:12.6063 321:25.9433 322:0 323:0 324:20.9573 325:23.4734 326:0 327:0 328:28.8979 329:3.0239 330:0 331:1.6339999 332:20.451 333:0 334:0 335:1.5197001 336:16.2281 337:0 338:0 339:2.3315001 340:13.997 341:0 342:0 343:2.9954 344:6.6900001 345:0 346:0 347:0 348:5.4583001 349:6.5337 350:0 351:0 352:12.0374 353:43.126598 354:0 355:0 356:22.7087 357:36.632401 358:0 359:0 360:22.5933 361:0 362:0 363:26.2915 364:0 365:0 366:33.794998 367:25.6903 368:0 369:0 370:47.121399 371:1.3681999 372:0 373:5.0827999 374:24.0938 375:0 376:0 377:0 378:5.0043001 379:17.4932 380:0 381:0 382:15.264 383:25.684799 384:0 385:3.1860001 386:1.0813 387:0 388:0 389:1.8543 390:7.7175999 391:0 392:0 393:0.70853001 394:15.2694 395:0 396:0 397:3.7541001 398:13.4125 399:0 400:0 401:0 402:7.2628999 403:4.6905999 404:0 405:0 406:11.1324 407:8.6908998 408:0 409:0 410:17.4212 411:0 412:0 413:9.7986002 414:8.9250002 415:0 416:0 417:0 418:3.9236 419:29.723499 420:0 421:0 422:14.131 423:13.8222 424:0 425:0 426:6.9098001 427:0 428:2.8153999 429:5.7051001 430:0 431:0 432:22.0228 433:0 434:0 435:11.0272 436:23.988001 437:0 438:0 439:16.878799 440:11.8216 441:0 442:0 443:5.7645998 444:6.9436002 445:0.96873999 446:0 447:0 448:12.9784 449:33.165001 450:0 451:0 452:11.8648 453:35.775398 454:0 455:0 456:17.2314 457:7.7979999 458:0 459:5.8181 460:0.58471 461:0 462:12.4277 463:14.2233 464:0 465:0 466:24.5704 467:0 468:0 469:4.4168 470:5.2895999 471:0 472:6.6549001 473:0 474:0 475:25.579 476:6.5373998 477:0 478:5.9604998 479:34.927601 480:0 481:48.890099 482:0 483:0 484:7.4481001 485:60.463501 486:0 487:0 488:9.0594997 489:42.049099 490:0 491:0 492:0.87020999 493:28.2236 494:3.4305 495:0 496:0 497:22.8773 498:5.2758999 499:0 500:0 501:16.636999 502:0.34254 503:0 504:0.80175 505:5.8762999 506:0.29940999 507:0 508:0 509:1.102 510:5.5082002 511:0 512:0 513:0 514:0 515:10.4517 516:7.7279 517:0 518:0 519:7.5946999 520:9.8249998 521:0 522:0 523:0 524:17.3673 525:22.0567 526:0 527:0 528:40.132599 529:26.7876 530:0 531:0 532:49.523602 533:10.8164 534:0 535:0 536:29.833599 537:9.0124998 538:0 539:0 540:14.1237 541:26.8109 542:0 543:0 544:23.5399 545:0 546:0 547:69.9188 548:9.9786997 549:0 550:0 551:65.627701 552:18.232401 553:0 554:0 555:56.2043 556:15.4138 557:0 558:0 559:37.414799 560:5.1782999 561:0 562:0 563:11.7372 564:0.5765 565:0 566:0 567:0 568:4.9945002 569:6.0976 570:0 571:0 572:5.5946999 573:0 574:0 575:6.7079 576:0 577:0 578:9.7976999 579:71.4496 580:0 581:0 582:32.1348 583:38.539902 584:0 585:0 586:21.1318 587:21.8216 588:0 589:0 590:16.7262 591:28.3787 592:0 593:0 594:38.278599 595:20.1355 596:0 597:0 598:50.550499 599:0 600:0 601:11.3678 602:35.4772 603:0 604:0 605:2.3947001 606:21.7533 607:7.4405999 608:0 609:0 610:11.6368 611:16.455601 612:0 613:0 614:46.542999 615:0 616:0 617:29.0602 618:44.438999 619:0 620:0 621:43.2192 622:13.0437 623:0 624:0.57011998 625:20.9095 626:0 627:0 628:2.3406 629:0 630:6.8937998 631:6.4875998 632:0 633:1.1584001 634:17.503799 635:0 636:0 637:20.8109 638:0 639:0 640:14.938 641:34.254799 642:0 643:0 644:4.0851002 645:37.177502 646:0 647:0 648:0 649:22.1175 650:8.0625 651:0 652:0 653:19.003099 654:4.3285999 655:0 656:4.5574002 657:9.8205004 658:0 659:0.32710001 660:19.1581 661:0 662:0 663:16.806801 664:17.6863 665:0 666:0 667:12.2138 668:18.257799 669:0 670:0 671:2.6833 672:29.8888 673:26.303699 674:0 675:0 676:9.8402004 677:30.386499 678:0 679:0 680:20.3134 681:6.5008998 682:0 683:9.0831003 684:12.2573 685:0 686:0 687:27.263901 688:0 689:0 690:21.468 691:16.147499 692:0 693:0 694:13.7934 695:4.5046 696:0 697:0 698:0 699:17.4545 700:5.8807998 701:0 702:0.44128001 703:27.9195 704:0 705:8.0455999 706:0 707:0 708:4.2302999 709:14.996 710:0 711:0 712:17.7367 713:11.1938 714:0 715:0 716:21.905399 717:0 718:0 719:6.6971002 720:4.6792002 721:0 722:3.1664 723:0 724:0 725:13.8142 726:0.8143 727:0 728:4.8178 729:11.3073 730:0 731:0 732:0 733:0 734:12.7845 735:4.0160999 736:0 737:21.2824 738:0 739:0 740:15.7233 741:22.366301 742:0 743:0 744:24.0819 745:11.3397 746:0 747:0 748:22.4984 749:10.9683 750:0 751:0 752:24.963301 753:14.0362 754:0 755:0 756:29.0613 757:10.7402 758:0 759:0 760:24.5187 761:7.2839999 762:0 763:0 764:14.4718 765:11.1253 766:0 767:0 768:8.6381998 769:6.6100001 770:0 771:0 772:7.9362001 773:0 774:0 775:6.1307001 776:3.3211 777:0 778:2.5774 779:6.9844999 780:0 781:0 782:4.7603002 783:0 784:0.26605001 785:1.2981 786:0 787:2.9372001 788:8.4568996 789:0 790:0 791:12.4145 792:2.3354001 793:0 794:1.2424001 795:6.8281999 796:0 797:0 798:0 799:0 800:12.51 801:0 802:0 803:31.3834 804:0.53628999 805:0 806:3.7941999 807:36.281799 808:0 809:0 810:21.825001 811:25.152901 812:0 813:0 814:30.682899 815:0.92232001 816:0 817:6.7438998 818:19.2348 819:0 820:0 821:2.6427 822:10.6097 823:4.9909 824:0 825:0 826:20.523001 827:12.5643 828:0 829:0 830:28.9799 831:4.8119001 832:0 833:0 834:0 835:11.9784 836:11.4704 837:0 838:0 839:21.878099 840:8.8209 841:0 842:0 843:17.612 844:0 845:0 846:10.9037 847:0 848:0 849:10.8253 850:9.0086002 851:0 852:0 853:14.3869 854:6.7711 855:0 856:0 857:9.0042 858:13.125 859:0 860:0 861:7.0565 862:17.7328 863:0 864:0 865:0 866:0.66685998 867:0 868:0 869:1.7394 870:2.0267999 871:0 872:0 873:7.2828002 874:0 875:0 876:5.9389 877:7.8934999 878:0 879:0 880:10.1674 881:0 882:0 883:2.7183001 884:2.0451 885:0 886:3.2502999 887:0 888:0 889:11.115 890:1.0638 891:0 892:7.7603998 893:16.682501 894:0 895:0 896:24.597601 897:0 898:10.0034 899:29.046 900:0 901:0 902:33.990601 903:0.26082 904:0 905:11.6654 906:19.4744 907:0 908:0 909:11.4948 910:0 911:0 912:11.8639 913:0 914:0 915:13.511 916:9.0727997 917:0 918:0 919:10.0951 920:6.9818001 921:0 922:0 923:0 924:15.3427 925:2.0359001 926:0 927:0 928:21.8389 929:0 930:9.2187996 931:22.2829 932:0 933:0 934:25.0478 935:0 936:0 937:13.9541 938:0 939:0 940:13.2453 941:0 942:0 943:17.759001 944:11.8334 945:0 946:0 947:22.2173 948:0 949:0 950:3.6775 951:2.2351 952:3.6012001 953:3.1587 954:0 955:0 956:16.9839 957:0 958:0 959:5.4903002 960:5.2396002 961:5.5992999 962:3.7906001 963:0 964:0 965:18.3547 966:5.6285 967:0 968:3.3489001 969:21.1614 970:0 971:0 972:17.104099 973:0 974:0 975:17.8701 976:0 977:0 978:17.449699 979:13.5338 980:0 981:0.41299 982:23.900299 983:0 984:0 985:17.517799 986:0 987:0 988:12.7899 989:0 990:0 991:10.9112 992:5.2388 993:17.8981 994:0 995:0 996:5.6496 997:14.6888 998:0 999:0 1000:0 1001:2.2820001 1002:15.2727 1003:0 1004:0 1005:10.9078 1006:27.379801 1007:0 1008:0 1009:24.4715 1010:14.3668 1011:0 1012:0 1013:15.2671 1014:0 1015:0 1016:2.7551 1017:0 1018:2.2305 1019:14.6474 1020:0 1021:0 1022:14.9261 1023:10.4705 1024:0 #
-1.6507362678634761e-006 1:32351.844 2:118.7964 3:317.73669 4:0 5:0 6:282.02679 7:0 8:0 9:123.0381 10:1.1885999 11:0 12:56.955799 13:0 14:0 15:88.1595 16:0 17:0 18:92.963898 19:0 20:0 21:58.486599 22:0 23:0 24:51.0732 25:0 26:0 27:63.2332 28:0 29:0 30:49.626801 31:7.9313002 32:0 33:0 34:35.396099 35:109.0523 36:0 37:0 38:91.191299 39:0 40:0 41:29.283199 42:16.6497 43:0 44:6.4980998 45:0 46:0 47:16.8964 48:0 49:0 50:13.7851 51:5.7519002 52:0 53:1.0712 54:3.6684999 55:0 56:2.9291999 57:0 58:0 59:7.2983999 60:3.9749 61:0 62:0 63:10.0811 64:0 65:193.29311 66:0 67:0 68:191.576 69:70.534599 70:0 71:50.057098 72:94.121902 73:0 74:2.9238 75:25.0109 76:0 77:43.109299 78:0 79:0 80:61.698299 81:20.2341 82:0 83:32.770401 84:35.761299 85:0 86:15.1666 87:18.314301 88:0 89:26.1835 90:11.2486 91:0 92:27.214399 93:26.4464 94:0 95:7.7828999 96:32.243 97:33.048199 98:0 99:0 100:21.308701 101:30.843 102:0 103:0 104:28.680099 105:10.821 106:0 107:0 108:25.6404 109:0 110:0 111:17.2864 112:0 113:0 114:13.2409 115:0 116:0 117:19.639 118:0 119:0 120:24.3167 121:0 122:0 123:24.2362 124:0 125:0 126:22.4445 127:0 128:0 129:18.1549 130:0 131:0 132:19.048 133:5.5711999 134:0 135:8.8591003 136:11.2617 137:0 138:2.1635001 139:15.8795 140:0 141:0 142:20.3804 143:0 144:0 145:13.4215 146:8.5650997 147:0 148:2.7033999 149:6.8801999 150:0 151:6.3527002 152:0 153:0 154:15.6789 155:8.0466003 156:0 157:7.3938999 158:22.764 159:0 160:0 161:161.59979 162:0 163:0 164:162.29379 165:56.103802 166:0 167:52.818501 168:77.340202 169:0 170:19.231899 171:37.933102 172:0 173:36.682201 174:33.3382 175:0 176:26.5247 177:51.546001 178:0 179:2.5028 180:40.641701 181:0 182:9.1313 183:22.3869 184:0 185:21.3337 186:33.533401 187:0 188:5.3488002 189:46.1087 190:0 191:0 192:31.8932 193:53.214901 194:0 195:0 196:41.243999 197:41.9841 198:0 199:0 200:43.066898 201:0 202:0 203:12.4852 204:2.4487 205:0 206:4.0931001 207:0 208:1.8629 209:12.5303 210:0 211:0 212:6.4273 213:0 214:2.8971 215:0 216:0 217:16.9046 218:0 219:0 220:14.7716 221:11.9456 222:0 223:4.1104002 224:13.3498 225:0 226:31.7906 227:72.790497 228:0 229:0 230:63.463699 231:0 232:0 233:30.4144 234:0 235:0.77029002 236:23.307501 237:0 238:0 239:37.676399 240:0 241:0 242:33.6782 243:0 244:0 245:7.0576 246:11.7033 247:0 248:0 249:0 250:11.5786 251:0 252:0 253:6.9726 254:6.3406 255:0 256:1.3346 257:0 258:15.0732 259:51.196602 260:0 261:0 262:45.655499 263:1.8894 264:0 265:14.4505 266:19.6308 267:0 268:0 269:11.5154 270:0 271:0 272:3.0822001 273:0 274:0.55992001 275:5.6093001 276:0 277:0 278:9.1419001 279:1.5308 280:0 281:4.2354002 282:10.6079 283:0 284:0 285:12.4099 286:0 287:0 288:5.8804998 289:0 290:20.6877 291:69.213203 292:0 293:0 294:66.300697 295:0 296:0 297:35.860199 298:16.223 299:0 300:16.113899 301:18.145 302:0 303:5.7458 304:13.7714 305:0 306:2.6110001 307:0 308:0 309:20.9319 310:0 311:0 312:43.7729 313:0 314:0 315:34.5112 316:20.928699 317:0 318:6.6522002 319:21.0315 320:0 321:0 322:7.7140999 323:50.792198 324:0 325:0 326:25.9011 327:20.882 328:0 329:0 330:3.5276999 331:9.6982002 332:9.5777998 333:0 334:0 335:32.704899 336:0 337:0 338:13.8007 339:11.5589 340:0 341:1.9681 342:0 343:3.5573001 344:30.4319 345:0 346:0 347:44.497898 348:5.1689 349:0 350:14.8309 351:22.547199 352:0 353:39.778198 354:0 355:0 356:47.040199 357:10.7563 358:0 359:22.2834 360:33.4674 361:0 362:0 363:34.3339 364:0 365:0 366:15.2508 367:2.0855 368:0 369:0 370:0 371:11.7608 372:4.8936 373:0 374:8.4349003 375:22.3375 376:0 377:0 378:27.6679 379:0 380:0 381:15.9129 382:4.8097 383:0 384:4.0883999 385:6.0718999 386:8.2154999 387:0 388:0 389:32.953201 390:8.5185003 391:0 392:6.8459001 393:35.161999 394:0 395:0 396:11.3145 397:17.164801 398:0 399:0 400:3.7855999 401:23.596399 402:0 403:0 404:13.8703 405:9.2413998 406:0 407:0 408:0 409:5.7384 410:7.0524001 411:0 412:0 413:15.2429 414:2.3584001 415:0 416:0 417:0 418:22.556801 419:62.136902 420:0 421:0 422:59.711102 423:0 424:0 425:24.8256 426:18.150499 427:0 428:0 429:12.7046 430:1.2853 431:0 432:0 433:5.7384 434:3.161 435:0 436:0 437:6.8765998 438:0 439:0 440:6.0697999 441:1.5611 442:0 443:5.6731 444:8.0843 445:0 446:0 447:17.4132 448:0 449:0 450:1.3418 451:45.667301 452:0 453:0 454:17.997299 455:45.9646 456:0 457:0 458:37.004002 459:21.273001 460:0 461:0 462:26.154301 463:9.3787003 464:0 465:0 466:22.2257 467:14.224 468:0 469:0 470:31.6084 471:0 472:0 473:11.7182 474:14.1572 475:0 476:0 477:2.2848001 478:0 479:8.4809999 480:0 481:15.8643 482:1.1221 483:0 484:0 485:29.836 486:0 487:0 488:15.5458 489:26.604401 490:0 491:0 492:25.5804 493:0 494:0 495:14.5692 496:0 497:0 498:22.4018 499:0 500:0 501:23.6989 502:10.2027 503:0 504:0 505:18.8624 506:0 507:0 508:0 509:16.7747 510:5.7716999 511:0 512:1.2525001 513:75.6408 514:0 515:0 516:38.494099 517:84.509102 518:0 519:0 520:61.033001 521:46.839298 522:0 523:0 524:59.816601 525:12.2297 526:0 527:0 528:35.397999 529:0.30439001 530:0 531:0 532:21.988199 533:10.167 534:0 535:0 536:27.3437 537:0 538:0 539:4.2542 540:11.026 541:1.7341 542:0 543:0 544:15.2256 545:86.371696 546:0 547:0 548:91.159203 549:28.694799 550:0 551:29.256599 552:51.375198 553:0 554:0 555:25.5347 556:0 557:6.5767999 558:0 559:0 560:26.081301 561:7.5718999 562:0 563:15.1886 564:28.4877 565:0 566:0 567:23.204 568:0 569:0 570:0 571:0.74950999 572:10.0833 573:0 574:0 575:12.6422 576:15.5773 577:0.4736 578:0 579:8.9533997 580:23.245199 581:0 582:0 583:52.668598 584:0 585:0 586:36.473202 587:38.4673 588:0 589:0 590:48.946499 591:0 592:0 593:22.3402 594:6.1486001 595:0 596:1.1611 597:0 598:5.2961001 599:4.2416 600:0 601:3.2718999 602:13.5259 603:0 604:0 605:11.2554 606:0 607:0 608:2.3857999 609:0 610:13.9362 611:37.259998 612:0 613:0 614:27.2334 615:0 616:0 617:0.34022 618:5.1208 619:7.9628 620:0 621:0 622:19.7577 623:0 624:0 625:16.037399 626:3.3325 627:0 628:8.6767998 629:3.8352001 630:0 631:5.2870002 632:0 633:0 634:7.8221002 635:0 636:0 637:11.3636 638:0 639:0 640:7.2220998 641:0 642:3.8401999 643:10.661 644:0 645:0 646:5.0935001 647:0 648:2.7038 649:4.1936998 650:0 651:0 652:15.0313 653:0 654:0 655:10.2938 656:19.233601 657:0 658:0 659:25.609501 660:9.7395 661:0 662:0.99795997 663:24.955 664:0 665:0 666:6.8678002 667:8.4143 668:0.55113 669:0 670:0 671:17.2178 672:1.6796 673:0 674:10.5546 675:55.9109 676:0 677:0 678:43.194599 679:19.6572 680:0 681:1.516 682:27.665199 683:0 684:0 685:0.67948997 686:0 687:16.426399 688:0 689:0 690:23.1406 691:17.337601 692:0 693:0 694:26.6542 695:0 696:0 697:5.1097999 698:3.9872999 699:6.5005002 700:0 701:0 702:19.1147 703:6.5553002 704:0 705:0 706:11.9547 707:58.985298 708:0 709:0 710:52.454399 711:19.951799 712:0 713:5.3986001 714:43.225899 715:0 716:0 717:14.2735 718:14.3389 719:0 720:0 721:0.40751001 722:32.332401 723:0 724:0 725:29.3643 726:17.5585 727:0 728:0.90389001 729:20.010201 730:0 731:0 732:0 733:0.84144002 734:17.1476 735:0 736:0 737:5.2441001 738:0 739:0 740:4.7122998 741:2.4226999 742:0 743:0 744:1.0939 745:4.0146999 746:0 747:0 748:5.0749998 749:10.0383 750:0 751:0 752:15.6347 753:5.3987002 754:0 755:0 756:20.5429 757:0 758:0 759:8.9131002 760:19.1238 761:0 762:0 763:15.6287 764:8.2691002 765:0 766:0 767:10.0256 768:3.9228001 769:0 770:10.8341 771:0 772:0 773:28.961399 774:5.0067 775:0 776:24.0298 777:31.5837 778:0 779:0 780:41.617298 781:0 782:0 783:14.2221 784:14.7427 785:0 786:0 787:0.99215001 788:29.2568 789:0 790:0 791:26.571501 792:23.142 793:0 794:0 795:30.437901 796:0 797:0 798:6.0549002 799:7.1792002 800:1.7383 801:0 802:15.3922 803:0 804:0 805:32.888401 806:16.034401 807:0 808:15.7874 809:37.582901 810:0 811:0 812:28.148701 813:0 814:0 815:12.1775 816:0 817:5.5542998 818:17.2778 819:0 820:0 821:20.083401 822:0 823:0 824:0.50366998 825:6.9400001 826:7.4435 827:0 828:0 829:20.956301 830:4.5797 831:0 832:6.2315998 833:32.353699 834:0 835:0 836:21.8867 837:25.7941 838:0 839:0 840:18.538099 841:0 842:0 843:0.53811997 844:0 845:6.6492 846:9.6877003 847:0 848:0 849:16.289 850:5.8009 851:0 852:0 853:18.5117 854:11.4551 855:0 856:0 857:35.517399 858:0 859:0 860:18.260201 861:23.9993 862:0 863:0 864:16.2388 865:17.033501 866:0 867:0 868:20.505301 869:0 870:0 871:13.1396 872:1.8884 873:0 874:8.7495003 875:0 876:0 877:10.6516 878:0 879:0 880:11.0673 881:2.7539001 882:0 883:3.1921999 884:6.8801999 885:0 886:0 887:0 888:8.1556997 889:2.0374 890:0 891:4.7076998 892:17.075199 893:0 894:0 895:21.351999 896:0 897:2.1552 898:0 899:2.7155001 900:9.7398005 901:0 902:0 903:16.3773 904:0 905:0 906:8.4176998 907:0 908:0.55409002 909:0 910:0 911:11.3536 912:7.6061001 913:0 914:3.5658 915:20.560101 916:0 917:0 918:13.9685 919:4.6030002 920:0 921:0 922:5.0177999 923:10.3998 924:0 925:0 926:14.8691 927:6.6812 928:0 929:44.197498 930:0 931:0 932:52.530399 933:0.87132001 934:0 935:30.184 936:14.2521 937:0 938:9.6894999 939:12.027 940:0 941:0 942:0 943:8.0594997 944:8.7405996 945:0 946:7.7663999 947:31.461901 948:0 949:0 950:45.672298 951:0 952:0 953:32.009201 954:12.2652 955:0 956:5.3449001 957:15.5254 958:0 959:0 960:0 961:39.182899 962:0 963:0 964:45.435799 965:7.9449 966:0 967:23.009399 968:23.0147 969:0 970:4.4751 971:22.0145 972:0 973:0 974:12.8314 975:0 976:1.3026 977:6.0174999 978:0 979:5.2919998 980:3.2725999 981:0 982:8.0936003 983:2.3975999 984:0 985:10.8432 986:4.1912999 987:0 988:9.8696003 989:10.7896 990:0 991:1.6833 992:14.633 993:0 994:5.1009002 995:4.6911998 996:0 997:5.8741999 998:0 999:0 1000:17.354401 1001:0 1002:0 1003:30.515699 1004:0 1005:0 1006:35.3582 1007:0 1008:0 1009:39.773201 1010:0 1011:0 1012:47.050098 1013:0 1014:0 1015:41.789501 1016:18.6285 1017:0 1018:17.883101 1019:30.8188 1020:0 1021:0 1022:18.521601 1023:0 1024:4.6549001 #
-2.6339366972345747e-006 1:32406.867 2:87.906303 3:266.9166 4:0 5:0 6:229.7715 7:0 8:0 9:90.433296 10:23.7337 11:0 12:45.924099 13:0 14:0 15:79.332901 16:0 17:0 18:74.344101 19:17.664101 20:0 21:34.792999 22:27.3827 23:0 24:22.9746 25:13.0372 26:0 27:29.4303 28:16.320801 29:0 30:21.183901 31:26.844299 32:0 33:0 34:8.6541996 35:43.200802 36:0 37:0 38:31.051399 39:15.0072 40:0 41:0 42:22.099501 43:0 44:0 45:9.1365004 46:1.2970001 47:0 48:3.7472 49:0 50:0 51:3.4447 52:1.4962 53:0 54:0.57323998 55:1.2998 56:0 57:0.95375001 58:0 59:0 60:3.4096 61:0.35209 62:0 63:1.0893 64:2.7295001 65:210.94279 66:0 67:0 68:194.41389 69:104.5659 70:0 71:25.101101 72:122.0307 73:0 74:0 75:40.7985 76:0 77:33.9594 78:23.576 79:0 80:36.0765 81:66.2658 82:0 83:0 84:74.267799 85:0 86:0 87:45.4492 88:0 89:0 90:32.0709 91:0 92:0 93:34.945301 94:0 95:0 96:31.983999 97:21.563999 98:0.37268999 99:0 100:2.8412001 101:38.293999 102:0 103:0 104:28.213499 105:22.8339 106:0 107:0 108:29.4988 109:0 110:0 111:20.603001 112:0 113:0 114:17.8493 115:0 116:0 117:11.8779 118:3.5915999 119:0 120:4.4664001 121:0 122:0 123:9.4153996 124:0 125:0 126:14.7091 127:3.2098999 128:0 129:0 130:2.5689001 131:2.5125 132:0 133:2.7835 134:0 135:0 136:10.1798 137:0 138:0 139:22.8403 140:0 141:0 142:23.5343 143:16.452999 144:0 145:2.9539001 146:31.408501 147:0 148:0 149:19.723101 150:4.7927999 151:0 152:0 153:4.5127001 154:10.0962 155:0 156:0 157:18.541201 158:7.4524002 159:0 160:8.4371004 161:84.706596 162:0 163:0 164:89.619301 165:28.122101 166:0 167:32.583401 168:50.126202 169:0 170:3.2081001 171:33.944801 172:0 173:7.1016998 174:23.309999 175:0 176:8.1861 177:32.2668 178:0 179:0 180:35.113098 181:0 182:0 183:20.695 184:0 185:0 186:11.8838 187:0 188:1.9204 189:21.7817 190:0 191:0 192:31.407 193:0 194:25.9189 195:81.815498 196:0 197:0 198:72.556602 199:0 200:0 201:37.833099 202:4.8367 203:0 204:30.23 205:5.0267 206:0 207:27.2353 208:24.317801 209:0 210:2.0256 211:34.0439 212:0 213:0 214:13.1502 215:0 216:6.8462 217:0.95210999 218:0 219:18.9545 220:22.792601 221:0 222:0 223:43.0126 224:0 225:0 226:45.788601 227:146.3315 228:0 229:0 230:125.8726 231:0 232:0 233:43.702702 234:27.4403 235:0 236:11.5968 237:0 238:0 239:30.3293 240:0 241:0 242:34.023102 243:12.6636 244:0 245:10.5856 246:24.2377 247:0 248:0 249:12.2004 250:0 251:0.67585999 252:0 253:0 254:12.1641 255:0 256:0 257:19.475401 258:0 259:0 260:19.925501 261:4.5423999 262:0 263:10.6482 264:4.0065999 265:0 266:14.4209 267:4.2486 268:0 269:15.3322 270:22.2057 271:0 272:0 273:37.6185 274:0 275:0 276:22.6343 277:12.3504 278:0 279:0 280:5.7651 281:2.1966 282:5.7419 283:0 284:0 285:26.4505 286:0 287:0 288:18.101101 289:46.1782 290:0 291:0 292:35.7882 293:34.6991 294:0 295:0 296:34.049301 297:0.22086 298:0 299:0.59187001 300:12.5242 301:4.5214 302:0 303:0 304:15.7431 305:7.5848999 306:0 307:0 308:22.278799 309:0 310:0 311:8.0277004 312:22.566401 313:0 314:0 315:23.7236 316:10.3021 317:0 318:2.2767999 319:25.289801 320:0 321:19.415001 322:0 323:0 324:14.3207 325:16.372499 326:0 327:0 328:18.674801 329:0 330:0 331:12.4203 332:5.5609999 333:0 334:2.7983999 335:16.1549 336:0 337:0 338:13.5429 339:10.7137 340:0 341:0 342:14.7512 343:8.3824997 344:0 345:0 346:15.7163 347:10.3983 348:0 349:0 350:20.989201 351:7.2799001 352:0 353:28.478701 354:0 355:0 356:21.1719 357:20.1054 358:0 359:0 360:16.976101 361:0 362:0 363:11.8794 364:0 365:0 366:22.301901 367:0 368:0 369:15.8859 370:11.7437 371:0 372:0 373:6.1598001 374:12.0227 375:0 376:0 377:9.5966997 378:28.957199 379:0 380:0 381:37.933601 382:3.9266 383:0 384:15.7734 385:0 386:7.3579001 387:24.4484 388:0 389:0 390:20.105101 391:0 392:0 393:12.3101 394:0 395:0 396:12.51 397:4.7375002 398:0 399:4.1008 400:13.8785 401:0 402:0 403:5.5777001 404:3.3211 405:1.8776 406:0 407:0 408:14.0245 409:9.3710003 410:0 411:0 412:29.0518 413:0 414:0 415:14.5127 416:22.0313 417:0 418:0 419:33.903999 420:0 421:0 422:8.1925001 423:31.022499 424:0 425:0 426:12.5738 427:9.6906004 428:0 429:0 430:0 431:10.7194 432:14.8977 433:0 434:0 435:24.4347 436:0.79201001 437:0 438:4.2234998 439:5.7642999 440:1.7153 441:2.2398 442:0 443:1.7234 444:25.089001 445:0 446:0 447:28.1276 448:8.4474001 449:39.289398 450:0 451:0 452:35.3862 453:20.887199 454:0 455:3.8503001 456:23.439199 457:0 458:0 459:10.7318 460:0 461:4.3903999 462:13.8311 463:0 464:0 465:20.223101 466:0 467:0 468:9.2444 469:1.5544 470:0 471:2.6754 472:0 473:3.4296 474:19.7188 475:0 476:0 477:27.473301 478:9.6387997 479:0 480:0.73163998 481:10.7654 482:5.4043999 483:0 484:0 485:32.836399 486:4.5177002 487:0 488:9.3415003 489:35.877701 490:0 491:0 492:20.407499 493:10.4401 494:0 495:0 496:2.1073999 497:13.7221 498:0 499:0 500:9.5703001 501:17.5322 502:0 503:0 504:17.0009 505:0 506:0 507:11.3844 508:0 509:0 510:18.3591 511:0 512:0 513:0 514:14.1216 515:62.2481 516:0 517:0 518:41.850899 519:17.9189 520:0 521:0 522:18.5639 523:5.3530998 524:0 525:0 526:7.8260002 527:17.0975 528:0 529:0 530:15.2699 531:7.7751999 532:0 533:0 534:0.52274001 535:6.6329999 536:8.2805004 537:0 538:0 539:29.690399 540:0.85235 541:0 542:11.3124 543:32.239899 544:0 545:0 546:7.9551001 547:52.041199 548:0 549:0 550:30.6504 551:31.491501 552:0 553:0 554:32.445499 555:13.8175 556:0 557:0 558:26.930401 559:6.8098001 560:0 561:0 562:23.680099 563:2.0469 564:0 565:0 566:19.0175 567:0 568:0 569:0.96837997 570:13.9463 571:0 572:0 573:0 574:12.998 575:1.4862 576:0 577:8.2412004 578:6.2447 579:0 580:0 581:30.6077 582:10.9276 583:0 584:2.4890001 585:45.611801 586:0 587:0 588:30.197701 589:20.635201 590:0 591:0 592:21.562901 593:0 594:0 595:2.6217999 596:0 597:3.8413 598:4.9338999 599:0 600:0 601:15.6031 602:0 603:0 604:4.7744999 605:15.2465 606:0 607:0 608:8.1625004 609:50.9939 610:0 611:0 612:37.759899 613:41.078701 614:0 615:0 616:37.9188 617:9.9152002 618:0 619:0 620:27.181101 621:11.5839 622:0 623:0 624:37.310101 625:0 626:0 627:17.802099 628:19.439899 629:0 630:0 631:8.4631996 632:1.2652 633:4.9691 634:0 635:0 636:23.6031 637:2.6808 638:0 639:12.6223 640:26.9601 641:34.895901 642:0 643:0 644:50.525398 645:0 646:0 647:38.808399 648:27.2591 649:0 650:7.0265999 651:43.495201 652:0 653:0 654:32.872101 655:0 656:0 657:16.499701 658:1.3629 659:0 660:7.5457001 661:2.7546999 662:0 663:1.7165999 664:0 665:1.4455 666:2.3174 667:0 668:1.8765 669:9.6477003 670:0 671:0 672:11.436 673:0 674:7.2484002 675:24.7295 676:0 677:0 678:14.7783 679:3.4835999 680:0 681:0 682:1.8602 683:11.7154 684:0 685:0 686:19.400801 687:5.2339001 688:0 689:12.2662 690:21.1674 691:0 692:0 693:27.6702 694:0 695:0 696:15.4397 697:1.5019 698:0 699:2.3110001 700:0 701:8.1478996 702:14.8877 703:0 704:0 705:0 706:7.8969002 707:14.1083 708:0 709:1.2482001 710:16.521601 711:0 712:0 713:19.8207 714:0 715:0 716:22.967501 717:0 718:0 719:13.3738 720:16.2675 721:0 722:0 723:18.329 724:2.3685999 725:0 726:0 727:13.5816 728:0.70446998 729:0 730:0.34483001 731:13.7138 732:0 733:0 734:4.1932998 735:9.1883001 736:0 737:9.4834995 738:0 739:0 740:12.7598 741:0 742:0 743:15.5454 744:0 745:0 746:17.002501 747:1.5243 748:0 749:7.7277002 750:4.5251999 751:0 752:6.2161999 753:0 754:0 755:22.0079 756:0 757:0 758:19.2642 759:21.385099 760:0 761:0 762:22.884399 763:5.3857999 764:0 765:0 766:10.0037 767:20.150801 768:0 769:0 770:7.7403002 771:28.279301 772:0 773:0 774:30.475 775:8.441 776:0 777:2.1777 778:32.8339 779:0 780:0 781:14.9681 782:25.7055 783:0 784:0 785:19.881599 786:18.6063 787:0 788:0 789:20.7812 790:9.1090002 791:0 792:0 793:12.5702 794:5.2793002 795:0 796:0 797:5.5065999 798:12.6642 799:0 800:0 801:0 802:12.3856 803:29.763399 804:0 805:0 806:28.7117 807:0 808:0 809:20.331499 810:0 811:0 812:13.72 813:1.228 814:0 815:3.9981 816:1.475 817:1.3621 818:2.0046 819:0 820:4.2435999 821:18.061899 822:0 823:0 824:25.082701 825:5.6898999 826:0 827:2.5232 828:19.9177 829:0 830:0 831:0 832:13.5199 833:8.5894003 834:0 835:0 836:4.3706002 837:17.464899 838:0 839:0 840:23.4506 841:13.1824 842:0 843:0 844:36.452099 845:0 846:0 847:17.9228 848:25.578699 849:0 850:0 851:19.010099 852:13.52 853:0 854:0 855:13.0675 856:12.5771 857:0 858:0 859:12.7367 860:11.1808 861:0 862:0 863:11.8331 864:7.6037002 865:19.0833 866:0 867:0 868:11.2593 869:18.3507 870:0 871:0 872:13.3317 873:6.704 874:0 875:0 876:8.4181004 877:2.0453 878:0 879:0 880:3.4784 881:0 882:0.80034 883:1.9671 884:0 885:0.34746 886:9.3934002 887:0 888:0 889:8.3352003 890:9.8779001 891:0 892:0 893:11.7734 894:7.4355998 895:0 896:0 897:17.2969 898:0 899:0 900:21.8764 901:0 902:0 903:17.1502 904:6.8622999 905:0 906:10.7877 907:16.390499 908:0 909:0 910:23.6336 911:0 912:0 913:14.7435 914:10.4438 915:0 916:0 917:13.5185 918:7.5218 919:0 920:0 921:20.440001 922:2.1991 923:0 924:6.1854 925:21.6243 926:0 927:0 928:17.058399 929:16.9977 930:0 931:0 932:27.167801 933:0 934:0 935:22.716801 936:15.1885 937:0 938:2.2128999 939:24.050699 940:0 941:0 942:11.0003 943:0 944:0 945:1.8897001 946:0 947:5.8882999 948:12.7205 949:0 950:0 951:18.245001 952:0 953:0 954:3.3803 955:6.2919002 956:1.5311 957:0 958:0 959:8.6843004 960:14.1847 961:4.8526001 962:0 963:0 964:0.63577002 965:6.0998001 966:0 967:0 968:0.70091999 969:6.5205998 970:0 971:0 972:4.9484 973:5.0068002 974:0 975:0 976:11.006 977:0 978:0 979:14.9695 980:4.9821 981:0 982:3.3264 983:23.183201 984:0 985:0 986:19.501101 987:15.3846 988:0 989:0 990:23.123899 991:4.5917001 992:0 993:0 994:5.8091998 995:12.7884 996:0 997:0 998:18.490101 999:0 1000:0 1001:8.9954004 1002:10.8856 1003:0 1004:0 1005:4.5383 1006:8.5719004 1007:0 1008:0 1009:2.3238001 1010:17.593 1011:0 1012:0 1013:13.174 1014:12.4735 1015:0 1016:0 1017:10.581 1018:1.9701999 1019:0 1020:0 1021:0 1022:11.8951 1023:0 1024:0 #
8.7267867681581346e-006 1:32379.141 2:84.217003 3:311.647 4:0 5:0 6:244.9657 7:15.5229 8:0 9:81.377502 10:64.3843 11:0 12:31.6682 13:37.6367 14:0 15:27.239901 16:39.391201 17:0 18:10.5965 19:39.7519 20:0 21:2.6688001 22:36.3283 23:0 24:0 25:38.046902 26:0 27:0 28:34.703098 29:0 30:0 31:27.136101 32:0 33:0 34:9.2053003 35:98.129501 36:0 37:0 38:44.099998 39:59.803101 40:0 41:0 42:47.607899 43:0 44:0 45:24.1486 46:0 47:0 48:23.712099 49:6.6367998 50:0 51:14.1297 52:15.8188 53:0 54:6.1633 55:16.6481 56:0 57:2.8232999 58:20.096701 59:0 60:0 61:23.4709 62:0 63:0 64:26.427 65:185.43629 66:0 67:0 68:169.332 69:100.2652 70:0 71:18.5042 72:124.1976 73:0 74:0 75:69.653603 76:0 77:0 78:58.071201 79:0 80:0 81:65.419197 82:0 83:0 84:47.119801 85:0 86:0 87:32.158699 88:0 89:0 90:31.8137 91:0 92:0 93:29.9429 94:3.4058001 95:0 96:22.653799 97:18.884501 98:13.0984 99:0 100:0 101:63.512798 102:16.2292 103:0 104:13.5959 105:66.201698 106:0 107:0 108:39.029499 109:0 110:0 111:20.6038 112:0 113:0 114:40.216999 115:0 116:0 117:49.793598 118:0 119:0 120:38.136501 121:11.7174 122:0 123:22.148001 124:19.091 125:0 126:14.318 127:17.9884 128:0 129:19.0935 130:0.79075003 131:0 132:1.0075001 133:30.922701 134:0 135:0 136:21.0308 137:11.8784 138:0 139:8.6721001 140:21.6066 141:0 142:0 143:29.0826 144:0 145:0 146:12.8777 147:5.5507002 148:0 149:2.1903 150:0 151:2.5248001 152:19.232201 153:0 154:0 155:27.8538 156:0.40182999 157:0 158:17.1012 159:15.826 160:0 161:162.22321 162:0 163:0 164:144.0932 165:96.619202 166:0 167:6.7950001 168:127.3915 169:0 170:0 171:83.530197 172:0 173:0 174:25.8148 175:18.4473 176:0 177:0 178:0 179:17.1514 180:22.714899 181:0 182:0 183:50.48 184:0 185:0 186:34.447601 187:15.7909 188:0 189:5.4837999 190:20.562 191:0 192:0 193:39.945301 194:0.28426999 195:0 196:1.6077 197:56.619301 198:0 199:0 200:17.693399 201:34.0382 202:0 203:0 204:17.179899 205:0 206:0 207:19.4608 208:0 209:0 210:31.079 211:1.6183 212:0 213:12.9201 214:20.807199 215:0 216:0 217:14.5681 218:0 219:0 220:1.6295 221:0 222:6.4713001 223:0.44213 224:0 225:0 226:40.3894 227:125.6024 228:0 229:0 230:126.2312 231:0 232:0 233:50.580399 234:58.091 235:0 236:0 237:40.244099 238:0 239:0 240:0 241:0 242:16.7784 243:0 244:0 245:18.049801 246:22.593599 247:0 248:0 249:34.429901 250:0 251:0 252:25.2733 253:5.0928001 254:0 255:8.4176998 256:12.798 257:0 258:12.144 259:107.3328 260:0 261:0 262:46.2421 263:57.850201 264:0 265:0 266:33.445099 267:3.46 268:0 269:6.8403001 270:0 271:0 272:25.2822 273:0 274:0 275:23.352501 276:11.645 277:0 278:5.1531 279:15.6468 280:0 281:1.0132 282:11.118 283:0 284:2.9986999 285:12.5179 286:0 287:1.9412 288:20.990101 289:0 290:2.8116 291:51.351101 292:0 293:0 294:5.8084998 295:26.6474 296:0 297:0 298:0 299:6.0844998 300:17.4533 301:0 302:0 303:3.858 304:23.0889 305:0 306:0 307:7.6198001 308:12.3437 309:0 310:0 311:5.3337998 312:0 313:0 314:7.1296 315:0 316:0 317:9.5496998 318:6.6452999 319:0 320:0 321:8.3291998 322:0 323:0 324:8.6225004 325:0.56467003 326:0 327:3.1029 328:0 329:3.4256999 330:21.7117 331:0 332:0 333:40.255501 334:18.275499 335:0 336:0 337:56.0116 338:0 339:0 340:22.8078 341:30.2458 342:0 343:0 344:14.4327 345:11.7823 346:0 347:0 348:5.0046 349:18.4284 350:0 351:0 352:17.7675 353:39.430302 354:0 355:0 356:29.9531 357:26.6113 358:0 359:0 360:18.8885 361:0 362:1.8637 363:1.3197 364:0 365:14.1539 366:20.986099 367:0 368:0 369:37.329399 370:0 371:0 372:20.673599 373:16.086399 374:0 375:0.28658 376:22.263 377:0 378:0 379:14.25 380:11.0707 381:0 382:0 383:12.1578 384:12.844 385:0 386:2.8736 387:10.9688 388:0 389:0 390:0 391:0 392:21.4939 393:0 394:0 395:22.994699 396:35.150101 397:0 398:0 399:51.9505 400:4.0177999 401:0 402:9.0965004 403:35.967701 404:0 405:0 406:3.8381 407:24.973801 408:2.5838001 409:0 410:0 411:40.765598 412:0 413:0 414:26.2369 415:28.5609 416:0 417:0 418:6.3555999 419:43.602901 420:0 421:0 422:20.2887 423:23.8965 424:0 425:0 426:6.5243001 427:16.9475 428:3.2572999 429:0 430:0 431:34.747299 432:2.3501999 433:0 434:9.5703001 435:39.3694 436:0 437:0 438:29.6425 439:12.3336 440:0 441:0.60127002 442:21.1056 443:0 444:0 445:5.2042999 446:11.3299 447:0 448:0 449:20.487499 450:0 451:0 452:0.79250002 453:18.5576 454:3.7221999 455:0 456:0 457:8.3711004 458:18.2323 459:0 460:0 461:11.9392 462:19.4674 463:0 464:0 465:13.1108 466:13.9871 467:0 468:0 469:17.2659 470:11.8958 471:0 472:0 473:29.0361 474:0 475:0 476:14.033 477:20.5933 478:0 479:0 480:17.4107 481:52.218601 482:0 483:0 484:4.0896001 485:69.920403 486:0 487:0 488:15.7461 489:45.032001 490:0 491:0 492:10.0945 493:14.6445 494:0.24769001 495:0 496:0 497:15.5869 498:6.4018998 499:0 500:2.7372999 501:19.4765 502:0 503:0 504:17.6357 505:0 506:0 507:9.2244997 508:1.4960999 509:0 510:7.7958999 511:0 512:0 513:33.263 514:0 515:0 516:17.2206 517:30.6348 518:0 519:0 520:17.6467 521:7.9443002 522:0 523:0 524:8.0227003 525:2.7992001 526:0 527:0 528:10.9792 529:0 530:0 531:12.0938 532:7.1735001 533:0 534:2.2362001 535:17.054701 536:0 537:0 538:19.208401 539:0 540:0 541:12.4442 542:12.7551 543:0 544:0 545:6.368 546:0 547:0 548:22.172001 549:0 550:0 551:23.691299 552:15.3174 553:0 554:0 555:22.7059 556:0 557:0 558:5.6883998 559:3.6277001 560:0 561:0 562:0 563:0 564:0 565:2.4898 566:5.1440001 567:0 568:0 569:15.5579 570:1.7454 571:0 572:6.6887002 573:18.7642 574:0 575:0 576:17.1549 577:0 578:0.45965999 579:9.1677999 580:0 581:0 582:0 583:2.1040001 584:7.0370998 585:0 586:0 587:3.3143001 588:4.4197001 589:0 590:1.6565 591:0 592:0 593:14.7152 594:0.76164001 595:0 596:10.1143 597:20.8641 598:0 599:0 600:27.633801 601:0 602:0 603:16.744801 604:11.6184 605:0 606:0 607:11.864 608:0 609:0 610:6.2536998 611:26.6098 612:0 613:0 614:18.5571 615:0 616:0 617:11.1684 618:3.5704999 619:0 620:6.7612 621:12.2977 622:0 623:0 624:15.6177 625:0 626:0 627:13.2415 628:7.4015999 629:0 630:0 631:21.039301 632:0 633:0 634:6.1655998 635:17.864901 636:0 637:0 638:4.4696002 639:10.6667 640:0 641:0 642:5.0907001 643:57.820999 644:0 645:0 646:18.000299 647:35.194401 648:0 649:0 650:10.7077 651:16.401699 652:0 653:0 654:0 655:20.4772 656:0 657:0 658:11.7741 659:23.220699 660:0 661:0 662:25.9823 663:2.6152999 664:0 665:6.8737998 666:8.0712996 667:0 668:6.1991 669:0 670:0 671:11.6801 672:13.2875 673:0 674:2.7541001 675:60.954201 676:0 677:0 678:10.3689 679:47.439201 680:0 681:0 682:13.5984 683:30.896999 684:0 685:0 686:19.2306 687:8.4011002 688:0 689:5.4650998 690:15.944 691:0 692:0 693:22.946699 694:0 695:0 696:13.1968 697:10.4771 698:0 699:0.91619998 700:8.9139996 701:0 702:0.72859001 703:10.1628 704:0 705:0 706:3.1749001 707:14.1352 708:0 709:0 710:13.1343 711:1.4118 712:0 713:8.1406002 714:11.6117 715:0 716:0 717:24.396601 718:0 719:0 720:14.5718 721:23.539499 722:0 723:0 724:22.0585 725:8.8193998 726:0 727:0 728:8.2662001 729:2.5473001 730:0.94591999 731:0 732:0 733:9.7497997 734:10.6259 735:0 736:0 737:32.9893 738:1.2391 739:0 740:0 741:46.303299 742:3.5734999 743:0 744:0 745:43.527599 746:0 747:0 748:9.3225002 749:32.627602 750:0 751:0 752:20.514299 753:10.1668 754:0 755:1.1711 756:13.4053 757:0 758:0 759:6.4337001 760:0 761:1.9270999 762:10.8929 763:0 764:0 765:21.392599 766:0 767:0 768:10.8642 769:44.334301 770:0 771:0 772:12.391 773:44.049099 774:0 775:0 776:7.3751001 777:14.0454 778:2.0309 779:0 780:0 781:4.5971999 782:13.0874 783:0 784:0 785:4.9324999 786:4.3631001 787:0 788:1.0745 789:0 790:0 791:8.3964996 792:1.1967 793:0 794:2.0487001 795:5.9544001 796:0 797:0 798:0 799:0 800:6.8543 801:16.0896 802:0 803:0 804:4.3427 805:13.8779 806:0 807:0 808:2.0824001 809:0 810:0.30785999 811:6.5282998 812:0 813:0 814:3.9584999 815:17.7269 816:0 817:0 818:13.0588 819:19.118401 820:0 821:0 822:18.343901 823:3.6537001 824:0 825:1.9202 826:4.6659999 827:0 828:1.6985 829:0 830:0 831:11.8811 832:0 833:4.4263 834:2.7976 835:0 836:0 837:17.2752 838:0 839:0 840:16.3244 841:12.5005 842:0 843:5.0746002 844:28.464399 845:0 846:0 847:35.946602 848:0 849:0 850:19.6099 851:19.538799 852:0 853:0 854:19.2131 855:0 856:0 857:8.3998003 858:0 859:0 860:4.8003001 861:0 862:1.7269 863:9.3997002 864:0 865:13.5162 866:0 867:0 868:11.3042 869:12.9459 870:0 871:0 872:17.906601 873:0 874:0 875:11.5013 876:1.8936 877:0 878:8.1735001 879:2.7102001 880:0 881:7.8836999 882:4.5102 883:0 884:8.1499996 885:7.8972998 886:0 887:5.5475001 888:18.620899 889:0 890:0 891:23.095301 892:0 893:0 894:11.3341 895:0 896:0 897:0 898:0 899:10.1528 900:12.2785 901:0 902:0 903:26.618601 904:0 905:0 906:19.472799 907:3.6561999 908:0 909:14.3768 910:10.7901 911:0 912:5.0022001 913:17.642799 914:0 915:0 916:14.9914 917:0 918:0 919:13.6119 920:0 921:0 922:7.421 923:1.2466 924:0 925:2.2853 926:0 927:0.77740002 928:12.6164 929:0 930:0 931:27.6075 932:6.8108001 933:0 934:0 935:23.867001 936:7.0014 937:0 938:0 939:8.2649002 940:9.1819 941:0 942:0 943:0 944:12.3405 945:0 946:0 947:2.908 948:0 949:0.27844 950:8.9921999 951:0 952:0 953:15.2468 954:6.1989002 955:0 956:1.8199 957:12.8921 958:0 959:0 960:5.2958002 961:0 962:0 963:25.801701 964:4.5917001 965:0 966:0 967:15.198 968:20.448 969:0 970:0 971:16.9086 972:18.7752 973:0 974:0 975:3.7804999 976:2.948 977:11.2731 978:0 979:0 980:14.1609 981:23.460699 982:0 983:0 984:21.6301 985:1.3792 986:0 987:4.0402999 988:0 989:1.3338 990:14.426 991:0 992:0 993:0 994:6.8697 995:40.8494 996:0 997:0 998:23.489599 999:15.9304 1000:0 1001:0 1002:15.6508 1003:0 1004:0 1005:7.3039999 1006:2.0290999 1007:0 1008:1.2867 1009:7.9032998 1010:0 1011:0 1012:3.326 1013:9.9432001 1014:0 1015:0 1016:7.2677999 1017:10.2888 1018:0 1019:0 1020:11.7805 1021:3.2407999 1022:0 1023:1.4748 1024:8.5074997 #
